{"layers":[{"layer":{"biases":[-0.003716565042781599,-0.06326701697080693,-0.000861696488736616,-0.010969939951865121,0.024070187867541292,-0.11274069842741334,-0.02871346433874828,-0.02804446558234687,0.12376606762846008,-0.12170196249048477,-0.03778782218207288,0.1266121429822883,0.24986904176466124,0.05787916362882769,0.10378006054262265,0.058690025993282574,0.21377652238721356,-0.061856805559896644,-0.023120994465853164,0.08757101982343186,0.018820629644938382,0.048533731567466265,-0.10791408535182472,-0.01113321610762954,-0.054135218766489135,-0.14125916688038506,-0.07499658876746433,-0.0996646989441734,-0.1436463801402679,-0.1804394100894877,-0.03391219979553377,0.010799456274992264,-0.04875149097009706,0.04766361130336232,-0.028794733294253624,0.005651796510156553,0.12103873711950636,0.009405522775104352,0.02523616753309361,0.03541501804687987,-0.00073071389037931,-0.013597518762688273,-0.0546435519771423,0.13349847402913345,0.05921221254910629,-0.018634931974558084,-0.04962973401124893,-0.06029415548756531,-0.09464569876193563,0.05744192616198769,-0.07347360095817052,-0.08690452752574246,0.024227646250712012,-0.011202607983173352,0.08482177059042476,-0.05653183380598735,-0.06700336697942878,0.06535928829099798,0.14726687250692846,-0.17065745417345532,0.10190345616617398,0.0019748891211558623,0.038073739430536775,-0.15857969351001355,-0.009326057229583436,-0.05687808328329071,0.043709323008480516,0.1164526859535703,0.061486425330358585,-0.222537992462916,-0.024821789294479167,-0.061335672053983874,0.041660156950324365,0.032108405239955846,-0.014069714711721252,-0.016845861838377534,0.13833666332662478,-0.04004768480902364,0.009833204868628969,0.1497185686998376,0.015626931248431522,-0.1236193112001426,-0.08844216428733524,0.06529108100833078,0.03895506356889334,-0.0606941999324989,0.1510401248459743,-0.06699689676661809,0.03314206641998479,0.01687046328983285,-0.0006326748082366085,0.13563968617945965,0.03653279802525954,0.03798160294964162,-0.11172203748535835,-0.03959509904925939,0.026827270415810893,-0.06276099796658845,-0.000517694750357259,-0.02039270978927764,-0.04340734241572437,0.09059850733027772,-0.004188757723967901,0.0011658322537351127,-0.059415718180657176,-0.005103905366512988,-0.05159922720188177,0.09768746492629643,-0.021773689754127242,-0.05076369510049415,0.06262677047846583,0.06251098169271678,-0.1116779544125449,0.2092886295837564,0.012063989582770478,0.07699961671671798,-0.043225691247792485,0.014098619692296869,-0.021631046315933985,-0.005482565731356979,0.005385020581518631,0.06818211082926445,0.08521491579444214,-0.0629634081725092,-0.028166261008831572,-0.042371905025343756,0.039944999770427946,-0.05533489169821025,0.11187083896062759,0.022279179307472696,-0.08725235737175795,-0.006828437956514353,-0.049209543359039924,-0.03193095188736389,-0.045136172718549444,0.03784377715310161,0.10070068305888845,-0.16189634650146545,-0.0872041186176036,0.11072487022905646,0.11099748247483049,0.018672293800605554,-0.016135457045329486,0.043653639198789514,-0.07571838528152712,0.04430025650343196,0.009859001749546252,0.03190572986623037,-0.16380618492997576,0.01601600622571377,0.030538524709939008,-0.07417508637407169,-0.11809758716085382,0.05218187100597485,0.025453463154645795,-0.020570106282162003,-0.03591870168783879,0.21661805948207122,-0.044676400221209334,-0.08037914682429936,0.02427543007252851,0.05658925687764498,-0.06341857685206441,0.08249226433959046,0.030440796328694952,-0.027961416335411556,0.1542888054398392,-0.027120958279310537,0.1235894062101833,0.007123430770702382,-0.09009803403536121,-0.00761433269979552,0.12343955610060632,-0.11962155376258232,0.08711560243681728,0.12695498461111654,0.047216541720969986,0.10503299465578904,0.08061394718592046,-0.06707006911151614,0.15011752796684666,-0.03792239615687776,0.004473337466571654,0.012936317435571904,0.06079064380647205,-0.06385217672947242,0.04152632161520425,0.0028785786955703406,0.31252623422128384,0.018798122490159268,0.10964770154013263,0.1127170564644351,-0.03407826664840585,-0.08416720220462043,0.12214227413963528,0.1727625894132906,-0.19525811615976427,-0.12540468705567331,-0.03050386709967769,0.0029977231544276836],"inputSize":122,"outputSize":200,"weights":[-0.019606386753329173,0.04228558257927198,-0.060606660773793716,-0.21986713622424292,0.12852818650992526,-0.05611684056407102,0.09794505033463934,0.016999545708470155,-0.01628817372298646,0.0030052896392012544,-0.039697316695158996,0.045950140727843716,0.054687273196723306,-0.11669649965918012,0.1414409796858115,0.10579488924264474,0.12233387367101989,-0.0020440277735823977,0.030685135855321514,0.09237837045516113,-0.03128681246819376,-0.04003494769704872,0.054710195037773586,0.03430245431777286,-0.03557214905661716,0.014292948595639406,0.06864607174137714,-0.008346803252161224,0.014519833332189582,-0.004960529480586242,0.035253918579063494,0.1628100430615731,-0.2029296785472649,-0.024083134869081344,0.12094972512381319,0.04905688578985637,-0.027666382134171934,-0.00020874168909509408,-0.029323269573577206,-0.11503634981327895,-0.18699122616472305,0.14383420451719295,0.030862658807467976,-0.0433251123248744,-0.022561745841214734,0.04924079605043455,-0.04430806070525042,0.01071806226576337,0.06892681160922853,0.026426717422752898,-0.006796181221814308,0.1529682215931365,-0.02221092288846775,-0.07157077491376444,0.03875442954714347,0.055053074783288754,0.026573090762277214,0.07337585583951324,-0.05448859620139798,-0.012045655061256062,-0.12225967018420364,0.21787107955328863,-0.03899581694792167,-0.04731644748436408,-0.027028834095294187,0.016117822320467035,0.028636454426464425,-0.04258713743170003,0.017604690788764355,-0.12464858721578881,0.06136395912659338,-0.1225436812955424,0.04206993828001622,0.044328492523879465,-0.09641003935161441,-0.1469581162185793,-0.06773666913633294,-0.0011426528287127482,-0.04923129381604665,-0.18414974234595957,0.0813288255025035,0.1409783087254588,-0.033396527802158404,-0.06385401808525086,0.0013863148381438037,0.03681014926662161,-0.02947593189738335,-0.11130100088332079,0.07188240231925651,0.05358426707581592,0.11405063023300639,-0.008762682309297477,-0.05626982905246132,-0.06553345662523688,-0.08304820512194777,0.13970947293061978,0.09354109792125022,0.05669399955332804,-0.07476321671257564,0.13110358806329125,0.07149719642878286,0.033562175354900546,0.1022554695332414,0.07196658864578435,0.1859390376389627,-0.06543044450599295,-0.0018091204387983837,0.0037853768720668875,0.14748839945193498,0.019604955774696516,0.03413893910962287,0.13839115073847758,-0.03679305170553644,-0.0909994527681717,-0.09060102786901365,-0.02734768914431564,-0.08193368726199547,-0.06704313079267422,-0.07599299298533747,-0.021728900236668645,-0.055606366703428056,0.02942904159287869,0.09297072896305275,-0.08578490224961739,0.1024196166622864,0.06655186829754497,-0.07207162230854325,0.09076110721615555,-0.10016834100130807,0.07950451235164965,0.08176311427992031,0.04912786743367022,0.003482591934288592,0.11522569976365712,0.04810637282203123,0.006938162324804398,-0.10030955339637401,0.053239840967353784,0.04562537763073532,-0.07279300829484896,-0.028744221874972883,0.1161915928108148,-0.13722079159885062,0.07143018295170801,-0.007168494279771229,0.04233813750711137,-0.09130355278096314,0.1742759626717104,0.057206974616815565,0.1361199575935774,0.02373324331453,-0.0659241725479497,0.008316032427186829,0.07811015731153846,-0.055248682872785226,-0.03659634229266856,-0.015099607739068318,-0.04693987239309158,-0.04665557597507348,-0.004526899358463426,-0.15164846556184503,0.19827201225575974,0.08954830056400037,-0.0012780731979992513,-0.04208187741002599,-0.12302774968001895,0.06934326363083931,0.0835229655179101,-0.0631787883028065,-0.07880729340203112,0.03732401506978977,-0.05986440696988697,0.09222482992650444,0.014454855975340715,-0.0741577382515969,-0.11294494981072466,-0.004633469761708301,-0.1951491059408885,0.034346323007744435,0.08919963810217567,-0.06914276058642586,0.12721190725007395,-0.0379114443543559,-0.08309503579367689,-0.09229098307524772,0.03881973632252749,-0.024160682790497778,0.016671272232661134,-0.08604806958073259,-0.15278816010122218,0.08371221287724721,-0.0644768139894928,-0.06589686750445534,0.04502925237352999,0.027944958273442306,-0.1628607011175178,0.02755739287047706,0.11164029180658161,0.0570176720552873,-0.08168543898018815,0.04354205339065898,0.018322329333469767,-0.09746957014204963,0.0270832344563302,-0.08477178764243094,-0.131521899493088,-0.03328639150767247,0.05813561025192278,0.027468000404291558,0.04837855611197361,-0.07784331887817669,0.00837558646136995,-0.014354958813199719,-0.07159822103020332,-0.03164762914283925,0.08069668474956078,0.13624361593031104,0.05914441717802965,-0.12634101950106957,0.11974864463564337,0.025672286774316194,-0.0044850779777657205,0.15159229947589334,0.0018266201880605983,0.1382412291425119,0.05877329508309777,-0.0010622734262167063,0.08955882499961235,0.012494172857427311,-0.03693888424369712,0.004209783006993723,0.010748207947700286,0.15343116025264708,0.14203068322312654,-0.0958256137300601,-0.17589067996401778,0.1282061623131283,-0.03248777982824932,0.18185861347319135,-0.09023540113337727,-0.038412418160634294,-0.08209687858436662,-0.034655680180453334,0.08038757550813155,-0.014979181128364232,0.14535646647133152,0.037085077562090174,-0.08504063952890041,0.07101060975576418,0.06558004591082518,-0.044125160380569795,0.024653015189072452,-0.05158876683103707,0.06574432988301208,0.1213599596848117,-0.0557243009255029,0.018127279383395842,0.027587801035936565,-0.01856388986558852,0.06569106287015138,-0.1102712502935984,0.07731016683535975,-0.21480553822836332,0.01153402417989233,-0.029690758057446996,-0.007107124874223989,0.09331298358741508,-0.0043985263259891045,0.10787761467267253,2.0706580863187236e-05,0.11998243713621488,0.0948247562062216,-0.09193228344573386,0.03992488905475763,-0.06254732443825893,-0.05958720978079117,0.004036208549712192,0.008610957852448805,-0.018233452972799817,-0.11806294090037289,0.06399372979447104,0.09353102659021784,-0.09590441027587716,0.008907316565268174,-0.10201042216296936,0.11119583288846295,0.054723212921974324,-0.03312327771039832,0.0036424689820474697,-0.03808830476411076,-0.00580997108129487,-0.06239148824800077,-0.0012156321723372063,0.08443359419974217,-0.07635965724788439,-0.07478406263177127,0.04969101883444691,0.17241999951800377,0.021785156236104317,0.011170975374675969,0.05158695390549334,-0.03405589985703441,0.05478173166832245,0.02586005243536324,-0.13656011990315137,0.10705819534143259,0.06132561537352116,-0.026236709790922998,-0.033865691124223274,-0.023422926785229038,-0.04152550377301149,-0.06773578775715519,-0.031913761346501555,0.14228484469534855,0.01965584985013464,-0.11831499764920461,-0.06618172603279562,-0.03452260978784949,-0.029674791135431162,-0.11248090006812406,0.09461825965542707,-0.05376064334510038,-0.11444024771620265,0.059329555480439056,-0.027592811371810258,0.08599004213244686,0.0581567940159512,0.16498578983743128,-0.04554288821025531,0.11264355759226162,-0.1003819043835967,-0.03519873146612789,-0.04581419515939523,0.050644674328237466,-0.004428792332936547,-0.12923927874170577,-0.011272520368009725,0.12144432153300469,-0.06032619888217636,-0.09052608517784734,0.037122449497513844,-0.0815795633196395,0.07149932001590292,-0.09447472621564104,-0.057796341269504656,0.10924321168021085,-0.09169431638032799,0.07255671079474693,0.10559722880597285,0.026493891270378548,0.02139359233669533,0.00631546566709517,0.09686474340654992,-0.0021812267969753703,0.010951667766992643,0.1811027226419796,-0.04452752819221426,0.18566406399994398,-0.06217576117039013,0.12875756423518694,-0.014572121611418524,-0.038003054003074306,-0.04695443889453678,-0.003177182593444125,0.04686091579198373,-0.17734945605556632,0.04652074853177218,0.1211907889575863,0.1778239181234129,-0.12138764797013057,0.1110224107785038,-0.044213214634654094,-0.11780446270780788,-0.15835415631945488,-0.043446204922758386,-0.043509417902072085,-0.12934954942852886,0.1203274276059831,0.06348535705123493,-0.08982860059780173,0.12413607604914448,0.10131279670265783,-0.024925510959103593,-0.10240976523258993,-0.03990825779567972,0.1188665948184933,-0.15301683823100906,-0.09572186857420939,0.005838326394924467,-0.10854566583548866,0.10926522064559215,-0.07460856740979614,0.0697715208993172,0.10958254799475531,-0.1650884633078568,0.08724759885021027,0.07205380173630434,-0.07365055289407431,-0.1377033618191389,-0.0556294633383364,-0.08777108671797611,-0.07336916485189289,-0.025679161264263572,0.015903893268889965,-0.06847276468712137,0.08351373745957938,0.025498943768652856,-0.018077504949832516,0.11149591982634585,0.05863749612448193,0.07488813938605621,-0.06781368595757137,-0.031051219232416164,-0.03417297985529367,-0.11584161412158059,-0.013024165700136217,-0.020555114116184072,0.023237218870087815,-0.16131268963445836,-0.03934314944803213,0.05826797439395673,-0.1400823588100701,-0.105890520550962,-0.1457377908543252,0.005720205087343352,-0.007609051183675654,0.0104034929456497,-0.2360975543741445,0.10072520535777099,-0.001985056609218622,-0.1572099453527536,-0.12281533654635002,-0.02712724183630546,0.01683818142381579,-0.1130226594380365,-0.009377009463514394,-0.10366966093026136,-0.041261645606364576,0.08533392677364211,0.04731682135336786,0.08337316448121486,0.11176364558951014,0.05164904754948166,0.041107242771885356,-0.08403918087575785,-0.11338077199545298,-0.15220377247896774,-0.0030361283583071105,0.07417461162076763,0.12274359345815357,0.033198316585297545,0.029157682796450042,0.03895783810846067,0.11221141515833799,0.04279587776055447,-0.10572372927795298,-0.1692731629854189,-0.005622701359870747,0.07033654533045035,-0.03659188423952669,-0.031831983376750854,0.05207369158018226,0.07095415780515939,0.03157040480791459,-0.00907355833114177,0.021995677435410692,0.12931152807047297,0.002442575697673882,0.012079550305293021,-0.208116035875765,-0.10198179552972053,0.04268135004979356,0.01907162081234898,0.026571091511385304,0.017233295425602164,-0.02627942343236503,0.04948591878164247,0.07698250322948437,-0.006796678647357561,-0.020685456374546843,-0.005681722210073704,0.04313265212305798,0.05090279797744819,0.03293158540436611,0.01524892010634933,-0.05619707068704793,0.0376261306168614,0.1350492615574711,-0.028129637524492702,0.03362030012536704,0.026170125176843646,-0.09607309686048378,-0.16784590917643363,0.11702563599089406,-0.13412578973833572,-0.1147956224024886,0.08741848157388006,-0.12310543310977079,0.16474717118654816,-0.14261071419747032,-0.01202824897635506,0.07480261381615136,-0.04503892037353146,-0.1063962409127176,0.08700426445886056,0.03345644198578582,-0.09490767428689542,-0.05509080323980812,0.16598423476928217,-0.040914344305478134,0.0032369324937830957,0.05144843317629781,-0.09176785566304768,0.02945026619281408,0.026484783352970998,-0.16237408406796808,0.001732838498507154,0.012475528540292475,0.1983205187786923,0.042748619960027656,0.026940192646733783,0.03814159941179798,-0.0016685804314014751,-0.045611562902113344,0.02235869383713153,0.1523506971035425,-0.12617115623111855,0.004661455263109507,0.018735907631911866,0.13137961567639256,-0.13513444645622988,0.0729651394664595,0.010107873558880466,-0.03181231556180026,0.08431355517344626,-0.07959174195927783,0.00673173287115045,0.09934328299739752,0.07073932629522083,-0.06930439820166673,0.06480728330768575,0.0077923931510543165,-0.002554330534184571,0.03551991703912765,0.11014265765571031,0.1579047198943365,-0.06319468293620985,-0.09577380793717212,0.10879153075667689,0.016740766207266923,-0.07271591982812224,0.0057850272544999444,0.01277497004893249,-0.055342730414083594,0.052328874039132244,-0.05143702471760116,-0.01259681592881979,-0.07002218675744748,-0.12216487698296744,-0.017054667252211424,0.19686726969437357,0.11953324544312587,-0.06384367208275489,0.07976758997948842,-0.18871196433630183,0.08332003359987435,-0.03071456801865353,-0.03302151205363175,-0.03138196515097572,0.08260641975968702,-0.08606685048791546,0.053229483046373545,0.13952073870731044,0.052329001016420525,0.12325648136502948,-0.06688934577063187,0.10616811546990779,-0.008240860259319032,0.007942354079869433,-0.01862167048512222,-0.062219277715038004,-0.03046336044787745,-0.003352136834480134,-0.07557637521207228,0.13129110001915703,-0.0675686932595687,0.10058226647767925,0.062352079015810524,0.0613691860191519,0.0356991975653973,0.06901542573341753,-0.04762853177914849,-0.10085522652741791,0.0929937741553727,0.10950236242158376,0.003908341493353694,0.04851610449375623,0.2123287154529043,-0.19100832898843487,0.10471828503844337,-0.0069102167150680485,-0.09442920700831635,-0.14108458660232687,0.06350365070694519,-0.031057186587208813,0.11648292248192242,0.029504628559028665,-0.05823902274033928,0.14753689305015272,-0.04104628967436912,0.010537216110637534,0.018129405624784576,-0.01759045260636619,0.14065850641593067,0.002289746622925324,0.12354684153355164,0.07036360992540407,-0.033935189831403575,0.0035764361188795808,0.04014916340273703,0.035845944571822275,0.018005286385903728,-0.06830413768721523,0.034149632992390204,0.015226605115331663,-0.01829558571386009,0.043242469969141085,0.10365236892599121,-0.1745111154256299,0.04377949713843961,-0.07612485582492662,-0.0006734784959709097,-0.1841650691645509,0.10541081842153407,0.1612755028130308,0.020819888311961653,0.0004876926055658589,-0.09905766157716897,0.03571647142432374,0.016214819800209362,-0.07638623889604568,0.03151492775959364,-0.08588787165338532,0.22542961930390804,-0.004237441978508723,0.07614676894613294,-0.0995268200114361,-0.1406523420723066,-0.08849909024214328,-0.00010359828901157999,0.010320682511164784,0.08276485134971875,-0.1719733464666509,0.01776523433780532,-0.1902377239963817,-0.11325213312760103,0.050986165211840254,-0.0828589507263931,-0.0768641819686607,0.014106614270900309,0.04115476374795521,0.09471961012322631,-0.02626015446596756,0.05992671651832635,0.07214114178686944,-0.13638420847258112,-0.0006395394236911332,0.018440489472403065,0.06425014738312576,0.10499417939164186,0.0621619611476496,-0.004039353520957482,-0.018721789758581246,0.06761578236042663,0.07310419849451358,0.06744419363029505,-0.03801758018789827,0.13977673239200697,0.14972817344029724,0.15844637857963623,-0.06592905497243197,0.05029428512954532,-0.05362751858264232,-0.052778612205525086,-0.004341516675767139,-0.049540102213515874,0.09367582488698174,0.06423238214262533,-0.010769640977712212,0.06232804654191871,0.0380847689790624,-0.028783815432293598,0.035149862270990005,-0.013467087190955067,0.03305726978551077,0.0077925200669352775,-0.043783270124126555,-0.15631145357229292,0.12713544463644041,-0.1268036828493856,-0.09768594064802621,-0.10900041780060543,0.06943031207794971,0.07346618579181721,0.21974035878254036,-0.11081018672415928,0.10994714299732421,0.015931502843506237,0.055693714829932114,-0.08391493706459208,0.009775846102161692,-0.03677198921915122,0.1412785305324577,-0.06957314344067238,0.02400062321138136,0.08065352076247419,0.14999155642185347,0.0238293262972387,0.07712481780092224,-0.019137833764068052,-0.06296243973250597,0.18162480220752888,-0.03735754777610922,-0.11308247120177088,-0.09710064650177347,-0.09801779389919177,0.13023163779702407,-0.03558808548813012,-0.030811411343205,0.0993419482945521,-0.00865683651507893,-0.03453656269927465,0.12237310931120957,-0.09507150268086749,0.047030172609326286,0.02000527000022151,0.08079624038231517,0.051320523809121284,0.09580103328800388,0.10782343476194824,-0.17418479591108937,-0.02540254619218759,-0.010053994573404815,-0.0057050885705467414,0.07578088336897464,0.10670568251838569,-0.2677716527394215,-0.025996732884161138,-0.09272817117338979,-0.041487326137722574,-0.03624298991829447,-0.12889427776431409,-0.09531731720317463,-0.11915393918883202,0.016330490282703614,-0.11635279862588163,0.0889139082475483,0.053779104270509026,0.06474229848934286,-0.02978509821193597,0.09296446785791428,0.0883076828964069,0.0049040702991576405,-0.02925481156872998,-0.019945571735053142,-0.12824383846838294,-0.03436813253113413,0.13655354301846956,-0.06740605828118339,-0.07293283801059174,-0.14130665077940038,-0.013493250861099367,-0.029677188475192108,-0.10168956417832942,0.14474973408745856,0.033459501277435716,-0.06598782264055442,0.16210787781956473,-0.004910825755131892,-0.07370444690686068,0.040068698249338036,0.14907519184038368,-0.0629535476395704,-0.10067034007655143,0.06693675338764489,0.010451063742046726,0.01569345940180803,-0.19873482734259154,0.06931400621585752,-0.11543407924649252,0.12884179569879187,-0.06347528875336447,-0.0651855040097744,-0.013615738504042517,-0.07602378110661068,0.04676917939466641,-0.06749451189402017,0.01665050391327934,-0.01947801132531607,0.07712081339549727,-0.0018466651697589473,0.06743241923846674,0.049563851825492874,-0.047199052591593446,0.07154572433395245,0.026762857241152963,-0.04288689162294732,0.19489959347483768,0.026072668026393832,0.19297115363080183,0.022737855170827298,0.055750477863372096,-0.015339782364790628,0.0112914482904588,-0.0414705953966365,0.07005482892274555,-0.06891082251439955,0.012872074242269192,-0.0722549522794649,0.011904059223332108,-0.04228253375636457,-0.14073871905967875,-0.013635896699791745,0.05439011052820151,0.08918145534376216,0.10351462514657164,0.030208529182941406,-0.13432940763092246,-0.003460162454592206,-0.04507922959721635,-0.07891480058268772,0.12650229635331534,-0.07805593004419957,0.08446519091509594,0.17702725209122458,-0.10650146449654072,-0.10281718938865346,-0.16255642687095917,-0.07873028271932599,-0.002915131318438603,0.06395057811024672,0.0014903339957530052,-0.06141758278400931,0.001601507679576693,0.05059525237672017,0.1298257309143006,0.11633647792686619,-0.058421395860218585,0.005908497544401409,0.013285493550333259,-0.024998814254429177,-0.01369276028055884,-0.0794359919199589,-0.1499439628967201,0.12008857716302725,0.04146107721217782,-0.08714050917719042,0.04692192718676158,-0.08792769303190492,-0.03827129361365691,-0.01592315909337856,0.03543641452079029,0.15587601072091115,-0.0020362700704236385,0.007430958081468153,-0.1155912473520485,-0.21143987796645786,0.0987007921347608,-0.029898502529842316,0.1710233275625974,0.002104370278877401,-0.06546520514063967,-0.01818595518344567,-0.13883857223748688,-0.009134670621765784,0.08315278658542151,-0.0946148342150042,0.04236898280665822,0.12777214777746898,0.11743203318407282,0.009618135062620731,0.035207884011463256,0.013793287532497643,0.013810181304893096,0.11354514089880532,0.11384581355372547,0.13226646909394166,-0.0753909351856944,-0.0036431805156361165,-0.01688063382226327,-0.10648940889694923,0.056346952425724635,-0.11067393655981864,-0.040157938808660025,-0.13941271346227818,-0.03998729726069109,0.1309154110273481,0.08139321670172703,0.09775454981835477,0.09179051805156131,0.02416386859076698,-0.004602295226019346,-0.011886519716668579,0.03379670797300862,0.08740379804363677,-0.03783328522855949,-0.05621984576108743,0.06096503848514159,0.04953677225330757,0.12091852115348516,-0.06368475785435897,0.13637347321915239,0.045788054795567114,0.2877767380798424,0.2046741606023619,-0.06033805353014343,-0.11779768913673482,0.08917090927385585,0.07166914974258429,-0.1501000671906885,0.02227734277205902,0.0280853586710268,-0.001428822250217156,0.058428398248702815,-0.08708178027563053,-0.1870378211602886,-0.05364754710128481,0.10942772168107807,0.10117714608875392,-0.07035795741976521,0.06162969613588158,0.018456814704079342,0.10965773890744626,-0.11378510674892808,0.0688353563947642,0.08606527480081742,0.11357429254474177,0.06890046501365214,0.09875748931763038,0.006617109396929635,-0.22869984738832944,0.012198399085800315,0.010966782284721376,-0.17940619972713884,-0.006208518719755122,0.05136329091080909,0.07266603919867941,0.18847436017327218,0.0802700845652529,-0.10712984861985786,0.11529816673927998,-0.07083872676425575,0.04844832958702266,0.008569848992343575,-0.011216369754528983,0.002697423497405096,0.08889634690816592,-0.16531614213565543,-0.07125326228037274,0.02727081187251847,-0.01641405414104391,-0.07493308908690388,0.18274106044926816,0.007652888247882233,0.1313886391047143,0.027148011825785155,0.012029113385377438,0.04355364080570512,0.1250542728875475,-0.08311407743804691,-0.017635326795815993,0.05014759967515177,-0.018418689796965433,-0.02758650796818679,-0.022488850483750777,0.10796616368223884,-0.010547157535169114,0.1411754550073295,0.00566539420868628,-0.08976743187564078,-0.001349105046589981,-0.005288583982233694,0.14997204319492624,-0.14955400347892756,-0.05779632283662313,-0.13722588302604438,0.08730555602250427,0.14039402077969002,0.10867886035773505,-0.07734523157312638,0.025667449633678178,-0.15049644252154362,0.11117414123372713,0.03685036470855077,0.17129632863798752,0.07705573446918043,-0.03774475432546204,0.11484223761172897,-0.014124585280702675,0.053672230187831266,-0.08990011074508897,0.015440487028830887,0.12769355783006467,-0.16830521695844178,0.05338045134876303,0.08856476849885923,-0.030697817442726632,-0.005319586385138474,-0.05529451847109329,0.1032117906959449,-0.022455589882788604,0.008561817717409756,-0.016553561724624823,0.045193795482014645,-0.02589168285177917,0.11140082616628738,0.09767991020164818,0.038803770461054744,-0.012002499726561144,-0.08433004493374738,-0.08709142230540172,-0.07665527959488545,-0.12665005550538913,0.21151679720657138,-0.03573074874242675,0.07044025527378081,0.021127465640648498,-0.023154858298697085,0.040727517459562816,-0.051616539575141784,-0.10044713044450261,-0.009000621028875111,0.006177701269758724,0.1869551334933548,-0.10015361003193593,0.15353625981047284,0.03879795786985866,-0.043217064177797845,0.1454431094773438,0.006209510044436698,0.1549130107308573,0.01063938287874355,0.10702320277390749,0.013408771136027403,0.05656677534627912,0.041656918662872196,0.1737742838072427,-0.0427305011690292,0.05260764628983092,-0.04508575133864966,-0.08740246845828181,-0.05019828252831837,0.08924882091677352,-0.02482187894809055,-0.08337801691559764,0.16097761686701692,-0.13260791828652055,0.03216546204027943,-0.13883529522170762,-0.18978753772084284,-0.11409279177340019,-0.03765739112466576,-0.020500156107233936,0.047491787500158304,0.05097921551581821,0.032844470866555786,0.12017797978478394,0.07504824767154711,0.01850660326907342,-0.027244706602428254,0.0721264799413751,0.06443953393801144,-0.08265388653158398,0.015531684600673333,0.013794017737353432,-0.02404203817994569,0.12309457385115465,0.0653704180816682,-0.03127819185861541,-0.2464747541357835,0.007755109359958474,-0.04335714981690289,0.016244908299962356,0.06744659610686934,-0.17287487434463508,-0.016047992404049416,-0.05497498228051217,-0.052441437727064014,-0.023000166621588044,-0.02095917401098401,-0.01469616588604273,-0.0828931201010082,0.008466569977553691,-0.015068762516697577,0.0664065964627727,0.04325737772568433,-0.029710792247326815,-0.053226788339025104,0.13300711560458373,-0.14086955495735848,0.10771181043235295,0.12747442100137255,-0.055420871636604134,0.036923177658486364,-0.06507186972853624,0.0236405555978337,0.026875519932697396,0.19369123918173256,0.006590843043736422,-0.20272172334779323,0.037502446161924,-0.09575423939542721,0.03248007162660558,0.20786926179702897,0.0795885741226178,0.09508314769429242,-0.0072484273365936895,0.011131469912978854,-0.06376233027243408,0.0846121597995522,-0.05018260719806305,0.06322652352011973,0.13582162225757788,0.04048371969402821,0.006582880224579749,-0.0343955708630234,-0.05583714875680914,0.10664378921823907,0.028173594479190923,-0.04238538123625516,0.10872561517413323,0.04307073419176517,-0.05321702842919027,-0.025927229223747347,-0.07809869409212708,-0.08182898863843817,0.20635672627799023,0.06574815954054242,0.025136734457156862,-0.008872979715919454,-0.1845204536147303,0.012626260885421944,-0.09410931007179751,-0.09068611936107145,-0.10165413789174946,-0.10072333445044326,-0.09961200981700977,-0.09193835062786554,-0.07417505813742249,0.12975147936473064,-0.1561929372686167,-0.016292792551388248,0.03478810452907794,0.04836289824963786,0.22563977252152967,-0.054327079260054194,-0.14763976002770046,0.06320413216373887,0.11139698810782704,-0.03487786361372201,0.08189642588260458,-0.1478294668956329,-0.0016535767472352853,-0.02804773427474195,0.135458707505082,0.028112973534275786,0.014099103900906143,-0.14099192455024517,-0.21276771140351028,-0.008810107598370994,-0.03784284139136196,-0.10666249505866957,-0.033448545849971666,-0.13079873228917346,-0.0006546511113370823,-0.04560146642147707,0.016628536387619002,-0.175789184975474,-0.1265974886884573,-0.07234890497067585,0.025584390005701535,-0.13092072095169294,0.06828401217138089,0.07691808012199222,-0.0704399274284626,-0.07938511455983784,-0.002147925618376329,-0.012878129805620525,0.18330522304668537,0.07487670970900086,-0.06048846440189603,-0.07395209053595993,0.020752264919143823,-0.09252555966560111,0.09676924392803066,-0.051259774727331245,-0.036859713812333814,0.12501189070443297,-0.1270067356035663,-0.22654820561727512,-0.022533908865928057,0.03283272504224472,0.059883274698703685,0.058577069059904806,-0.1634013493599911,0.04427407300943113,0.10161186687987867,0.004069702493574353,0.10673125223515376,-0.10966645365333735,0.0033693115178253592,0.06757141096984082,0.0269362499093542,0.02261619436433841,-0.0014568600936721919,0.09690301453776297,0.1322932547607812,0.15740725576014467,-0.05317345663059219,0.02053939330508239,-0.07211873416182511,0.07061291567147757,-0.11050763994670944,-0.1457619611812722,-0.12689954770042985,0.07418963131843184,0.07535023046254181,-0.05527739471727293,0.06644705459631375,0.16492165301793815,-0.1601512399722333,0.10580952188866463,0.029173782488562193,-0.09060206664870299,-0.08555316584509406,0.019145961802732592,0.04007884217475206,-0.12136205146989892,0.05110814615892833,0.03607750506796787,-0.05336998548465552,0.09977345421581299,0.10769252957362621,-0.030513543779653596,0.009384305956491246,-0.03770750852275516,0.119990067601909,0.05573429499004603,0.01260248843688149,-0.02466516447318992,0.0012340653796226557,0.0035935203881793023,0.07095191420218774,0.013541188115643955,-0.05414678111782569,-0.0129683275157015,-0.019629165045309146,-0.015006168616662843,-0.057856849954864294,-0.2466402606157774,-0.09359140164749524,0.059260292860440184,0.18877966510716535,-0.004154339122000114,0.08816365081797806,0.06322925893360279,-0.03695078897952006,0.031956986563490435,-0.049932692393712605,-0.06814606041294842,0.06153976555518535,-0.059078817957375414,-0.11634890854010553,0.17190884778609827,-0.14268061297960405,0.02071675853199832,-0.0011050760563697973,0.002867626993633467,-0.024886043518291195,-0.1376682194987939,0.12640482624899396,0.2555885592797858,0.004301119597206396,0.11794949609616541,-0.111372687272281,0.021772512939860184,-0.11765170291342943,0.06125537046213948,-0.11407535090861715,-0.019619025243871897,0.1434411482009735,0.08216200256148953,0.13194244908331712,-0.026280565631680474,0.2181430630493585,0.001520154101720913,0.1638638684221344,-0.023795313484971475,-0.15985365011786873,-0.04699769353247434,-0.10493032191432564,0.026633580081032154,-0.010909152806608119,-0.14977914172857104,-0.02470746843301892,-0.11747383759721067,-0.16938457460587486,-0.05401027490724237,0.03600372416649322,-0.029843310166700006,-0.11358685895134638,-0.04107403443511881,0.05251688121357159,0.04577974076798464,0.06803489163369097,0.08238482560057687,-0.11326564576708813,-0.04695233129109691,0.1260240049792769,-0.05934779311149416,-0.35235221255958915,-0.02741862026384878,-0.005524126596791752,-0.10832193983332146,0.04011429898306088,0.057679385042996946,-0.11719799392091076,-0.16503580700448706,0.07967173503215219,-0.129639303295435,0.17364056332426145,-0.014555358706614585,-0.009418793900341728,-0.11796712434902884,-0.06899802987823013,0.03147207867471821,0.015272419112887722,0.016394160395960602,-0.08521912677938855,0.14258904581515625,-0.013560934893555858,-0.03676091147646507,-0.022576593334963434,0.08312440769342118,-0.04731591193452768,0.06507188089481049,0.1327227176999362,-0.055671520113420865,-0.05871956274901856,0.05581238867180896,-0.006964075226009894,0.06075759662719823,-0.11633410660127536,-0.03208121652864804,-0.12959990470165983,-0.08982330235200324,0.06992262764059028,-0.10226643667012987,-0.11535918745652579,0.005572437898020039,-0.10295297524934602,0.01334833125041841,-0.06482854864887254,-0.1471684990366517,-0.11618778755167206,-0.13819427861836592,-0.029778345024254155,0.046741755325926414,-0.036713102255914516,0.08380627660713336,-0.0572394158386983,0.11017426105977793,-0.06091427088085317,0.056829989366912664,0.029327346026710426,0.025617025174914123,0.1247578541188816,0.0559159859971671,0.08727334934143892,-0.020990295665068298,0.07893420681266751,-0.23304211961314292,0.03539834523969653,0.029255032494477605,0.14519022832118209,0.039408006590327734,0.034927687544760506,-0.04114368185972698,0.11998532282689357,0.005380774719522249,0.03812291287147107,-0.06284560475869982,-0.037151701451582905,0.09082092793401524,-0.004207457540779061,0.166742402667423,0.0076674291534692875,-0.025082296505742358,0.03010324524576927,-0.15500451729731848,-0.017546953771158894,-0.14961339589165829,-0.09657541510403021,-0.05604405386496428,-0.03543763171229862,0.040830133396299206,-0.04253400743313445,0.06488110905156859,-0.007316063408087605,0.023687608746927113,0.008536467764000924,0.1049550126615387,-0.1867509039212618,-0.06221850353434077,0.04018775897342475,-0.028392203990395257,-0.09290659918353929,-0.03924601322499988,0.04869324175657015,-0.031081956996259083,-0.05697429401046957,0.006438977833162776,0.09343053683672528,0.04271340643603254,0.021616571940807638,-0.11464364477923923,-0.017478295203702005,-0.16992267225039515,-0.08115104239586286,-0.0573004149520582,-0.07101529471759688,-0.10583283008178732,-0.0035571046859740694,-0.12943968571125364,-0.16815037311881656,0.0596453462973357,0.036387749925862016,-0.0601146719940542,0.06896521548908054,-0.07958129093465333,0.19049862016021726,0.1986510472153322,-0.0968031757266247,-0.01905599913116591,-0.10521232746755423,-0.07933186629898188,0.015933848908752084,-0.02028735795224549,0.10390816554616626,-0.03179365093002507,-0.23850273002791092,-0.062246659089605375,0.14127771668566588,-0.04167542694404028,-0.041035658244791384,0.04130666561392915,0.044499540602419625,-0.008295676291551516,0.08381215158239275,0.011731588686930064,-0.02466334441367886,-0.09796051283822031,-0.08417137055607737,0.0029051209462858003,-0.05120342410966255,0.11792014053898134,-0.01668118580141082,0.047050865994537255,0.09658156100654465,0.11807281424443708,0.24487941329625595,0.07096153465139447,0.012660966176317517,0.019291950389692832,-0.016955642666679007,0.01066455175808105,0.1898718876310421,0.012700328717686723,0.10168907316759333,-0.035230169107930726,0.03641102621143187,-0.12251783820760438,0.24404781671011602,-0.10248978946762928,0.06434281241958612,0.11890292817220503,0.011305491869708827,0.18449448626442758,-0.04900980787137642,0.00761325571513995,0.10911320258707716,0.05750286343666656,0.009345373505028965,-0.000701848885041836,-0.04483816564871591,-0.01690496005870184,0.07007496324378695,0.0752816242869539,-0.15010072610802092,-0.1983430768913703,-0.024525041244877446,0.08685260750978573,-0.027874146432014503,-0.012700330175833946,0.040701525003939754,-0.11342997431934765,0.037691889060899854,0.08394426258079864,0.10527864139359745,-0.07359851420145858,-0.04742186981280431,0.029029773757531754,-0.004376642872464526,0.055155746582832524,-0.015194861561618917,-0.05332201594288415,-0.1287502259554051,0.15015240801590693,0.18822369505223663,0.06895845225828266,-0.1360091692566716,-0.0003289932076747112,-0.16737519102388002,0.0677387963709189,-0.03047256405343497,-0.03892543898628754,0.10142899278987312,-0.02345416675384537,-0.07334168682957348,0.18791944006637037,-0.05500072460976788,0.11926575973422028,0.023674956494846675,0.0751742502528794,-0.12565989408124925,0.006435523487859824,0.1263163635691992,-0.1086692066273455,-0.013462848481556502,0.04185441848500108,-0.15433385054470863,0.09644748280269198,-0.07731988439270054,-0.05098373789283046,0.13254821382085252,0.10487736925798459,0.020676389850790514,0.10914131943092413,0.08016916854105278,0.04135281546711576,0.014985111239155071,-0.12465150874272239,-0.01764820309212472,0.06802336531955244,0.09061498186956973,-0.03384075752918664,0.009011350489669844,-0.049620759039373255,0.15952507227830479,-0.004270748996460512,-0.060831597891098974,-0.20995979975293433,0.020820539465998926,0.07048258302370126,-0.17824438041358825,0.007878752414906431,-0.04533997603908426,-0.035684520580609946,0.057781892953577,-0.044763016424417136,-0.09750405986104682,-0.006321757789042531,-0.021249315192062416,0.07524373127302614,0.02399091762419249,0.0545171369996542,0.023941685210290616,-0.1274536337189702,0.04336149053170137,-0.21961705534507536,-0.1748558143410683,0.05220145460895328,0.04276409560578706,-0.07761594269171093,0.03108785043378154,-0.07788111212722537,0.10106406874065946,0.10494884655213052,0.10999192092723725,-0.11821430721563006,-0.016765120714759132,0.04867471707653572,0.12881999441170214,0.16120372256151302,-0.15184049902258503,-0.07293036973403107,0.17638225774717708,0.015441329925457692,0.03889223436093164,-0.10433432785901671,-0.0706312775816657,0.1272791052313478,-0.12355184526461116,0.03195346365092377,-0.016443895791987094,-0.0005661930597441394,0.22521764954005924,-0.0058941727880273236,0.1968629937543167,0.008097302971996415,-0.06998486989228483,-0.03115637777560622,0.04056136808714692,0.031172617389095082,0.13056964797693435,0.04682584841104778,0.08597837682434668,-0.06454141090344083,-0.015016908735352377,0.07130147224303618,0.10102159639492693,0.16903680782561292,0.10227028690800996,-0.0197640620071335,-0.07467996426772952,0.0012434704802765724,0.14326742339284512,0.0042151091757482466,-0.059750093804694676,-0.08406319860791056,0.06916804256246947,-0.04280968567207999,0.1917074956631313,0.04275754836619507,-0.14331696175081332,-0.13627471763041032,0.10557032800926298,0.08378787294731874,-0.14425815330757674,0.24481328860015647,-0.015459676208788273,0.14217711960282356,-0.02081985085592845,0.06955681910997612,-0.05086848177087623,0.1075194172652268,0.18561279421438412,0.015798712154329732,0.16379841053905664,-0.017919112858424936,0.14683302429066963,-0.038665211457965205,-0.06778530499558227,0.014425188976003003,-0.023051183645398193,-0.23267468729154017,0.14895920096813725,-0.01011049642665393,0.07448086673602378,-0.1070739703750381,-0.08657221305947334,0.05348061512635097,-0.01780829811558245,-0.04431263973894923,-0.04772876923340001,-0.12319465099982803,0.1729733949626526,0.06658416651580405,-0.02074273068110718,0.1782398242978278,0.10330467794337707,-0.04971917092951158,0.16228338475822093,0.06636337270890519,0.19441126662892846,-0.06635049759053908,0.1011517203039422,0.06101311184096156,-0.10198474007979323,0.057322855582597844,0.15270318806131702,-0.10180577098913564,0.08530195091113524,-0.062274385008153604,0.11727135160239963,-0.1331316097277078,0.006935426920317465,0.09119244287333164,-0.004469970459783611,-0.17022164172814394,-0.008656025781052491,-0.08795119937389607,0.12671118182880053,-0.00125204250681363,-0.005009250899654212,-0.049617396551567126,0.17926534806756758,0.18574704183604843,-0.111811185140578,0.04854884764299463,-0.022604461443845997,0.19876693698348122,0.1427695103472969,-0.02932144316853528,-0.20651049287575787,0.13694935967345126,0.07005150090639453,-0.1277497014163669,-0.026940444951050666,0.041230251069171116,0.13619204592935139,-0.03209720395476757,-0.13499303022293288,-0.021265451626557384,-0.08310659575960684,-0.05506287716179037,-0.03171049467643382,0.09465209488052023,-0.09911390382286166,0.04360800016879854,-0.056144540507122385,-0.035656981832985185,0.047750976850850196,-0.098467261361191,-0.05952392780695229,-0.049580156757664355,0.02430586530566232,-0.04143752193014158,-0.01074198370238512,-0.15357833707227198,0.23335995950752395,-0.13109367652159984,-0.15346259837947643,-0.09828566027824061,0.008972462501871432,0.028755334387658645,-0.06156058378848216,0.02274602405918682,-0.02941229975886986,-0.08189928693659801,-0.12986508430294877,0.03883950967703349,0.007746793293493052,0.019417043598258906,-0.013498037198161863,-0.08875059274521989,-0.0503103567668657,0.01171744043558681,0.027038940718287125,-0.044034223939865905,0.05119382876157062,-0.13012231619120443,0.012772914102552173,0.13583766557168678,0.022828207782954316,0.016429871570083757,0.09627184220527343,0.0032444272522203018,-0.02626418088525894,-0.0036438204310178146,0.03716935312519302,-0.04363495574100761,0.10155763885062075,0.006849125130029103,-0.0645942984776849,0.1376374828687138,-0.03608538944955244,0.028126121293194067,0.08340104687949906,-0.0672541013844015,0.08645622344440476,-0.0037451047978049943,-0.06978404527500054,0.01898640460385088,0.009347854059675484,0.007497024902241311,-0.05515053356054448,-0.09683168126343379,0.0012936894840043644,-0.06668140379394591,0.050861336685603206,0.08982595841629366,-0.22215433240554106,-0.010510545687977412,0.0008511807788010403,-0.2647891365463963,0.001194176470684666,0.09450233330867135,0.08442612278565749,-0.06215853748938646,0.041989354917116244,-0.03338827193482555,0.005258740382654462,0.04812777942203259,0.07989871891743537,0.11991305312532156,-0.10078320027605979,0.05267683431036255,-0.027653849924868225,0.08455392549074826,-0.013573320465964597,0.14900428208609567,0.007552114691801331,-0.003580298038125849,0.01733142695270285,0.05170993111552471,-0.04392418878341368,0.08485405142690221,0.03747501681062775,-0.08825270263066101,0.07596512231953617,-0.024169313929832764,0.08819827073771865,0.14944447426297114,-0.030973199773924265,-0.01745905257073383,0.1321290010260856,0.039403496855787035,0.13520416884456657,-0.0772783385949517,0.13822793631992925,0.0928037203562433,-0.07950869511933906,0.00595334469026509,0.1682750373750491,-0.13007257502662678,0.003356590950779503,-0.06643263420373559,0.006951084148346848,-0.25368786365700313,-0.07874060593538464,0.0063957591142269074,-0.017277842568264843,-0.2582707807260736,-0.021450857651853155,-0.0341139423134518,-0.1476392292424695,0.0003939802701469187,-0.11883452443081141,-0.1243500662404379,-0.025779043417508297,0.07386085902421037,0.20284456997694877,-0.022796656699025152,-0.09628011600114482,0.04953390947064821,0.07616026317415155,0.1208505600920704,0.008972708307594756,-0.026817792366655078,-0.0944659222798383,0.036485753991059765,-0.09280710430361012,-0.0601575752043831,0.06270783542845394,-0.05242697003099103,-0.03446775952110665,0.13816989160015308,0.0022076674556199137,0.030570162801232467,-0.06395853628600681,-0.004411103345349488,-0.012675502583805901,-0.07072963304422479,-0.09552278203118743,-0.0347546977718376,-0.09545254519485083,-0.03299453009822408,-0.053419806455519595,-0.12346514012996428,0.07885990365999135,0.13733373253494235,0.024690871577221586,0.09226322019207557,-0.10389558852461026,-0.030483839138801157,-0.056833102276320935,0.12086524646539612,0.016172268006037886,-0.04094828508488327,-0.016910663377151598,-0.11192384920012524,0.06310759420142105,0.13453842798923743,-0.05390418098944013,-0.022961893812542877,-0.025157267288705383,-0.05358628039048866,0.08952302329941007,-0.06408026728690357,-0.0395888897484413,0.1385213719842446,-0.08439223815766454,-0.14385999256602955,0.04544767937349988,-0.09688915079101952,0.09256289535100984,-0.0006218520228689127,-0.03694908411031784,-0.012697200242506496,0.24260413011684961,-0.025182834674483928,-0.16026420016338075,0.03540922509759747,-0.06399620540528743,0.027546555500657134,-0.01442425247198415,0.0143816660486608,0.10494457919342716,0.02053592117041143,-0.042533148377883676,0.035997204331569777,-0.09450954803201078,0.06974039320104308,-0.01389636782587185,0.009583989612521162,-0.029168449967245904,-0.014887354770174083,0.025744401847286,0.13962237399799615,0.05424839261082776,-0.09215843278887081,-0.09553497216021327,-0.08400932411943403,-0.1571042563285255,-0.07734757400664118,-0.02753380801747772,0.015427698598310677,-0.03906229984108655,-0.16795176341618998,-0.032442658357721116,0.15377722062925406,-0.04028238152831929,-0.005601183287736446,0.1956981592321911,-0.028659220008698357,0.11424478091298651,-0.021265291234840576,0.06749810490504335,0.10810382081651683,-0.03848253431645769,-0.1308831412254562,-0.10219113368005268,-0.10030188899012425,0.02387614836370808,-0.07650469715497518,-0.042879463456809624,0.14420617841792643,-0.06132435227355423,0.19339431464116272,0.0035318996520860477,0.07468683213836674,-0.07634588502490297,-0.10781787906080788,0.04159530856762794,0.15712809721739188,0.09029627606780483,0.14148708887478023,-0.03402718878967545,-0.08752197693455223,-0.01044717985791567,0.005341928420182785,-0.004020635558954974,0.1467907690199612,0.026169572376907865,-0.03914061342362863,-0.09390466502705082,0.038249314972782736,-0.010210799506240851,-0.018073175894361703,0.05645373449577244,-0.11977770564681918,-0.09077603168326338,-0.07789429760524816,0.023420405367733856,-0.1118591187992224,-0.11714792222324205,0.07042205029323348,0.04799018798224889,0.04082047999117448,0.011347247238106921,0.019463219431449106,0.1601555690126503,0.014392609473757837,0.11199725503189933,-0.16224107534338317,0.012651050960801843,0.07024644687821584,0.07613994404301798,0.039927375090937085,-0.005420285692565028,0.12577227367898677,-0.07789526913303381,-0.024346757312804643,0.1924232713286863,0.03344397931497464,0.09049112074563957,0.048475237574886754,0.033507260593415536,0.019687222830628574,0.046409749537087513,-0.05518876690113699,-0.060280265442678234,-0.11519276469092966,-0.020842256020287938,0.09892705630508151,-0.009761464370866193,-0.03034006480879957,0.26523656961002157,-0.05164032166946736,0.04973281277628878,-0.1083478275638585,0.07334726838897555,0.020296071821849157,-0.0482763854801878,-0.013455122621819976,-0.046709468015502416,-0.15689808519624077,0.03787596068595088,-0.050781253353889645,-0.1799013773025738,-0.14786572622157504,0.047383834300697966,-0.0581977223206087,0.02320407926049796,0.0025845213408373095,0.03845341941776536,0.10350130655493685,0.11652047646160923,0.11892264645887499,0.0057140788088369115,0.016240309164876728,0.044810036113630144,0.019760075433179772,0.025872735987594687,0.06481162464740459,-0.019513932225406896,-0.1557240145003291,-0.13874030238863438,-0.1020930081510356,0.3077269626716091,-0.055311196975357184,0.019215706872946717,-0.010612100707513228,0.08685869025644925,-0.04837352416871727,0.08828524257408352,-0.0008322857356210146,0.0757074674910512,0.011571189927730943,0.004928646192650065,0.029170209460642384,0.06768658752306167,0.02919272621123878,-0.007769707371665192,-0.1257378992862041,-0.18065264448365637,-0.13501531334775482,-0.06818200965351995,-0.09213703150145267,0.07830800674629243,0.09193806690603945,0.09304230570799549,-0.03753307689459921,0.06535310508054139,-0.07512891482127661,0.12397795878327242,-0.14674303793590068,0.031381537137350535,0.08005478294899405,0.15197539855731954,0.19319577326529286,-0.0030248783433352374,-0.1528815889816308,-0.031979079459127854,0.04092728537280019,0.17940809247822698,-0.0587504729866813,-0.016363069710729643,0.09113419674359323,-0.015103706547256264,0.09140722508155674,-0.026146315535543162,-0.13662952287208877,-0.0389965110345221,-0.061532933451643804,0.07151194209158292,0.004445062421251421,-0.14512305085376032,0.08308390751308564,0.09069233137043307,-0.05495768621548166,0.031055117925530826,0.10475159371880366,0.008853399102792515,-0.02629273497924603,0.0011705971095211573,-0.08804855339630904,-0.1301257968431785,-0.007682237160936128,-0.23077245501294968,0.07680877950191155,0.13563583721070843,0.04886816673137247,0.04119723269102988,-0.08657481334557246,-0.1913598729606559,0.036824776483566676,0.11612216534488602,-0.09850773769216636,-0.004599920511532955,0.0652196359518932,-0.09291051178547614,-0.06661699586060055,-0.06474922912080305,0.010887827178453428,-0.12752926287514516,-0.06589801678804913,-0.009262170926174686,0.05112932506879267,-0.004931554449841338,-0.0028909403187959465,-0.07448209119467375,0.04850035818524549,0.025163181656727686,0.1152789423943162,-0.10518662344079206,0.13168269089227938,-0.053509512784842624,-0.0764672514387215,-0.11970821976590093,0.02297107267034524,0.17598226219582075,0.03227439893894939,0.08262751967278298,-0.012474674751183754,-0.02260431794680366,-0.044020656506519124,0.09301772474631163,0.1715633791857281,-0.16910441752293004,-0.0024745271798213963,0.045985397218522975,-0.0056027921600148335,0.0900329974902853,0.0944868293983283,0.05281993279406834,-0.10971999505172893,0.020408588276198656,-0.07632042764067379,-0.027317669119919598,-0.024964393269880245,-0.05971518956854124,0.04815202606422793,-0.024164178916468528,0.08439412234449903,0.048245581669864514,-0.008220600266424941,-0.02894515801334794,0.0013799216794956285,-0.05624402733573491,0.0824686277753444,-0.002983866890153021,-0.04187590866442609,0.1690090991333245,-0.07083368735270727,-0.11211483363810755,-0.08167361747236894,0.11179846427040743,0.04792903324341624,0.09575355856161155,-0.15838935909224666,0.008990243604455666,-0.2028735435632569,-0.18203091305724123,-0.08733727594948318,0.017115269060183055,-0.09173890011782042,-0.14977331261995858,-0.023969332982484434,-0.09800578513264868,0.1438085629291557,-0.0168245784061498,-0.027722088782909188,-0.01934155014916646,0.06557941260014412,0.13718189597714983,0.1039273088424019,0.006647722679714516,-0.00047267411671199274,0.02406397768648692,0.058418167743419035,-0.1460797990233209,-0.0340056367146784,-0.17765133376254016,0.19920188550197776,0.06370589512103779,0.06684328178441445,-0.15863510256862717,0.0040197881837788505,-0.07289121218108165,-0.11887670212306332,-0.04401132953448336,0.046872422870325336,0.04764084439344402,-0.0529052441346241,-0.11126318406453488,-0.0695410064285943,-0.06613703574856926,0.13613164015389786,-0.09353853557863451,0.11320288929108074,0.0038406470583769886,0.13730047161394382,-0.07676310495790373,0.18888775674841546,0.12190001074470767,0.01868991990325899,0.06376124881178025,0.12674261635766093,0.10006530439188675,0.0955585780257743,0.03567740791300971,0.021208903418210114,0.022509669101732882,0.132419461563547,-0.016242587141044214,0.09285873912668939,0.07972901617499567,0.0007617709777948314,-0.06944872761099971,-0.024926236426920788,-0.04582944198826143,0.101886725444141,-0.014282520275218131,-0.008582288368079755,0.10364274396271252,0.013272595209289842,0.05009980033671206,0.029886524515415014,-0.020678168060603987,0.07017008250800624,0.06967152337283326,-0.07978287333108404,0.128158368752402,0.0687974834109014,0.09493058022384719,0.04704925635196486,0.030845273774115826,-0.1208005249121859,-0.025126971823088647,0.006174610517556567,-0.12490296584292918,-0.06038036969558904,0.0759772018728549,-0.004818828782982822,0.10294529637100494,-0.025174155428445467,-0.01648004809529209,-0.027196393982094464,-0.046629040350828724,-0.18314100337746206,0.00939598218618764,-0.015802631206343527,0.15435700980765582,0.05139960842409316,0.08950782016933789,-0.0933776053292566,0.06416775062898303,-0.1688567428596606,0.1468876217453302,-0.015525323569251081,-0.009951975035959005,0.06762778867457334,0.03704635307263584,-0.1162489286531317,-0.11750269437980748,-0.01848214106347549,-0.12419855111338556,-0.1020782336627256,-0.16498576383765529,-0.13281962677128234,-0.04550457021200259,-0.12201580298922594,-0.11585025329261235,-0.023474445728635232,-0.19157143126906204,0.10314197009839092,-0.07493980005616072,-0.12677066304302037,-0.04043758560302126,-0.013228366742001202,0.14127175688674729,-0.02982434464927969,-0.03521931682740477,0.09746593002613628,-0.023623480199447214,-0.030449563725187912,-0.07261364229772653,0.1782134931241707,0.1036073839104201,0.08328057216001454,0.009730712729955203,0.12451999808399392,-0.0474708442645159,0.0015700755416686067,-0.08472530507838245,-0.004495927823440457,-0.028723150349033902,0.062418915525371745,0.0581890222986904,-0.14089038603467147,0.091423591064959,-0.11046453751658956,0.11686846804172389,-0.003151209619946209,0.05977426126016632,0.019349502101292815,-0.10743080034498811,0.07376107807676462,-0.019932185668243865,-0.13732828239885092,0.07676902750220031,0.04055725363012862,-0.07268625924406114,0.038219314079543744,-0.0006699734982055221,-0.026270402364038395,0.165456723123651,-0.04572315604568298,-0.17201838365925168,0.12913826281860186,0.00485188348992325,0.11715758236025048,0.07836790816631749,-0.0618044699574456,0.03248719302670529,-0.16365780212384365,-0.040167072924662865,0.17539151349492174,-0.24278558361658575,-0.07121564824232302,-0.1541938837288174,0.03002800688575901,0.024852674522421882,0.2381241133010354,-0.01099100289943848,0.03784649723814203,-0.06752817525817674,-0.006544980977386643,-0.0390618897835292,-0.04327558774290594,0.02671749327326213,-0.03099059856983632,-0.15601328617613902,-0.0777181372018537,0.14571383863839116,-0.04911812744758416,0.0811232341296896,-0.07079054503950849,-0.12603899530823195,0.04239101044860591,-0.027121246162492202,-0.0004344187505497338,0.06953381987450079,-0.06718012428093402,-0.05957825475022592,-0.12259321795736197,-0.0895668473661693,0.1170514912493437,0.05221654300674849,-0.00822064732232199,-0.05411720634501956,-0.13758169624230682,0.02261765906542466,0.07012503393700435,0.16170553505568078,0.16071158689538695,-0.07435349460022934,0.0362487015541922,-0.08399462611514537,0.10104800470322758,0.038400505466348336,-0.0026633197360862856,-0.08014788969667637,0.028362850270195753,-0.1164577797102536,0.006071110720973864,0.020594719416354497,-0.07031514238376076,-0.09035515284951857,-0.0476670036080094,0.002125580330787536,0.06327143123544494,-0.1755657325631536,0.07323326917734901,0.13715614825137956,0.12018997931822023,0.09211938088040589,-0.028833373956894916,-0.11869169962327587,-0.015089764998191743,-0.02500024720927268,0.04453760523471921,0.05320861348414957,-0.16502517527520083,-0.24566853088582039,0.05333518101370098,-0.18231128209443428,0.06746674999965607,-0.13377381328528665,0.04153654758494524,0.06060042758839046,0.2068616979058663,-0.13800915106161774,-0.034786700288989676,-0.02141747955949366,-0.02044915044364991,5.7306872812078413e-05,-0.06631828787415714,-0.08991849294133768,0.11233345559135581,0.01773843925168715,-0.08508179575437164,0.06505109476408928,-0.009917639837020605,-0.0019592761772642157,0.06917341736218058,-0.03326620512182843,-0.04304779256317747,-0.004222837370262414,-0.15387161025459278,0.12355596145088085,0.03939384647767582,0.06795211158638595,-0.01388295674882707,-0.01104435309822102,0.0956730436294571,-0.12675024590011824,-0.041332286081418285,-0.11664518959641629,0.10271683608383418,-0.11701512207003045,-0.03828100988948379,0.06590011412156707,-0.022448074130690505,-0.0019831529697150376,0.17596967724047322,-0.09627656505159607,0.03433636810379483,0.0360288482386587,-0.10936942606713687,0.10291833523952736,-0.04092681576084157,0.023949777498884835,0.0654621143800881,0.14072467732733202,-0.053134974849932355,-0.017254323214758827,-0.03852253577257348,0.21156656553018868,0.034788444235984456,0.037957023572698964,-0.2659880088955299,0.070075393272986,0.04568078225239904,-0.04794732394064821,0.12084619412719418,-0.01141709818574709,0.15373929794470859,0.08652860264847392,0.10199165459833553,-0.02569564926151878,0.14788238707348886,-0.06806935444648832,0.07074505495100858,0.03177881944462905,0.04642520888617958,-0.02939816361714971,0.04401391560532735,0.024635797760375243,-0.0590451665082503,-0.037415342425763366,0.10750968770295288,0.13313556615617475,-0.1266138723322322,-0.04406521461060031,-0.0031941503489360695,-0.09897364083686587,-0.1068311502512775,-0.0170046331428637,0.11209129906333913,-0.01089645902276762,-0.06677328302812867,-0.07201827739677764,-0.016488841488575982,0.0039018359896557412,-0.2741182241020313,0.014771277292092785,0.1927775104929662,-0.1646641580200264,-0.07123185395052305,-0.1302678526235963,0.01780872582059101,0.028164633188523937,0.04085231042075674,0.023994146698784503,0.03670602335693704,0.08276426074400309,-0.10359628498911636,0.0583217574323752,0.01500850901311413,-0.0816989441647651,0.023914703219663595,-0.007644801432120833,0.08339838001433966,-0.028054208331103156,-0.010335256474733661,-0.026414774147285044,-0.005917409488373413,-0.14543112683052947,-0.10736414879982727,0.05407911705958184,-0.1451453448121602,0.04248127542043697,0.07676538152022262,-0.0550019630491708,-0.016830814481226763,0.02768560542652083,-0.012374120201302267,-0.0655823670615618,0.1263887581229343,0.026989670545535457,-0.07891369894258378,0.10445333506229029,-0.10391894373348237,-0.012649327809337049,-0.01162030034730459,-0.051236336490115726,0.11567506305977161,-0.09791112153401989,0.09544332920399382,0.09849258677661528,0.033379440213393695,-0.02819094175076166,-0.12405398976523688,0.05744917968851159,-0.039622541389609724,0.10528245543317977,0.09486751599045079,0.023478646262106835,0.04754999644322677,0.02282657600600617,-0.20988025104165386,-0.08849972263630888,-0.08125078762059484,-0.03577269634508559,0.0321475058666017,0.10895673078007698,-0.08877116450365319,-0.0916629981296424,0.009281621840266785,-0.012426968008486227,0.03448183504403029,0.010461313316448935,0.12270359330759324,-0.07740179323353105,-0.07283728417912978,-0.022409139428322216,-0.006033693671289699,0.0055426274528417845,-0.02813119201550457,-0.07568524328656136,0.02332586644023686,-0.006180997745573345,-0.08417673973969536,-0.08788921124154413,0.07752777757853242,-0.036558941001258206,-0.01133662502316392,0.16379358790604226,0.09338696720749891,0.03378355978915521,0.10384483805930496,-0.09158122868275423,0.09839677696679494,0.10484011106230959,-0.11483983609188299,-0.0404957438661256,-0.021800811112138455,-0.04372212054619511,-0.07861466795233357,-0.204997680393257,-0.013973840989897663,0.012876797731004726,-0.0703233469110068,0.0020264000344514758,0.08268962020606276,-0.05667491330907122,-0.07063802324395814,-0.0982736062466062,-0.13897676737388806,0.22305593171420066,0.1881012617473486,0.049460827184178636,-0.07940580200417949,-0.05525879484567314,-0.08430853400067925,0.16620889895065766,-0.12253052343770383,-0.06849477994133295,-0.03128200409233328,0.2706696156836568,-0.012346734886936555,-0.1658127121811611,0.0007543258247500595,-0.08397601709553362,-0.02880467965993292,0.0746477055226414,-0.10944788954284786,0.07189484690968462,-0.03510133629408237,-0.0908771112564403,0.155909682082548,0.09246647802100977,-0.22334650337518153,-0.10506086435636774,-0.01817167665383132,0.03498575256256004,-0.2177090342799026,0.12556569366843987,0.12098963599104319,-0.029743482055436626,-0.05569213154190479,-0.1556366617266888,-0.14971741391668703,-0.11253030626666612,-0.044035849682136446,-0.07358169312099787,-0.03908518731429658,0.05436165882433594,-0.035715310256242756,-0.05010561137385073,-0.02784274093221646,0.04553134306394031,0.0464935096809196,-0.04459946056046173,0.1510941163400058,0.048755066150225256,0.08412594828405326,-0.08485265708795493,-0.02771263314255857,-0.11297786505504025,-0.01739264487782216,0.00528225147742325,0.14779888611315042,-0.18108118341727028,0.06053078097966368,0.026570877644226085,0.08198371191726476,0.00831469712254876,-0.06581733713988219,-0.05483735036491888,0.0035983156044624787,0.06726634055008111,0.034684408127707005,-0.04607618744227303,0.1622317388868716,0.030186071700793723,-0.010290511122666816,0.09545181820820721,0.05288872847015758,0.014940226950192426,-0.10104842746233397,0.11085681696004143,-0.07072545263586606,-0.05929862129590769,-0.06586688432323158,0.11634379291116279,-0.1937081997549651,-0.0603907765644811,0.09735313839350258,0.1187957345924248,0.06320869871581145,-0.0011518238777273946,-0.05407724805309091,0.010287678450743725,-0.04114478154931421,0.003809753404166089,-0.12241650112416765,-0.014803914531934293,-0.009626577111833644,0.08023018052263964,-0.0684477107241059,0.12596668826279167,0.23722085755160746,-0.07500223346587104,-0.06981013448555012,0.09645844429765828,-0.035489435924562995,-0.18469204109198537,-0.13547673388074913,0.019756404208562756,0.07216067377620275,-0.11179009734501959,-0.004634619649859045,-0.002898419996961794,-0.029741115974072446,-0.10788460205753828,-0.055826326167574866,0.03514531079459389,-0.017332836836630276,0.14581008838973783,-0.1224470124764327,-0.03821600327345021,-0.10664749638926595,-0.045831381843444596,0.109874914262602,0.0626912789533166,0.08382500524580414,-0.0033142699220650904,0.10460193962575026,-0.05252640329278383,-0.008984131623389706,-0.04936684234747711,-0.04039508918024879,0.20044595178069954,-0.00010891463610116552,0.039615582931731834,0.05563848445843612,-0.040450240687744374,0.10303339521337201,-0.007538521377064253,-0.013733345400117277,-0.11627008192806376,0.0388627488033705,0.041748187493320675,-0.1627460361210422,0.08991774293827845,0.024155641775243982,0.13469432566751172,0.0377269505564311,0.10423136813441795,0.012261495657932532,-0.11765637136318098,-0.08523890287792316,-0.19794304833707305,-0.044753698637575466,0.09336101379475568,-0.05366654006492537,-0.15554727287142017,0.005296529394223721,-0.14984245158168738,-0.03845752416688485,-0.08444898317903896,0.006511637773324148,0.12971533922714518,0.034022585622192646,-0.00738333360604579,-0.051400446902443,0.01095039711151339,0.07496587847654218,-0.08727237917896186,-0.08969046644573148,0.011474020634693567,-0.025422474494097375,-0.08691722225014556,0.01466817572068221,-0.0032727306877510334,0.04128021154617949,0.18224309101483346,0.009949281625857577,0.02254473892825203,0.07450822842038926,-0.05574135360256351,-0.05867464730203305,7.900663122492532e-05,-0.09956477196960353,-0.05613312501573329,-0.14384501919640763,0.039085176751131816,0.02176050815550652,0.05420106242848997,-0.0282419757434332,-0.029120292887780945,0.08209648407235004,0.06617772161094321,-0.06222942062891795,0.08490785167465277,-0.004221128215808106,-0.014383644248908683,0.08380134546431234,-0.0919669103113015,-0.00952739631518181,-0.15781749138150647,0.08896500548181098,-0.05264219484388821,-0.1545771414712722,-0.15586419969316231,-0.11872144561760942,-0.007308899018047694,0.11641965993266559,0.06517382635997944,0.015386299663640458,0.10654923951589333,-0.1577046908599939,-0.06534152648518123,0.02626741495168018,0.053219368189958524,0.028401329547105354,-0.045740090060201924,-0.03798962720196282,0.15473072490750106,-0.11245474339378643,-0.022215790608508965,0.12118312339682559,0.03430378368647752,0.05501993869947607,0.08373939079861759,-0.0037035384632029345,-0.10168704040194386,0.13971103100339943,-0.028797338313096464,0.06156264937110781,0.009937159708337077,0.06939379802046462,-0.13575601935785356,-0.15924044853888691,-0.15863906059207253,0.12864710205700736,-0.08348693439520212,-0.13890433218826473,0.10692574776735646,0.0425258970485588,-0.06817172149659217,-0.11077367508075088,0.05517155117107248,-0.052137871487721706,-0.10107786348784864,0.11759957910041915,-0.04103410108698477,0.02794793202659128,-0.08462181465698483,-0.14908312398288961,0.08797146468437843,0.10097568319706975,0.14571978425446816,-0.008222128940393394,0.0763864954282912,-0.041751409472065695,0.006550974326479675,0.018771155429461103,-0.043391067604120655,0.10434811807036688,0.12217753986071621,-0.14582959360412495,-0.07602217318515526,-0.09532016558011884,-0.034444500289712035,-0.08691788488768487,-0.14997606517168985,0.13293664066530936,-0.2505172967843498,-0.10641404764998091,-0.0014112381482064252,-0.058783792544914455,0.19170599705413813,0.10059071860668556,0.07846494821959053,0.048863424042869676,0.12328915823245132,0.14557804132573937,0.044855540378448605,-0.18147583414053547,-0.06954922603962327,-0.007305487788504451,-0.0017813487968675267,-0.09442670710354145,0.053938119411762256,-0.08195763695117952,-0.09929490510416654,-0.03215694019538093,-0.039499953499614354,-0.0799318623097622,0.11415377163239812,-0.03889093591726403,-0.11272433496183618,0.052820426171101026,-0.09282036373529343,-0.03577933338507116,-0.11701406331585165,0.01455070683607115,0.009185032997433168,0.04007231844043312,0.05008887867552428,-0.01120493766009128,-0.0890141197450856,0.003958990609537601,-0.11131284810270564,-0.03440245542848169,0.006256330443280805,-0.08069663979716812,0.06694240319963649,-0.11939723023915702,-0.03588939639920506,0.04664351220519666,-0.13599727369578166,0.021714329088586348,0.08182248609525478,0.022367966376828054,0.048220603036269634,-0.09009395691817321,-0.12981665740359707,-0.0020887760744883817,-0.017697114580214852,0.019721767235279915,0.04322235878479866,-0.026473163969825582,0.10186803721181241,-0.11806707804944994,-0.00900383529739328,-0.1674661837695038,0.03250976333620859,0.03605560100274533,0.05923670069615269,0.23344858046227218,-0.02010300742169367,0.062275645465974826,-0.014098545142057089,0.015199442358787417,-0.005757790978548719,0.04775624047222324,0.011700003022440016,-0.0794059582922439,0.09054975542239718,0.018435297327234448,-0.2554508104029494,0.07922160857558355,-0.04086924538456839,-0.04042354638794748,-0.007353472774505032,0.09447210785816515,0.09258833564301841,0.09522034736999763,0.0898968799443988,-0.04203767951613325,0.07532001608056281,0.006428911791698539,-0.04416024246401702,0.046338869865166984,0.08465565489184579,0.1981732600182774,-0.07230627175513701,0.17213284263542025,-0.013781290311694921,0.0007910128290864535,0.07049782450072861,-0.023398451456675365,-0.11026546539014542,-0.09779957681890362,0.11559699841733061,-0.07378625494327365,0.16527926748166102,0.0431137303475629,-0.06661444191346812,0.08958962262074849,0.055297137273725226,-0.2584042971221465,-0.08821976555674658,0.0012227776697942194,0.030645834769598517,0.0107968144896175,-0.020054746429983634,-0.034145558598907215,-0.07485456080438595,-0.0665071283018374,0.06478798399982448,0.1944907294553532,0.00848903862524792,0.06710021340066437,-0.1951580667061652,-0.026998430041887185,0.06958061257506427,0.11589137309139795,-0.09886019631575134,-0.09416856519901808,-0.11077140761423465,0.03539487849948252,-0.134351110541172,-0.08430842219328825,0.17700276565874334,0.02063963147220713,-0.056446264800297234,-0.02001455179029716,-0.06164788604933485,-0.11733360603640054,0.1386678949023774,0.017372516942599135,0.0801907384662862,0.07565226997673775,-0.028231890093990825,-0.16801419326454164,0.015517244638170164,-0.10207827071152921,0.05879823416538128,-0.11477277165256734,-0.16365623199445373,0.008392233545363385,-0.027732244810231257,0.027677418704490565,-0.11604133821426718,0.1145468301195395,-0.019022135798762607,-0.12038465898301756,-0.09147274241797036,0.12682006147503588,0.06835745023169047,0.11048898835464208,-0.023136991275492194,0.08391354138886042,0.03499707908221998,-0.11986104253635073,-0.047744710696851766,0.020351061168968412,0.16041087056106884,0.012375821249353644,0.025611745293067697,0.033498734746964604,-0.08465718045330549,-0.08325818118599641,-0.07231493385326765,-0.03996042539054572,-0.1074863028349977,-0.06750003827854598,-0.05227003042053038,-0.11346665947854544,-0.04531633080984963,0.017056647511937438,0.14323170059582613,-0.090702394448401,-0.19680828515385315,0.05134732261528265,-0.0659239714006217,-0.11971816983140116,-0.09920136813408154,0.16634630789133376,0.03097388350790906,0.040079375858473806,-0.1716167336493378,-0.08996000069627264,-0.18587134797466154,0.16181939959634134,-0.04761820809718227,-0.00334284093534783,-0.06028850610898132,0.0393765137748884,0.13987419022790248,-0.026742021083260306,0.036564807065108874,0.04194636229667501,-0.04328930439495356,0.007472804753583416,-0.015084591696391552,-0.07480021650930395,-0.18716048187569803,0.050615934412761604,0.16641660253170149,-0.13373779415226528,0.08661626522025377,-0.0012698182897128642,-0.12243655559186402,0.06102769844867211,0.012117315692559551,-0.15895310212151173,-0.08391074434373612,0.04830765461454728,-0.0890247194954297,0.09667496295239202,-0.011674657144980014,0.12843303367308004,-0.3152186665891172,-0.019557913001451172,0.17952241526558244,0.1523955447431592,0.08113044595528997,0.002692474822991229,0.09453373734340345,-0.01864170993327671,-0.03200053348312856,-0.03378735259132354,0.04383293704335668,-0.09303405823521253,-0.03677475050957788,0.07285459221734954,-0.024239597702452206,0.02502543027882816,0.07191332746037735,0.06996424910650313,0.1542927481278121,0.11724762252354953,-0.08444553291350555,-0.042614466766467685,-0.03593144203666742,0.11157752920510387,0.2478134740523362,-0.1541754101877665,-0.0793500629768791,0.04024008692841837,0.13878169238999763,-0.056447577309798616,0.05850687064053854,0.15663932766812305,0.09854495912290938,-0.08998830722585055,-0.0012568099449241088,-0.04094731105558176,-0.04669756375552933,-0.05260034594315279,0.0029447271424925237,0.020845818359956827,-0.07528299108920511,-0.10738056872910885,-0.19268021674790065,-0.1006797204741564,-0.021781218194945436,-0.0072082582659285495,0.0997553661698865,0.13354899834521325,0.05423755362120745,0.13890540733284412,-0.06144376296580346,-0.02861282529776248,0.047576898038609386,0.061171399058365994,0.07278856628449501,0.04576363040857093,0.09397068582709978,0.08524661091547683,0.06404341319401942,0.04849225423286426,-0.00013113663789629542,-0.1418541173330069,0.10039134874542573,0.0911575971662649,-0.14480354714859736,0.0015534875030266588,0.020725027319404735,-0.11919809847395635,0.04845161579615686,0.012733425731913526,-0.055602282142317154,0.007820332703080201,-0.03170477847535878,-0.03313012376226364,0.14214079553978623,0.08766983987104499,-0.15055751199557868,-0.09102152932493478,0.04460255714423512,-0.14757529397435867,0.07104364161290777,0.03074666507068177,0.06389197052820259,0.09601189965556743,0.06523560097466628,-0.05759325807129798,-0.060914470569218185,-0.031107604845676533,0.10875556077668258,-0.004225812121066519,0.041202732954943,0.022352738494282345,-0.09699600163982826,0.09215533021048991,-0.17722751544822662,0.024059161301804483,-0.02717098015106608,-0.037371991313358846,0.024477057372120702,-0.03014472105766232,0.04850458867918649,-0.003455654494393402,0.042220999912266445,0.08543410448870103,-0.12477170608198729,-0.08965456447493442,-0.032438580580367235,-0.07230086055338525,0.010680331041759895,0.08107897433512022,-0.15986179049510665,0.010117707367838832,-0.07211063756309337,-0.023790666957623472,-0.05327135840841419,-0.2124927896299455,-0.022278431917419975,-0.004773425448574621,0.07787219013264508,0.1432322559988873,-0.008927559702818857,-0.047966477377605767,0.10080319493445804,-0.07335383388167972,0.030123558586379016,0.09541337233014524,0.011793980629384781,-0.0516222011758642,-0.011790667573271022,-0.01501994334314759,-0.015932468044857498,0.11859813474350685,-0.07784115419363465,-0.011243817653532868,0.07628016301373329,0.004957481106950457,0.06674437099048977,0.04451848536951355,0.05341056981448092,-0.006583666921961988,0.1019060141854539,-0.09067329169621552,0.04501219937125181,0.017473781388676658,-0.010049437187129246,-0.020095849646735914,-0.14727642724396023,-0.06854062627662603,0.07113572519685091,-0.05495176712325021,0.13591662166157711,-0.04142304588573802,0.09700412783686871,0.07855405537922647,0.0013479399593938582,0.11287051589694766,-0.13400221405248314,-0.025659568912731662,-0.047989218937167635,0.027942147894374124,0.17444842722717468,0.11259700361136897,-0.0004601078237918335,0.1229160796809845,-0.11379825740101254,0.049342045730540136,0.09115762740178524,-0.16525839696209163,0.01890077993108825,-0.10563119211298228,0.03846916252888025,0.03147443649454983,-0.1739189066613668,-0.04376447181428406,-0.16221410974646505,-0.12164191363665743,0.13945764049827059,0.05888899420571447,0.0012193986396088245,0.04765257121082162,-0.04672051239195203,0.07191570111102512,-0.07338700528266459,-0.0761564188488076,0.07690029041922991,-0.16643585209023945,0.09344573051024473,-0.11414106219901744,0.11310572568748917,-0.062447425433450034,-0.0931176660530148,0.05417795930864294,-0.01890143060559162,-0.06636535764602129,-0.01128474864428783,-0.039185299537238566,0.0014242038016623426,0.044319106704492454,0.005535072276324539,0.02862073554283053,-0.0386334371158254,-0.03825822808047587,0.12215826191312806,0.004023616294274024,-0.03128263058802876,-0.019600741404218008,0.03035485431712008,0.048480795494479104,-0.094541336013025,0.02730282758369693,0.1183713600456392,0.04533226036510248,-0.11761467028364864,-0.022156510796382808,-0.04805005564922644,-0.002599108837550583,0.07416380816712899,-0.055345859721144086,-0.10474464764229802,-0.016911476184393558,-0.13760996562817523,0.004284478601010608,0.007766618590102065,-0.11456472173284739,0.05007751834192526,-0.03925582151505967,0.06861861827080823,0.044314430016056824,-0.03331138401209998,-0.014058004853736166,-0.04545936257650705,-0.029896032097187247,0.08308164890460977,-0.0017392101057507276,-0.12340816370781556,0.018974845860240175,0.04438073717695159,-0.11191521444394546,-0.005755325373952431,-0.16414582195026858,-0.20704786816878815,-0.021796454624644215,-0.19555733543612852,-0.04572284198079625,-0.02344414548945811,0.07402496902948985,-0.09538772283099196,-0.13168223057871292,0.09517974054704934,-0.185422831037275,0.09720071754704425,-0.0793856550691282,0.03010000546318029,0.06298008872377124,-0.057053285634417444,0.034186229132073746,-0.023384554689043636,0.10221751827868354,-0.18108635054137823,0.10247187170422799,-0.02100482675545558,-0.09786241974655781,0.10447519732719938,0.03868974951904668,-0.10845715324068236,0.010430661526138996,0.004352437205808986,0.07701472489268381,0.08413330499842286,-0.012781362020668527,-0.07697406421879416,-0.16261225497284457,-0.012474536914004982,0.009242546791888412,-0.24004708714017267,-0.028821905901786675,-0.09622406003489285,-0.0838301622224067,-0.05364127123266507,0.13160148776053432,-0.20239904187453112,-0.13384915795887925,-0.03834217657334844,-0.14714825102653448,-0.1043094176860449,-0.011436232166727973,0.0795712599551407,0.053003170803995525,-0.008050693200559527,0.1568738897146826,0.16055713119900053,0.08590906156721301,0.056019056562637816,-0.07483312516707866,0.1743621401677629,-0.13563926547327218,0.13566621945595025,-0.015288772503584071,0.009063677206022852,0.020762276566482284,-0.07056796389353494,0.035075129932645194,0.07216855653033281,-0.20458203641585224,-0.08222158419884514,0.06920763403106876,0.018483597355037434,2.18929183698987e-05,0.07172735967802456,0.1561140538236733,0.04370203454993853,-0.0692129477476186,0.061895288262166684,-0.02176741665606685,0.03208673792998465,-0.06736756627519327,0.011314359754117383,-0.20034182507002588,0.10097975098550814,0.12084706177890987,0.015407916578827232,0.03125909554028451,-0.11983285217957869,0.004463951631327388,0.0956875716388088,-0.03829730809009901,0.08013896264889912,-0.022036363385418912,-0.0799535585334813,-0.12015350658004639,-0.03857749732014079,-0.052807337145139244,0.06526144960768389,0.007655954317709174,0.06960831135132055,-0.08050641958637739,-0.02266071327194811,0.0572668272719477,-0.028055648254244267,0.10495729791433103,0.024833516404151355,0.10347148221985321,-0.10786711554138932,0.22218486541189866,-0.14468117902024621,-0.0003949416997560426,-0.07041886258290442,0.024597826221234763,0.1016496842396174,0.06027218399591339,0.019951429016373506,-0.17451629399607954,-0.01306475803723506,-0.08149800949990832,-0.11693822371217104,0.24657463708776825,-0.13382235529565933,0.13880749929608993,0.09177388849299387,0.1599419004900785,0.04536515216651849,-0.006525570455931535,0.02184308721829456,-0.00046944728871284953,0.018708929684468616,0.10500496712113574,0.1037420225497153,0.0217798269839919,-0.12623109402624907,0.18790328652548427,0.047892847668511464,0.03434502646862064,-0.10028412232373596,0.16387458664480126,0.0655141760839254,-0.212344054011604,0.028733680790380772,0.18565864784144795,0.062350045901765724,-0.13189926348750589,-0.15218308637245068,0.030065316500977025,0.014365031608500008,-0.13397394511217425,-0.0884280866713104,-0.0386573123931528,-0.04191352108077537,-0.026370727684849722,-0.18174051890805348,0.1003883535905534,0.16460668089302044,0.06453327495821301,0.05675275976845312,0.14378866741473667,0.08876565002066614,-0.08066421312935973,-0.08113311581437081,0.06156565716958419,0.06046125370328664,0.03311880412509128,-0.06573147752722117,-0.026337862947182687,-0.05521640102799331,-0.07374406559676998,0.132397907991734,0.013002177658627623,0.045351447722056196,-0.10562018309072611,0.12877584284462415,0.10212017144549487,-0.1070367539250239,0.09271139077823805,-0.0927939344058257,0.1880303554825658,-0.031017105491708087,0.011407343270946408,-0.03260252078361042,0.11502172797916994,-0.011464437718141575,-0.1026113212080442,0.03853802040828068,-0.03538236808740136,0.11709410196985226,-0.02697862788409778,-0.10815933713990032,0.11508571369999258,-0.07648271328501502,-0.05720266437646333,-0.020102284003132062,0.1852058724800151,0.04192097036892075,0.00043219240319568373,0.028948759248599867,0.0061734392950915365,-0.04789963768908938,-0.0456530076967593,0.025759212661752236,-0.19541825271315533,0.19246676529609877,-0.054338468141306134,0.0420405279041856,-0.13280074674104966,0.11475996925863004,-0.017328537233755856,-0.12671739453135317,-0.029947241521643415,-0.1386152439639768,0.020839230748779563,0.21496897554812452,0.04787933327104425,0.0524873013699505,-0.02124627567535482,-0.1710323031008326,-0.12534158343572147,0.0009746851309473256,0.07107114263011871,0.011912736316262374,-0.011490725311283931,-0.023141734734398064,0.05409704960512579,0.028729969510738217,0.032744300652728014,-0.0723949846848572,-0.026086174904435776,-0.14816031695820006,0.05701114520939829,-0.08183251817647494,0.1090124465752854,-0.11808190676673748,-0.055027414262764696,-0.06552842717114751,-0.01872572898371235,-0.032729305855155544,0.13900422733032436,0.015246557293474775,-0.00041413717653598935,-0.023658661423651875,-0.019619550267569598,-0.0772468161202277,-0.10361166287183994,-0.1879973234363928,0.03798889885813529,-0.027726039563483962,-0.0056462513368275465,0.11698597746301402,-0.1500984746406548,0.0429732817629336,-0.019348494845905426,0.07928779252685171,-0.07598670149176076,0.11070227593951612,-0.02376558959400131,-0.08094308186230975,0.026771974645652976,0.023604716452725247,-0.014734985144098225,-0.05926159107159868,-0.014945230790301873,-0.12466655653472655,-0.08630551241762893,-0.09271868515894886,0.0075051397904974775,0.040927981837177406,0.017658778442485024,0.13595993387800656,-0.113006933248559,0.11869917733454413,-0.04697790841113044,-0.08880483883377713,-0.034858199990019476,0.0907977744909243,-0.005649046229198831,0.06600597715625126,0.03923052453466883,0.023627725707047645,0.02166595660022056,0.14759811822488036,0.04094916548175215,0.045864526649802624,0.1258693039287828,-0.027854388183478157,-0.03029413921763515,-0.01728715774748835,-0.045599734305002096,0.03277690001930376,0.03518631640047381,-0.0016172291150815215,-0.07322946576007325,-0.030233039966769352,-0.07905316067718422,-0.1426169058606006,-0.10861825426028424,0.09495721388394586,0.09048339912659727,-0.014652245619841898,-0.07740590032444307,-0.1400562237871155,-0.0037643907835499643,-0.056627320371992355,-0.11419551420555694,0.028150707034701725,-0.061392992902441976,0.04704854081508931,-0.008757152173178321,-0.02804885421556957,-0.04759080614821797,0.04218152536262278,0.08423642712154657,0.10903208520598796,-0.03705653527991584,-0.16560888774052532,0.12861378703033888,0.03712757902676504,0.007886843122906773,-0.02297059871814003,0.015545499572726629,0.07423926599410939,0.05588002245953834,-0.12075029612272407,-0.1458521236039687,-0.1488635001409017,-0.13121914865479584,0.05603234066816162,-0.044031401993370634,0.03174336894458279,-0.02243025662582119,0.01887253980168144,-0.026661344762521296,0.07555978801324724,0.06964644067324262,-0.002376229164908443,-0.08347825577478613,-0.06872424579724484,0.014811348136036219,-0.02926816718661619,0.04102215322861473,0.07619440997909399,-0.02861620186872506,0.09782694558745138,-0.02723263438867211,0.029808129080227747,-0.14097783807335523,0.10009178897596248,0.19325117152055432,0.05156805168672738,-0.0845823738207769,0.04920395815458491,0.04360876403443042,0.05515191308520473,0.0442296764351464,0.14887905866887152,-0.16818942935990092,0.06823293333505658,-0.04702796913929567,0.13584474004910094,-0.042173265490472345,0.13575737739332983,0.03512138054735399,-0.021607073997752795,0.02808443630955523,-0.16414221565563755,-0.11918267667449328,-0.053189016182169306,-0.15241773632106154,-0.09982121148606626,0.05849492159919218,0.03580687957899836,0.04349313532970754,0.0026347407528695276,0.17238782246653706,-0.011804693205292796,0.10560831943818597,-0.14640634893653753,0.03457871753752956,0.03543416338228074,0.00865902232405599,-0.1024733370771234,0.03662272005333257,-0.015126109216988834,0.05051306161504855,-0.04838284749541611,0.049220008230274545,-0.10345990395753867,0.04067633119138168,0.07365432448233532,0.07196696149011451,0.042239356078351824,-0.04355474825891555,-0.09713048268980096,0.026040993781374824,0.0014843044957038327,0.0406428449913208,-0.014273544111177695,-0.017414468442772217,0.05116336468971084,0.09049714093300232,-0.18321009827574347,0.05906066691241246,0.10688658332610376,-0.08261845572413558,0.08065510070469531,-0.04393148101834586,0.18111853890388455,-0.19414895621713915,0.09429754453548153,-0.2058835646933919,-0.12315630516300456,-0.05150928910797137,0.16617078044578965,0.027429072916391874,-0.07048227202061834,0.0029191348146264933,0.10471934081901393,-0.00472433702730839,-0.02947077456206182,-0.1248291161599241,-0.0772890455775164,-0.04032533239092701,0.24245241624905906,0.07852780512073508,0.05360001504984802,-0.27343378074974517,0.04235110127684194,-0.0198254552535637,0.1275602001750997,0.04124679693383999,-0.0012479750707323097,0.08759702250728417,0.034206783187338496,0.056375679859021734,0.006163431295394213,-0.009353780539228107,0.009668878838605198,0.03703370715840966,0.0225341654875866,-0.09984340401547871,-0.1094526239830101,-0.042302991909968085,0.039956907924372516,-0.035003177486135094,0.2662160763099263,0.01911895707137163,0.037324328726629344,-0.1216755286032921,0.02469609812740278,-0.07153455474612568,0.04033065967730092,0.054095892611793636,0.08590312691837117,0.15810843778656872,-0.12595524008833703,-0.11949739937875131,0.06206340182008923,0.07907624259604283,0.028952267795346848,0.10393177835041328,0.001633201224987084,0.08823023828279446,0.07076746833696582,0.026473727165921276,-0.18294647166583924,0.02110482673863552,0.006967393551109001,-0.014924110491989597,0.07745224673894932,0.169240444099962,-0.0028378552646612476,0.014761013529813714,0.0954023783211807,0.00332361143578107,-0.07193270792507307,-0.13059163227776888,-0.1805258762777249,-0.18936052799961586,-0.047841923610671945,-0.0692757729409792,-0.05965963081410123,-0.0017858430407663663,-0.028554900944065254,-0.15958990135551604,-0.13370260098499362,0.0072287505962558216,0.15896578163310435,-0.027690878455306007,0.03583172899078463,-0.008910873691913665,-0.21675389706862128,0.14023244770128454,-0.07564348045117715,0.007790870033920468,0.02565517401852299,0.06470444915104394,0.07660994513192079,-0.13318848425274712,-0.02318826861377382,-0.23370956457328196,-0.036279344213253455,0.11780456261581547,-0.073563965001699,-0.14378686302776247,-0.12169709720988424,0.09638402340302084,-0.04443218729396159,0.0022081878230800025,0.07005844008858,0.12814684495326673,0.08683182220084175,-0.083791755681136,-0.009316357408934326,-0.06900260414423248,0.19432295587138632,0.009793110047008124,-0.2692534120458045,0.119381983687555,0.15829187229310557,-0.06504064979189526,0.07723856410095041,-0.0593556878674212,0.02715579040089056,0.05070549705983316,-0.016515587222640724,0.16330851201975455,-0.07248133686923298,0.03443643562528008,-0.09236127024510155,0.010066296744746246,-0.07389911685477057,0.11041276552922577,0.10862762330522072,0.06799078317579736,-0.07748814231092695,0.12765587612595394,-0.06194700579671893,0.003966535801373944,0.10801782640840012,0.06978424538252122,-0.015758343581468746,-0.0905268794549127,-0.022619862806487902,0.034812618275830154,0.14152908430390976,-0.07053506769085861,0.13874507661279048,-0.05873774157097629,0.06356099901143958,0.09788054748362202,-0.06734806614540169,-0.12062106494149923,-0.0359646487557194,-0.0342166967834484,-0.05394782758566609,-0.03134576133087117,-0.0014027501721465107,0.09763934134210306,-0.16544480597004727,-0.15299853586765724,0.09648382545936093,-0.20133765795869066,0.08061243276459416,0.0005763789355239735,0.17935611836706963,0.1767181338425901,-0.06479908771107712,0.045033518414712696,0.02162520776354802,0.09989591862988481,0.057000381679484353,-0.06259284903132067,-0.0222485049897787,-0.02603482501734347,0.061087864712331255,-0.026298276396821304,-0.0890962367527756,0.06826782352904429,0.13501120539984449,-0.013027803483079059,0.004654748234975764,0.028446216035071456,0.06329902483934657,0.05361779193917335,0.061714227077636616,-0.06387715391655582,0.03501671752414703,-0.11643816017319746,0.04992458809106412,0.05764506523392833,0.251683309859638,-0.037749868552176775,-0.11913652910737822,0.12050219653456683,-0.01373593699571841,-0.07212708123739278,0.046905173174849615,0.03787169614550885,0.00890751872344204,-0.016100757799526407,0.075211000583132,0.039665863129672706,-0.006461228436915293,0.17345432408275993,0.0041061014517479585,-0.0037544523774370947,-0.007593001456578824,0.056516874617892815,-0.015524984273642978,0.01332176647123495,-0.06662512036254806,0.11044661782277604,-0.0780423375696745,7.096030585875568e-05,0.0906052075851494,0.00778634587197491,-0.05235010655503564,0.04297171964861739,-0.14037041029853672,-0.09975278719332872,0.12126990806552562,0.08236240768089828,0.0057704044695347945,-0.030569018808381688,-0.10589851553590984,0.07437616901909438,0.16781521613802544,-0.0012708728774759692,-0.08252381665986143,0.07481679901577447,0.036570989186117675,-0.006346226731029189,0.09916895522877617,-0.12710440934861836,-0.1259325759162263,-0.05404133736244144,-0.10884133001539725,0.009437331894303907,0.11071967423755108,0.057136606950965375,-0.0992137237138208,-0.14894711888525403,0.051202707167929254,0.1778877416608738,0.025387069896955917,0.06642712861504059,-0.009404001136126295,-0.028975521632436968,0.14665234914382222,-0.13558878786151038,0.08434427291652943,-0.14770719557784043,-0.04481967149063718,-0.10617701278473805,0.05124983381895478,0.07014086194269771,0.07776195866010488,-0.12019598247349399,-0.2660268396526911,0.08032179109211096,-0.1363480582122347,0.1347400492224493,-0.07879156020646454,-0.10636215987733201,-0.11869302489208974,-0.18158092331642023,-0.02781743514139352,0.03150002608858955,0.04529613210105224,-0.09895949534460582,0.12794372143272226,-0.11505698877752178,0.06301316952662031,-0.030084504374111642,-0.01937390753086762,0.030715113263750062,0.03787319837742338,-0.02955188759031724,-0.04378151341152707,-0.06421278394889765,0.02869354778783871,-0.05830440374705342,-0.15419723808206737,-0.001570714784158961,-0.07874672552450811,0.03736173035246232,0.008558724221884062,0.019928281273934704,-0.0929832872537083,-0.08705461468029978,-0.16604980968527622,0.05565258253637797,-0.1096091683465597,0.022943957927849326,-0.06581609282576191,0.19950058444983418,0.0856074914328626,-0.00046289220244225026,0.054512686889011314,-0.04017024561178522,-0.10255944270835998,0.06444763228721735,0.07612384147017938,-0.0682217418822713,0.03201110589174835,0.15819278035785242,0.05409377648944947,0.02217354660902144,0.08181286460042851,0.17700520500695538,-0.0978419932238499,-0.09279418551402846,0.05461467048743952,0.056882644047851906,-0.13503495287317813,-0.031035935548695822,-0.0022377248991875616,-0.08662168829973511,-0.05280159399759324,-0.11061531880505393,-0.048374364663343175,0.002643889799140556,0.05852631357322885,-0.1320132513748736,0.005567166266458467,0.04627681809954154,-0.017995231166117488,-0.131858670526857,-0.04433758449704707,0.011947638014650755,0.014045848715783833,-0.003096171506254406,-0.06210297047045518,0.05196123362273504,0.07815205582386268,0.06009120617244898,0.027005213416555117,0.18653125659936412,0.07869692261472302,0.09110721895440933,0.12644500667206576,-0.13932684187678485,-0.07284029074230232,-0.11674449196535339,0.08322493128816144,0.16146103165688713,0.00022911853228091696,-0.054326903204173764,-0.03037839082465803,-0.08340532896727004,-0.040193119510274156,-0.09006660765103607,0.026659760979046408,0.07271514150249733,-0.06802285340952344,-0.08832769675870293,0.04158582149292782,-0.03887405294671418,-0.0691670309736056,0.09264959176169822,-0.04235859770290636,-0.10872392353196106,0.01097964920258585,-0.14103979155293805,0.00585340949681726,-0.00664537616320219,-0.039989063998004726,0.021984852904530512,0.09978614094725166,-0.009381060496847046,-0.011545646908381562,-0.08192943929777878,0.03633740043994304,0.09113629354417854,0.02487751742859766,-0.07492307672266149,-0.13703584083918813,0.14853348051714593,-0.027485054723407114,0.07632732937635826,-0.12612952776612027,-0.04198428099523807,-0.1300939830623388,0.12890844259221296,0.03084745807675188,-0.07420720168137708,-0.14946944875079854,0.032964237890958044,-0.0748086787925415,-0.007886906666638206,0.038390054886716,0.07221338867554809,-0.11114078802983546,0.07331508586728894,-0.10391056282023253,0.10276879350717744,0.07695870753349364,0.11895904233524465,0.1700411908507363,-0.05148843065721884,-0.20904702491176735,0.10090956534913428,0.060662894337246295,-0.006734406329728941,-0.026090131139126026,-0.17766472569211406,-0.04218010301538557,0.04459133764155639,-0.05386932155023205,-0.03213808163670773,0.08314912177004767,-0.06685398195211363,-0.07249222180010399,-0.029990660378213956,-0.03553105379256562,0.06592128137033003,-0.002002788989511761,0.10533395617476109,-0.022541718439982615,0.14399681829908934,0.06213326475933125,0.1146678789874298,-0.020688586751221358,0.09310604762463494,-0.011075941609771807,-0.042813024485698264,-0.19125126758286248,-0.025221468536913434,0.044128394417698676,0.04832182873534397,-0.17649553798862666,-0.033670923621763514,0.0636545151004177,-0.09541272272630681,-0.008679188749141496,0.07994759203188324,-0.08972917198373898,0.160160642231619,-0.031638820258288916,-0.04988647339239774,0.050902957837404034,0.008312522773394797,0.022609335642640435,0.10058032487556244,0.03184051960268146,0.16386112505971,0.011654360718332991,-0.03867315838046229,0.14077765108985296,-0.025672205926796636,0.12699184629656146,-0.19755813760639993,-0.09233860937488515,0.11337508293480299,0.05409480015824049,-0.0048756646099116325,0.008019820341306699,-0.11883543588367554,-0.010691473342872878,-0.01963078641137243,-0.05692455488687237,-0.1336734860654291,0.23271019075837157,0.010857483165229066,-0.028302085443421398,-0.013885956975894424,-0.0479982014224232,-0.09728332400303492,0.0522684372537344,-0.07744232526130823,-0.01380097991780147,0.08855367578293696,-0.2014263723818558,-0.07361412590499661,-0.1193370802121421,-0.11123926152441302,-0.041720227317677494,-0.09177079438894167,0.1231653215831235,0.04080614355124496,0.04342766542404759,-0.11367711831390079,-0.020820029252096077,-0.014086665888610935,-0.027018391939602815,0.15830917820170967,-0.023705516403451185,-0.03119784071672863,-0.01312355259231215,0.06129852379203367,-0.03871428898274259,-0.13331755972565346,-0.06313152393853952,-0.09583949634675833,0.10574180062624083,-0.06701750421040936,0.15806851883989317,-0.02401134187000554,0.046042087125011684,0.11144797758368569,0.05194297943384577,0.06057468723960625,0.09484884376492753,0.05681210934505518,-0.005118268881810039,-0.13050089551788607,-0.17479159603379973,0.13260178913615808,0.1095415870872921,-0.05393912954250888,-0.07602080642347639,0.0036368217099461003,0.15879657299281233,0.03276088283536069,-0.16262083142043957,-0.05392660977349534,-0.0058297421645643645,0.02467149727823871,0.07761276715303746,0.008648879012265536,-0.10051807113186542,-0.10572125352202968,-0.0020612264908680044,-0.04697475474945336,0.1259365724569733,0.02427376620865881,0.007423591876788179,0.058466420273263105,-0.019767669060884722,-0.02545417035303356,0.017526687427283038,-0.01699030465620008,0.029233604362221055,-0.026100881451819765,0.030319745108212105,0.1761737571682305,-0.07242864592623294,0.1278797270486768,0.043498096765096604,0.09739282805030469,-0.026450364776118444,0.018028866824504584,0.014522506884096084,-0.061825146201774095,0.10513434129173077,-0.1060360164915589,0.0022324410551780556,0.08651669163741016,-0.09192644838018328,0.035369413406340595,0.04992072347241493,0.07153401475085741,-0.0826972636484995,-0.042991408930538336,-0.10548040242209464,-0.0335091313529344,-0.16074409105011625,0.11559111927779007,0.007920013647413477,0.019449608959321036,0.04806193026371303,-0.22103268480969565,0.07242076319910697,-0.06698813331336481,0.017836379715940657,-0.049855756957948305,-0.10795374938258226,-0.09217826672182612,0.03050642340715434,0.11108668408160279,-0.055824029537642164,0.07228133511507441,-0.07565204718781803,0.11265463938612696,0.10186275474952902,0.04617354569631558,0.1298085336875178,-0.05676000851450676,0.12228459096930322,0.07710531311571289,-0.14683533230352308,0.019023448021640302,0.04214384294897764,0.04674421492510681,-0.22057675846904726,0.018032919430360107,-0.03154938749080403,-0.03067688522766263,0.1336971295838398,0.037284357958814,-0.1310813639141655,-0.04412227783600472,0.02034898455335093,-0.1922005133843059,-0.04901173997735833,-0.0748282486396329,0.10078863712325543,-0.011727856598649883,-0.08531903782149644,0.003129465659924105,-0.027392551960336534,-0.019116442203197626,-0.08199564007652442,0.06977226667148206,0.045270163999392876,0.06152000942068851,0.11544372146553937,0.02972475089696424,-0.0030008248789866942,0.05153954235287568,-0.18691978478359317,-0.06116271058421078,-0.0027637910322680028,0.05848531196144207,-0.028858976338975523,0.03380023640482004,-0.09192921707667787,0.09858381629421988,0.03541350127045866,0.019734473070298086,0.010006643538720838,0.06848652536094242,-0.15296073066737947,-0.054870605068807636,-0.07493332429806691,-0.022115338275859812,-0.17284970664751656,0.21730458654304124,0.06058714570094287,0.10145952816238761,-0.03787370241891442,-0.16298072172675532,0.010455894324823533,-0.24604039700437222,0.12664504100494878,-0.05465977917864356,-0.08317958051766695,-0.10210651459072265,-0.005124818594717239,-0.16764283471228422,0.0993151917646135,-0.09832016523323729,0.09058235355502821,0.041599200530310305,0.0028327811336345786,0.1220819544346438,-0.019621290637726288,-0.037904851595946816,-0.0609595185130038,0.138817604632482,0.013798424589419853,-0.018278006364754556,-0.015599385735134332,-0.10640518586056391,0.030086864756599774,-0.04012986100361274,0.048269215808211266,0.0866669222097147,0.13711265116202243,0.031004997385747687,0.0595950587900713,-0.13700131263013618,-0.010470196798844887,-0.13121938127988605,-0.1749361353929388,-0.1318544983589265,0.03899972558402569,0.031862953420077895,0.05606167346313733,-0.055792916726876585,-0.15672510604691067,0.0765212780562359,0.022303621072124687,-0.08292648855573649,0.0018107170786764069,0.040932379851538477,0.01806651016090268,0.06236299330668074,-0.0731293422314207,0.13586533772361092,0.0037808650097807275,0.08914224876318477,0.061959402390185415,-0.08862127935940657,-0.034926985807618056,0.033229604854785426,0.1801248092252211,0.11482550953579126,0.0874648280169788,-0.0001324188375255014,0.04396528749977954,-0.15755202722702402,-0.09764133016835765,0.04362689808543529,-0.06837091539554187,-0.024443248088580748,0.09428865406865142,0.2739073286916713,0.051985699223064646,0.031218746594471155,-0.027726770356000813,-0.16232151763415498,-0.0018600597430124275,-0.18067342238441397,-0.06551116720965024,0.08369242881840128,-0.011179156312444549,-0.17004726779101648,-0.18130626434227362,0.08716510098443707,-0.01856876639118321,-0.024620921318309025,-0.10924206853061687,-0.005214156145140294,0.18506988673009656,0.054460470303715786,0.03447148505561267,-0.0004681530072753179,-0.061822415846251234,0.02917132015104841,0.12683914595256998,0.13588267059496933,-0.043869759543860895,-0.04842063221056475,0.1358767689210275,0.09486855724593704,-0.06836515680416598,0.04702695008604205,0.0572692964503201,-0.17994145034163186,0.18894650536629853,0.07157044750568374,0.17953397102307053,-0.09950915590760012,0.06970185647431247,0.0024418903302606686,-0.20790252596283149,0.06501212723449687,0.0786794285524857,0.004523831663863453,-0.16992418918377383,-0.04919884342930572,-0.11137503686658817,0.03474981746773218,0.08246905040418508,-0.03217936739057045,0.016710472574878826,-0.0188775961227291,0.0072623537639962925,-0.04856432014487739,0.09920212321722782,0.06546710811624408,-0.022432163454811995,-0.021449454879673792,-0.13477403048730446,0.05540273337470196,0.03389702755994466,-0.06901481455846603,0.03551516718047201,0.08100244086782979,-0.08315558846645109,0.11214800931520075,-0.09008793167122593,-0.10861386878653839,-0.06301571143584925,-0.027786978955421593,-0.03788892878377222,0.07797101801797472,-0.06687685824739081,-0.1269649662361702,0.03038466804705705,0.11664517333602736,-0.039828590260704615,-0.10901420806085493,0.06258742165605208,0.028188184603866132,-0.07101036977057196,-0.010855987060945052,-0.09209366966567907,-0.06332904371803562,-0.04255131634897982,0.1273787511646789,-0.005129069693993781,-0.06144087597177255,-0.15193007608710798,-0.05858169690658917,0.19529701223012766,0.002258800563314615,-0.06505236182061708,0.01817739388682319,-0.04468557845313416,-0.05494858957608656,0.05881228517107188,0.0971804243162669,-0.044494545871656244,-0.03473316240690942,-0.16546835681331049,-0.1281817831616626,-0.038240636449058035,-0.04528343821492974,-0.0916692560607905,-0.022533214800095097,-0.17777771665456346,-0.07580514248738077,-0.013453429238108001,0.13663349379966352,-0.27360715785475437,-0.14051528412665337,-0.08066532345378782,0.08935374475972009,-0.05882544815469322,0.027280153524044795,-0.06595510524305304,0.05649918306510863,0.12501665290326253,0.135955735601558,-0.10966285400597177,-0.0654923073286385,-0.03550583775599517,0.1525840623082542,0.009981498307352786,-0.009672220005838833,0.0057212885651740245,0.000606167732226688,-0.04478372634049204,-0.09212126311285451,0.02790374070563419,0.007232805499953886,0.006594143057135912,-0.022985148279147934,0.0018607431118953092,-0.05685372384556855,-0.12566223569653034,-0.053719857653610446,0.0883521377503075,-0.09686927190828568,-0.06968369426180644,-0.1610491853273292,0.017915726875404058,-0.14198676693486378,-0.06710123534735368,0.028318915771828473,0.04665314936412874,-0.14037243351679757,0.09599283843065427,-0.06695224881180013,0.22445323654718743,0.09497815386313747,-0.3144522366033453,-0.07087047899312651,-0.0026456790575253653,-0.17224060301782806,0.09374803902522304,0.11500591127466683,-0.021515637193818733,-0.010455646930504249,0.06820266961992753,-0.016413366434603935,0.0428399156009124,-0.005374676939591196,-0.0368247531664587,0.009102599080838205,0.23871446259197177,-0.11924556207507507,-0.09513273784130549,0.028825392047854326,-0.079820699503154,-0.05590028291835994,-0.038350039398832324,0.0023189458616348917,-0.11302981709288457,-0.03096866668314343,-0.1206973234435972,-0.12338103183731604,0.04324953597348353,-0.030628560871974887,0.13933458824320782,0.03026996287305213,-0.014777293001711616,0.11387545074577574,-0.05564806358590124,-0.02714482996944168,-0.020854607114715682,-0.004375815732908843,-0.21583542267350722,-0.130682143236418,-0.1666936596384463,-0.09551729955917375,0.018018786186996625,0.017822106248112375,0.020319899001972185,-0.11514069732514866,0.02476560238098296,0.036985028975572654,-0.07180094195864677,0.001995370867850215,-0.1604352092279233,0.05647230506507588,-0.14012389775989037,-0.06674939646736583,0.13647005133628046,0.10201284395396716,0.019386090865919362,0.09844651497129617,-0.1092559022731899,-0.1121327093121395,-0.05011432064625517,-0.1443764707675688,0.18707999911364248,-0.09714634427262554,0.024790331159119255,