{"layers":[{"layer":{"biases":[0.10703324095796443,-0.017355551434843207,0.016112631060995967,0.05593262536901046,0.04178047982780928,0.013951072244097194,0.01258318467489376,0.05556396337112762,-0.13054101259704262,-0.021108902562101017,0.0934300323739321,0.03539200173854921,0.015444111560915429,-0.05346158337904368,-0.021055665654977584,0.13853107771024648,0.06797479163221283,0.043922056417507155,0.00888373166068663,-0.08832639050189536,-0.08128586668604286,-0.06268874446595435,0.003483080236871788,0.20560433112856444,-0.020694804471411594,0.09191382690497392,-0.06523910214864657,0.04476371027947044,0.03383426354809605,-0.20089922910185212,0.06716726510539173,-0.012333744795139752,-0.029875341218513658,0.07433805221622791,0.014946958169368835,-0.14379358185562496,-0.1621425725610264,-0.0944188451143626,0.03714005298388891,0.13468430453203334,-0.08136939865766792,0.16192084810108495,-0.04628767213605093,-0.0007473521328264441,-0.08454602135374534,-0.17366809060732852,-0.09533764532715906,0.03652540232877542,0.048858228582850126,-0.055222395686614134,-0.04861676027059901,-0.005080806541595337,-0.018638332163053484,-0.03529107511261889,-0.00047824513173112495,0.06698612690763471,0.009485095535123528,-0.04055445019583022,6.889410158607874e-05,-0.10585718804225225,0.1457878861073481,-0.014539577667777647,-0.129107314291356,0.069915273564095,0.12774174783752934,-0.013076073307917976,-0.14183043175319612,-0.0478131511197675,0.026155743584639644,0.04029647821043915,0.03838778449840172,-0.04539791390018065,0.08633908378761859,0.11748361474916151,-0.16732724134043941,0.09999958494751884,0.15879862147843557,0.05090457739842338,-0.0736107577165614,-0.030307864045448014,0.07121459344404674,0.053498059662628404,0.10305454340819988,-0.020315107258289198,-0.06957186596551901,0.033225454263720394,-0.18284098965395296,-0.07683265205102469,0.06584527599999598,-0.0014950586065296655,0.05048785998624572,0.007131064280937233,-0.05151090886033111,-0.020197272529475497,0.12662790490880466,0.02291648181955952,0.0858807936916068,0.07931401062501119,-0.10602968150483122,0.040143605297567164,-0.08984783032021984,0.08580383673879827,0.04324713027995275,0.020813124359266414,0.05926735491960962,0.022871880432714355,0.04821483104132669,0.1430932876162165,0.016546375025240808,-0.037623693035394645,0.06185774389646585,0.14272717045172656,0.036461385684921785,-0.05182886821408635,0.07102507611348799,-0.09064053569933761,0.10300563399835513,-0.051045652567475966,-0.08837134984470797,0.03401584747182478,0.08399002621651562,-0.1099544183645096,0.002496614217471128,-0.14743746727620882,-0.04101789141395787,-0.1441201207291392,-0.10274923050777418,-0.04884786595088134,0.0076916738490336745,0.10021569221496635,0.08231910746748296,-0.06086529812518189,-0.040914139512694576,-0.05163407851363972,-0.07219381896700454,-0.11005903800645882,0.07699829816458482,0.23312791204765268,0.041179700676131366,-0.022287373593983112,-0.15687031103566357,-0.04227967182354241,0.13108528427598784,0.18134039678746314,0.08104224985536657,0.061911491379934125,0.12968162975906802,0.1545830139073415,-0.0008061402747405859,-0.0904741045705778,0.12700263331543052,-0.002552738426912223,-0.10849813423253167,-0.0017852753609718531,-0.10653372826991557,-0.12976339163985895,0.0363363143211223,-0.11367914736513977,-0.024289875969097638,-0.10488469399698915,0.033016427443216555,0.015116491374722247,0.15073919027355295,0.0862584397756973,0.023201011311981847,-0.04120014380428335,0.1099628024111511,-0.04575944956229537,0.08125105181551515,-0.06611311540923319,0.06976800725903635,0.004544299374161718,0.07516142321024973,0.0694031313067669,-0.06495767543665433,0.04473672658520445,0.05137029172317731,0.07547781555905221,0.07799688326464224,0.041217698639370005,-0.0854922445357512,0.03302709073785796,0.058848124523046594,-0.04923252310797017,0.14061457549778736,-0.028226261776327335,-0.025452862121727267,-0.035733052039898947,0.007355134480058962,0.06415545488388934,0.05945979625767874,-0.09816590423841647,0.10875928599354925,-0.0367366603884875,-0.060784319406698886,-0.043660813912086115,0.08287336598765771,-0.05707973057877799,-0.013172962657736547,-0.0503563852285834],"inputSize":122,"outputSize":200,"weights":[-0.11362154315042497,0.0028568643649774872,0.06410479468457292,-0.09657094326075215,0.041852829951342804,-0.024792361192973858,0.13082518995739714,0.06358543046776326,-0.0036437122097846943,0.0525661561672096,-0.038262202117468475,-0.04242230814509345,-0.0682712628510672,0.029513155769056883,0.055125708950779215,0.051019198212763454,0.022102485225334867,0.06712105410045684,-0.030133476049012013,0.06738202079228346,0.13081536290079293,-0.05652906668653357,-0.0438066690001386,-0.005931561226317443,0.07587749095953952,-0.005182437617082617,-0.025909875998623648,-0.0005253954512265636,0.0220508683217155,-0.05654878346320929,0.07153416793468889,0.019725846415776273,0.005054501611880696,0.07982534250234573,-0.1397449059499984,0.1522758750678887,-0.037670560360601804,-0.06020347730329574,0.07066175159149532,-0.03511040207420743,-0.020683034800100347,0.050552703497171045,0.049326010632230785,0.16221887423151427,-0.06652271930532604,-0.10293393880257665,-0.06774537492567653,0.004088709256169188,0.10506189585900073,-0.18012158870845532,0.007078285551765024,-0.15750979629543027,0.046531156329135036,-0.07659707623099508,-0.24172949044430592,0.06842269719946442,9.548860201703035e-05,0.12044592513740664,-0.00646393323810134,0.03775290730432667,-0.0018992339736608394,0.07594670328242824,0.11328547062027043,-0.013363031509593318,0.06442778566679669,-0.08827119781737934,0.05123280433014499,0.1307354006479989,0.05943254997630128,0.08058036176838292,0.04108841944961272,-0.0724833501430524,0.13031435427816812,-0.08050778652941455,0.11683127969952996,-0.04738076056059739,0.09985913414866099,0.18117083688990313,-0.0029938243013777283,-0.09921426718144413,0.07384619748374889,0.05791380776276965,0.04789674488630725,0.05168845048672857,-0.02929688852460534,-0.12711155636500227,0.1174535068414199,-0.016686286229050187,0.026502780860268478,0.11843020366959436,-0.02602977490919227,-0.017691692385252356,0.11272029728750815,0.08167999626208576,-0.058102432670565925,-0.03894308078202002,-0.00788335460419455,0.1438997440688617,-0.035363949037851665,-0.0918744806391754,-0.0027596465186096744,-0.004272910124107698,0.03591930161456045,-0.09377064644889331,0.0023537544028123963,-0.2012979300575508,0.06373006349843277,0.04537015543384443,-0.08321691648652928,-0.16198454071721058,0.10634828286611149,-0.09117896491909652,0.019068783369332255,-0.1335863054895732,0.09764442997765914,-0.07253833118178352,-0.14904167981816507,-0.10652908380712402,0.03679214999340773,0.019719140558644484,0.11647135397573212,0.03997022820924136,-0.006849195316076608,0.05261283812098023,0.063196853983809,-0.18227178792005805,-0.23960010658833497,-0.009341069741383476,-0.10717242513411805,-0.05736000748323094,0.09118793924755422,-0.0022141012233348792,0.038549712255562044,-0.05377356872498829,0.022131206143516498,-0.19681846145884352,0.049970107917497245,0.13696786630176272,0.16687802792558654,-0.07565837210658956,-0.02159494295882601,-0.12958606138540105,-0.1007062932813897,0.06930651891566864,0.007051814862505018,-0.14636772479910753,0.05894943250555457,-0.060742789660036954,0.13000684909403679,0.01035066850931785,-0.08486650357895117,0.08834550279597286,0.024018750771250853,0.017515459567775966,0.04106854978225618,-0.0017217501296966204,-0.1890031781017074,0.10833510319928591,-0.047980050219944705,-0.0383108112000732,0.05208420704132184,-0.02701642843165149,0.038570424535323326,-0.044533140148331284,0.057774787125085214,-0.07291895956548197,0.031046901698745924,-0.06629451332873416,-0.0959755506031841,0.18665962764354874,0.13223296537878432,0.027275612376021025,0.08187369242664468,0.0038256901910053726,0.058605713806787495,0.051515049769869356,0.1239959511365847,0.11661323834880344,0.001231803335105384,-0.14423203528807244,0.07931324411782285,0.06242243146648702,0.03491654261411501,0.10048175801996169,0.01575055832144756,0.07463936760782057,-0.026559794070366353,0.10747130790551383,0.10272545455619796,-0.06586951696824651,-0.031619824878201676,0.07062790449080295,-0.18302216472674165,-0.00987082238683145,-0.0003706154956878987,-0.16906067875529446,-0.05398413895076287,0.061064599624853784,-0.11070660637761918,-0.007701983173407311,-0.008737398678355842,-0.03374424206750896,-0.017702691992314376,-0.020709690098164948,0.02561019885645048,0.03235044698493369,-0.024784321979887173,0.045512201365298335,-0.013652447219035203,-0.0027455750629211584,0.17421568522368736,0.009230397733960727,0.07815427564329076,0.009973259033020942,-0.05811200209398934,0.09251207841576915,-0.06439563623783584,0.06474790717675338,-0.020354086670939114,-0.029278800190546118,0.045048294198745766,-0.0664663121118704,-0.11754294186085623,-0.14794366857842653,-0.16750254174426177,0.022271236269388706,-0.10033605147652284,0.005700442253222451,0.013491601715446158,-0.10026964849802754,-0.12436579640264453,-0.1162308232327161,-0.023079281692987858,0.09433646608686955,0.018907907696225704,0.01728625774035839,-0.05187166790045105,-0.11200944265986879,0.016735974040879512,0.06992455854464318,-0.1192103696647987,-0.2141216907950463,-0.05065464527927533,-0.029517397113003743,-0.02187171501014779,-0.08312025329331621,-0.009029784923329467,0.0016190961811839632,0.02870499604386201,0.014798801557394398,-0.09276047765833755,-0.08041152029066365,0.05643057915160499,-0.0754628309550447,-0.0677458034662043,-0.047820777921980535,0.013895552676857104,-0.04953233716900084,0.13051635665911102,-0.06998187437837039,-0.004957013582641399,0.10832451599486395,-0.08026168763014284,0.04053118855727734,-0.002797277246438059,-0.16670601286782313,0.09677095264843244,-0.10650579833250207,-0.1252858564727247,0.11780773391999051,-0.0681832686595454,-0.2487502443661445,-0.12700992431254296,-0.10787718515632354,0.10064412284453217,0.015308342166584563,-0.15275153636827696,0.09387640732672978,0.00043611772525066033,-0.09350692777969728,-0.042145663241943326,-0.09517036984558909,-0.0790496777083518,-0.03332195710600666,-0.0006920480691052254,0.0639640440101492,0.07309902931499128,-0.0698879573763365,0.08197376850527707,0.07634992722004781,-0.03867418876343831,-0.002278942006350595,0.05239698620578139,0.03902862592835281,0.08582574898894352,-0.06960439299444356,0.07692586837787675,0.015723622829065274,-0.12994197626265708,0.050404827032593066,-0.016696493373039672,0.10315886107017277,0.13018912532153185,-0.025170058520534905,0.09763783087002029,0.09269487387565556,0.21998313357550456,-0.02478874685493453,-0.07595709384958874,0.027845888456163478,0.0559510630518968,-0.011190006517557147,0.013234694807275443,0.05055000685330296,0.012490124313841347,-0.02779654691558689,0.24656707570095254,0.08596096575767834,0.009835265491773396,-0.032043527799647566,0.10844008358733832,0.009585551975561579,0.044148389132680176,-0.028868963425331396,0.0008332883316242522,0.08538556524233626,0.08087542435762793,-0.11225893608672761,0.010722562856613584,0.07313050385487882,-0.005166996865245028,-0.07737885413222333,0.03914867509027576,-0.10000428534143033,0.08962070883299784,-0.015239821769332145,-0.011398188535547579,-0.15916050358297326,0.1398230753926396,-0.09173242937039054,-0.06449221516129551,0.19527578709235946,0.04073294701645544,-0.17587733734122166,-0.005250590667529119,0.025770647787730944,0.15152920236867115,-0.04885603146195698,0.005631944774727946,0.11878870328730577,0.05821298098096884,-0.04124959743567993,0.06857367544005492,0.020587221876456323,-0.021323343324829765,0.08742465416718859,0.07250206630193558,0.09080428529432681,-0.04734998672398127,0.019502216904592612,-0.11389323000697207,-0.019698970359661137,-0.08398752374997771,-0.08164092646633189,0.04247042433909127,-0.015329154351178544,0.043504260883623844,-0.008740700248907989,0.10939205666630093,-0.07967481680751302,-0.12321102635125498,0.05604327886443595,0.04043074651679881,0.02820293325837934,-0.04884670382659576,0.07454433961444222,-0.1611112746155594,-0.0258299612328792,-0.032302769835829075,-0.06370070696695658,-0.17020717745797845,0.06499336640243972,0.13807945206516484,0.19300493824806014,-0.01240454098052096,-0.04993703871201323,0.06399691076456912,0.09351002812685236,0.1021082828554267,-0.006519704974537626,0.0319317539643952,-0.02897061655203845,-0.07556023689001948,-0.08608890047194019,0.08734424717288258,0.04560662626232357,-0.13811523358352265,0.10525147595576945,0.13066846763448614,-0.07779276805991778,0.011221710416690782,-0.024465462832703636,0.039773701310868013,-0.08324351800359782,-0.09483090593349629,-0.09131593305645164,-0.14455484984271,-0.07372235552364223,-0.07506954891575468,0.05488353214818587,0.098488916111015,-0.07342279171396177,-0.034155107205880546,-0.07761702791528334,-0.020626928568153065,-0.0317706630371945,0.07460951585537945,-0.11018153757087484,0.1780200719965423,-0.15791669767052463,0.05980421127185865,0.055743881881189464,0.011027927502236343,0.07027886884395174,0.03084408810504121,-0.09145577725974793,-0.0027921845426261724,-0.037406360434675906,-0.11131173669423823,-0.0646152186210118,-0.14652830522841057,0.07951677803787899,-0.10787976930510428,-0.05214288432957909,0.02598104012074652,0.16255752490509282,0.13872929729209094,0.1481810639992376,-0.004015901124111704,-0.060137389032498836,-0.07941740103516096,0.015603410400258002,-0.04488465897921276,0.0741089925352806,0.035088605442882795,-0.010402637764343517,-0.022368177278506183,-0.0015088973454234467,-0.0006212403118760544,-0.011780945354105342,0.15649320991006838,-0.09425639201946029,0.03385364778071435,-0.07802236387444936,0.004255546500478052,0.06660907215901594,0.06424260404211106,-0.03771026124589869,-0.02600124812066208,-0.01107855137483413,-0.004174933989538123,0.032316904624968494,-0.029446037364854363,0.001683693669154509,-0.05929403981820168,-0.023443257257046327,-0.00016943585094424842,-0.06735168054897413,-0.030804773280623036,-0.08441093268183689,-0.2122086359118823,0.00489548314194828,-0.1377952285253731,-0.06591124593675107,-0.04682141401595243,0.0258569758322604,-0.1952885970477662,-0.10305646398183431,0.1693899104602845,-0.07797280390682838,-0.048754817165566275,0.0898399812410397,-0.1649067745992909,0.0008942762049550749,0.05285325160159541,-0.039522432675480626,0.024032669316367765,0.021296812815120286,0.1199864310723274,-0.08721070243146288,0.0017230698051554354,-0.07396607035403795,0.007097133896169907,0.07271511442865455,-0.06382361352519683,-0.008505615994515483,-0.07353332254195363,0.008914672204001273,0.08591457897203314,-0.025227705285376916,0.061674136537139004,0.10875467671130794,0.06055606031738288,-0.046544941939829436,0.10867323524707379,-0.02817749287322546,0.03677549326102595,0.11158077052550512,-0.1419313550798611,-0.1188494180625263,0.07756033496339584,-0.026206032125813128,0.025571510379431273,0.13860896930748537,-0.11917823853843895,0.04466688012375438,0.08912253034717928,-0.04536927411065589,-0.11579227079249928,-0.1038869417644837,0.09662420849223337,0.0282880944479925,-0.04859793765692617,-0.17223190830085042,-0.032768916312729435,-0.07151750206079313,-0.020813400469346755,0.011244214334736588,0.05479236966320475,0.019112331711121092,-0.05581307974768197,0.002571072823728328,0.04420879861903953,-0.08033269761028802,0.1964459669052595,-0.033432162779696635,-0.06128641812568159,-0.2155123807504246,0.027266686592634478,0.04557588463575818,-0.037355492927645756,-0.04431679719553684,0.29040856398172576,0.020149925387777576,-0.10902083262046816,-0.016808402336385194,-0.050063811207590035,0.06537898307766868,-0.20948503488941705,-0.12738067203528727,0.16578765218670627,0.13318428583245243,-0.1612517144922427,-0.0871177157128048,0.0037337615998627063,0.08925968867179519,0.11711301415032936,-0.12189784687051398,-0.01188043772366015,-0.06127522104346193,-0.06607301243782705,0.032493184513896066,0.06074496860076862,-0.03043537661392077,-0.05992953995046034,-0.08461189065533697,0.14710726527507786,-0.1445207845304645,-0.08572369514681,0.03691192567958138,-0.050824947791075416,-0.0906405226070862,0.03304008881245928,-0.06522843612968451,0.09690621015646941,-0.1256425289968158,-0.01479201241580218,0.0039700431744737075,-0.10707413563909404,0.059623516550595924,0.040894222234532325,0.2369393039499095,0.08236158407799311,-0.014274026418179946,-0.1182464793782186,-0.07415396311825741,0.022971450022032984,0.02894030465305321,0.012461480038583573,-0.008004658889215149,0.11893719837656017,0.14741235615737064,-0.02137150572490496,-0.014367739962615233,-0.10454562774088395,-0.027587830874497076,-0.07801773833396212,-0.1709127857341894,-0.009687443386612756,-0.1019794364996421,0.0608021506617323,0.015864942329666565,0.027278365603322207,0.01399312123294693,0.023650714002799438,0.004446585826398922,0.03198093003014102,-0.10942709524533972,-0.08241304523945504,-0.11629067244576374,0.04450129672544268,0.06600848460283738,0.009508077740790766,-0.018182711437396696,0.018743004192181563,0.02022346343116846,0.019672748353193256,-0.07515805563512508,0.09534597100442345,-0.07362893785080839,-0.08827061984030635,-0.020432614108167123,-0.15558857528039363,0.04312962073657862,-0.038597266705257406,-0.12095487584656171,-0.12953466079696271,-0.04141509113843015,-0.09828234681552586,0.09158230157373673,0.18877454836300517,0.004412565986010473,0.049007362944369366,0.07064247758522786,-0.08023375862230987,-0.003927492487551457,-0.026572906326829567,-0.05672373655382944,0.18929338499496165,-0.08180988727073378,-0.09114339474111938,-0.04376136533086519,-0.09087370683501587,-0.05341195857888859,0.023831877150652957,-0.058907191040194096,-0.18917244639023353,-0.005743496123696877,-0.024303779710252087,-0.11918822888306177,-0.016018116318939703,-0.07776278068249837,0.08648697813601597,-0.09405811215060907,-0.0024781902785112036,-0.08257952950662953,0.08546381754780123,0.0023485915974843195,-0.015235976853905807,0.010725622758923857,0.033314820532158514,-0.11710016136370191,0.12873841219185783,-0.04159728918208692,-0.11993159362332134,0.010611103708190975,0.03792274225709608,-0.03814842595543309,-0.027290566337369957,-0.12839903784797385,-0.11747140459370069,0.06514259767431123,0.01246335754356405,0.036791520811461795,0.06761572767113896,-0.007333739313706855,-0.1433893890960007,0.05634469684475305,0.04170043455986786,0.03501197686565572,0.11017656992476565,-0.016920060330488335,-0.0787567367367027,0.052032483595780506,0.08123616426989128,0.16011877370188451,-0.13629018908311744,0.07441331015736938,0.04955818646654394,0.03806760425142592,0.062083541521451326,-0.06796034294586126,-0.09684904139653407,-0.1941538471997133,0.04121503456562642,-0.00690454571726533,-0.03025532839480236,0.002555686371555403,0.006537064530696758,-0.11798631323231876,-0.049605904284548696,-0.010635952494871474,0.12987067794386922,0.08944032017321586,-0.07499047078816187,0.09515301006321507,-0.043910694952985344,-0.006035067621794744,-0.039107352432828306,-0.13487051073137568,-0.020575826013233475,-0.02761306651835467,-0.08861828900100781,0.1417928575961677,0.13753543226028161,0.0866370532611369,0.10159667604602197,-0.037079331194454376,-0.0556201561005413,0.027912108860599815,0.12334626033251195,0.07310673944608631,0.05569173871827876,0.10066684033532877,0.24397775416621179,0.29447852573224426,-0.05620672541151724,-0.14644658126372043,0.09045492608741335,-0.033667086202636747,-0.07639407902108952,-0.03450341996431568,0.011938831761884157,-0.1367653501965486,0.09932769544630583,0.03980700805865416,0.004759345010453624,0.03481337449428696,-0.10716837947991,0.02675863865795009,-0.04327667310230272,-0.08050322406059086,-0.010303929690231042,0.06735259735894723,0.09315058842594034,-0.07692742687607317,0.06279674766363855,0.007839819037738182,0.01109223423264851,0.1278357928452228,-0.007998371154979625,0.05711681737733911,0.10233149450757165,-0.014712836035167622,0.05265670867788626,0.10135573180626399,0.09598536582300393,-0.0038168221169019947,-0.01494614352054865,-0.059637250468025343,0.005453523731518639,0.00596867425757623,-0.0266740972184049,0.1517250814969711,0.16345374340263796,0.004225276381394241,0.07904182633292213,-0.016231162327330798,-0.13145653175750366,-0.0642648004378875,0.013575974901684057,-0.05212118090930321,0.0054547579444547915,-0.0006559800160545039,-0.09273047802511805,-0.162080254236455,-0.08782326388538889,0.008215514385387318,0.03849926629317255,-0.20578682912900095,-0.1313456132852561,0.09413948341429794,-0.20256092405503748,-0.3154995945564472,-0.0735910743383072,-0.029289599246348993,0.00018977381142225647,-0.04769354953232723,0.16691913380514922,0.04000204984458119,0.14614114419653504,-0.06654640683143234,0.0027379561876939473,-0.06692024600166466,-0.03794999014056764,0.05380700592180205,-0.09354626530697592,0.06423456662632368,-0.10583340605325553,0.196659921575857,-0.07673302713808026,0.016434219949192735,-0.06453320706357593,-0.060816519493296244,0.16492179255535272,-0.13968209565936035,0.16014077097495572,0.014571508919590885,-0.051607524156548526,-0.01019194075118321,-0.03941920570466976,0.12910162932983318,0.10837519247250732,-0.0072017699147295675,-0.003450591242588238,-0.06845906726970194,-0.0027570762092885815,-0.13709989092315136,0.02384151794472232,-0.08397118090374818,0.05197863053106046,-0.04959706289810754,-0.0763272384643946,0.06318324935663128,0.12122607300119592,0.02250741064622288,-0.14856260561403045,-0.033528158682866405,0.05582484065204136,-0.00015588673832334475,0.07933588400499274,-0.05319482493829273,0.11269092291653005,-0.048354819697195926,0.11231553922890186,0.023824070936857077,-0.08239025254950917,0.06931155265294567,0.025246706358441316,0.03829801734075946,-0.09938684282037266,-0.11832264670797743,0.22120359008550772,0.10877343398067213,-0.16528948240352787,0.007009893112271816,-0.10691394049665355,0.12852706413017084,-0.0231773005164373,0.005296334648477632,-0.09890339769238847,-0.0689191477232347,-0.06015730125032301,0.02437089690027511,-0.008835606220938683,0.11145811090551247,-0.001993427342547408,0.017855065184587786,-0.16452538660744628,0.021746126410894514,0.01294726714195062,0.08865386909401429,0.00444257786203427,-0.08369860839041667,0.024933131400749844,0.09916537150807626,0.03915180140523358,-0.11851895634428211,0.06141550067038324,-0.09601991537295897,0.011255365067097838,-0.13756817012874692,-0.007865762302000607,0.04531518963624605,0.0026119240710219455,0.08044609829767277,0.025247011855292784,0.023093211831877885,-0.028986044224635757,0.06938762613945582,-0.06523830200427448,-0.07602199702806237,0.08511633567239327,-0.11922346893241285,0.01611620604329707,-0.15243085060504433,-0.0037203685670103032,0.14345730016708183,0.008905632777278988,-0.018865706698239997,0.04624454840051051,-0.06255494931564405,0.08804220675935273,-0.07027906280552192,-0.08376947829302542,0.02867643746675775,-0.01633061820348686,0.03998658067507935,0.0706369739030561,-0.14533872185865487,-0.003991577937107968,0.2533663175023314,-0.03427260733022874,-0.09248128440123958,0.14665870630573466,-0.05369696707064852,0.08161394223835078,-0.008032643463064381,0.07376544201877985,0.0772648427458643,0.016915695495833175,0.13725721855157316,0.017495803411173058,-0.0152202352398152,-0.08540389835282775,-0.11991296488674069,-0.21746987431799694,0.05009311994561551,-0.022622075315942767,0.04337464655279108,0.030484915174711687,-0.043815259217520525,-0.07072480800571039,-0.053681470413089065,-0.036424104759391174,0.06184590200194849,-0.060279501573940054,-0.05030490452968458,-0.2610446888728978,-0.04095251080010609,0.08416869289220921,0.010478368291002108,-0.03448874782622887,0.15262054895315724,0.1458923859349827,-0.06405395108585704,0.08641870821500434,0.029996798819934542,0.07141445856826574,-0.014651238855027301,0.0006307809823449887,-0.025293779965231675,-0.00043025772248954727,-0.06169767922060471,0.041520038406135246,0.04027252920862751,0.08249670303596955,0.010786813920753471,0.024479458459241012,-0.017915656546489887,0.16681345840341305,0.013428733703871187,0.061837531894363716,-0.042118945413841036,0.07524179145274223,-0.0801732493730149,0.16813301878881967,0.0531312862955227,-0.0029068813725869544,-0.017317367448631823,-0.10513685722383095,0.09375202128600957,-0.06592770547172634,0.08156489789293359,0.09579449737179448,0.14103020778213335,-0.025136895846400473,0.0007797013036228618,0.06706116499548621,0.11753708320394177,-0.05536477217809036,0.12473968680740631,0.009421830485710853,-0.047194223657852315,-0.043989705347135914,0.11397975767205037,-0.08927602579232519,0.13988099337433268,-0.07780699629908501,-0.05058114044382453,0.078702602358983,0.10788234455392472,-0.04543309127309475,0.16633917252188618,0.0748551858173868,0.017050206429647108,-0.007024294268952949,-0.05996988423947496,-0.05928158982507604,0.061664594279890135,0.011123651971546248,0.07167664787365872,-0.05605489197336573,-0.08263543277210822,-0.11009392795869563,-0.004812517745597707,0.11589031188098835,-0.016746751760216685,-0.09770629710933967,-0.08170983295889507,-0.051181590346359,-0.06545558952446534,0.1029564444567011,0.0059320766044543925,0.03010017878606273,-0.0717024924246807,-0.006091924734235347,0.2595920381349571,0.10531764359220312,0.11264424637144616,-0.19844236005908344,0.012658612045767055,0.19689179926853806,0.02632555762481551,-0.031474641495105565,-0.012702745953711769,0.04185072283117121,-0.11698014088440208,0.07894327171647297,0.01158450065503324,-0.08275175840085487,-0.07608731623454527,0.10297066709817218,-0.05383114730066568,0.0641211604536489,0.10161416671590622,-0.12465840744911916,0.013697353775425814,0.06768934822938658,0.06823379942150176,0.039583222940193424,-0.07857910345120334,-0.13342278047600212,-0.20188648862925235,-0.04486004015871665,0.045739463231833,0.024855618653551105,-0.029157194595011707,0.05984302348463576,-0.09835187405832634,-0.1091265345017048,0.13058656845746552,-0.11316620179171381,-0.10341988964109232,-0.03153428245633062,-0.030603059941236663,-0.05671132509339146,0.09115633655834277,-0.10814496833493756,-0.07250837722906578,-0.0653706467492844,0.1363983647520782,-0.002937120862379129,-0.10760798249338431,0.03229079607131696,-0.17617074003528374,-0.07242941718932101,0.03133000150842418,0.06529875397750971,0.16554380861798093,-0.17842012648280575,-0.02859750737489986,0.05995360438748246,-0.008546188643000455,-0.0865100916835015,0.184345550807052,0.028689356126255297,0.0016479102979583785,0.08202566514950851,0.11226371519525928,-0.11202371135689305,0.07502966878976164,-0.1631123259609377,-0.0775096806050046,-0.15462322656846098,0.02865257489352185,0.006186999229154734,0.034411052446887413,-0.013478911253472446,0.041356042439982275,-0.10924247888745937,0.06456120007307964,0.19718573943384252,-0.05145663556526196,-0.10293684889941095,0.18619517476757486,-0.11487900073671391,-0.20631997349387693,-0.04093615823244755,-0.04271160163513163,0.14062081478502067,-0.025471575196400503,-0.08780119389167382,-0.03723575081047091,-0.11878445435672652,-0.017772110755866457,-0.004325938467564316,-0.007085609692189737,0.13899869297954248,-0.07431372939371479,-0.010138908491731234,0.031147296811538026,-0.017467015730576053,0.09760649950495888,-0.03117590575550952,0.18579754901881324,-0.06901077694861751,-0.053067786341833435,0.053512335439833275,0.12890190124856268,-0.1858070274354055,0.06546469222763741,-0.03484810856093622,-0.045484025827050904,0.21066286167128762,0.02254905811767271,0.01803612215049175,0.044117849550753256,0.04812803779298739,-0.10369033787113788,0.033613154123287504,0.0827049351131562,0.08843652710037822,0.051841489050674365,0.11720605863439211,-0.039129591354019735,-0.01099250895578394,0.021793816035707764,-0.02192426122744416,0.03793401742185317,-0.07072753749434711,-0.0029321772153682864,-0.10498505242068645,-0.05443857935499755,-0.019960871301996166,-0.1707178316224528,0.11120243995539744,0.09331491320318783,-0.027950430459770442,-0.05942373565562412,0.11027208301783913,0.09357492568451242,0.08371030970845339,0.015101869215719366,-0.05396137112297251,-0.02850578900559642,-0.026088222946805042,0.20637561619189906,0.0021420185929456772,-0.09223197543102653,0.1252131393924172,-0.04886236633972411,-0.09479976383658895,-0.014139363381342378,0.042347828869010076,-0.091007966949298,0.1748154715865239,-0.07040764699594125,0.012923088096202906,0.02587776936462935,-0.05692978598719735,0.018462800477664146,0.015777613086559304,-0.09293416599104472,-0.031536375564995,-0.07898974811471185,-0.10540878830513127,-0.06702539838516823,0.00023621351214213709,-0.11882624071710375,-0.08909655433408188,0.1530172902306581,0.08361094459627012,0.049856989689402186,0.02920399128246506,-0.0988980809634258,-0.0169124967646233,-0.01633801716249973,0.04799203656710479,-0.09877544198552708,-0.07071034969427274,-0.08148297028707323,0.15745224735648433,-0.018365617024223093,0.0029988485072954202,-0.0263154994547415,-0.08373769210426207,0.024466411188548105,0.036487170502443184,0.026518463884631107,-0.04157567801204734,0.12209089308913508,-0.06399958090187115,0.11086667621578886,-0.004802069823321587,-0.1728642725303736,-0.13803768443005301,0.30082529923343193,-0.04826055619562234,0.07348401362440432,0.10757840620787201,-0.15128661597553048,-0.05922077178147759,-0.2261429438578153,-0.008833818292811846,0.08899488921236151,-0.04211052985355864,-0.16830112390867297,-0.0300751380879666,-0.11886406969452215,0.059063825039556705,-0.01513544636901621,-0.05821326313423014,-0.0011326028871621004,-0.09883288701150218,-0.0504235050385447,0.003401760705564549,-0.1075116838752096,0.16512824725586991,-0.10882002083257378,-0.05606921084218129,-0.06413462920832826,-0.06070679703155177,0.04413643496974763,-0.02545014537761578,-0.03826650334923627,-0.06427955142683851,-0.13185045921383015,-0.049911614283781776,-0.09232648691702129,-0.02788195607956768,-0.10910816582468791,0.06924807236414063,-0.015575887387273179,0.08915559450013659,0.17060812199587447,-0.06608969594058227,-0.12010219965657698,-0.0058289615434978445,-0.028132786234257173,0.05589779883562382,0.07114787168546934,-0.031038780805452405,-0.14585516788800032,0.05532780448226624,-0.09396558331987002,-0.003199744494988297,-0.07577093852785022,-0.005519049331970316,0.18319245383767896,-0.11331986016579895,-0.07985240962416318,-0.041235138612285095,0.1264883822354515,0.08370905692261103,-0.0013491097226638862,-0.01779596524723626,0.12641720239041454,0.03782590441638974,0.061233291726356213,0.07744937994788717,-0.05352638214375913,-0.12623811392146758,-0.11571724795674371,-0.012565597261714082,0.04299487754699857,0.054580475383477885,-0.05033477790477143,-0.057381161447241695,0.12800626068262724,-0.147932216631241,-0.14613701272941998,0.023861016773442788,0.03147360228862181,0.0432033973665199,0.03425492695165014,0.049989884061657296,-0.047226419086809565,-0.09293406791634962,0.043386095223563965,0.08475765480462172,-0.040892002550642355,-0.04672771354460572,-0.03603511569885615,0.08286508751176572,0.1515420600213622,-0.09355262391070698,0.15710739653247544,0.05540457509740585,0.034330399342452814,-0.05184784010564129,-0.02990492812724542,0.09610006479383167,-0.10395384376645501,0.2201929139645013,-0.11902018891928609,-0.0030019526774634022,-0.11273081287248464,-0.02904594927410335,-0.10376065113991692,-0.0014753340685441573,0.19507443177056305,-0.08194943350260676,-0.043133363010875184,0.0002312831965307459,-0.16171948088066973,-0.07437179007798388,-0.020462600673037023,0.054316568194562924,0.04284665486826862,-0.03600721598867787,-0.017351496410769406,-0.09025278725821252,0.04917898275714182,-0.08002624073205782,-0.05098905910743224,-0.050685772455159456,0.012592408950558378,-0.10508447142959194,-0.10866669820929922,-0.0961442747219457,-0.09571926290489786,-0.1613678489154245,-0.07505001786786303,0.011396245812388992,0.1166262492812691,0.0798383522218539,-0.08080320508596993,0.037036531258247775,-0.08750217677007212,-0.010288447278232356,-0.052429122556463356,0.01807116914179325,-0.041701887897637256,0.14274693219233445,0.031209864573347765,-0.011406115358553652,-0.14946122713222743,0.03605537238034782,0.034417917131617876,0.023616250489389253,-0.11196203557635029,-0.23149301558437785,-0.006909430475736435,-0.025925978541304538,0.06567160825924061,0.09000881261977417,-0.0029520447021447473,0.014887770358029675,-0.062450065940266544,-0.19532310536897365,-0.15691818908891508,0.08690420027775646,0.025663129763731012,-0.13608992439440326,-0.004253269776942738,-0.12374683167656096,0.00811836788704703,0.008731285104441617,0.17002295577302265,-0.037581298011876055,0.017855689804088196,0.02282278887870592,0.022208314856049412,0.03745970436875356,0.0481849293359089,0.06530199718082647,0.10859301049192696,0.0921572801810407,0.0704244908600862,0.01992033044473035,-0.17476471922219475,0.06501829535163618,-0.017988144386588203,0.060744508510779574,-0.2037315743318978,-0.013831804622411474,0.024424887926282973,-0.07833505210115194,0.008436659017796597,0.1320551343568219,0.17921253932182254,0.014885586739332195,0.015548542564707996,0.01167493836047473,0.007381693165612593,0.022040969059851902,0.02334217775211571,0.06578598536684903,0.051832440391223034,-0.010366667891641316,-0.020165733014606158,-0.03920914735538607,0.09202681185940222,0.09353905669403191,0.041365704946017365,-0.0624550767867281,0.04706314633209129,-0.03306923278722138,6.533248987026876e-05,-0.019935495918245935,-0.06752509975976466,0.03991240373587984,-0.023963328894705024,0.05140077604368136,-0.16413292429642237,0.18315753558342956,0.06752399003364566,-0.04340068035698965,0.11011912579731337,0.019265378995979132,0.07558663047660377,0.05607625426618843,-0.17516580509333637,0.0006649824151742013,0.004088821143181963,0.012247113568432971,-0.009552309469913752,-0.0651145945336602,0.09544605324986821,0.12215227997063105,-0.009735858320785457,0.019321514090231567,-0.08674595667334682,-0.0025282681131528536,-0.28263814030518114,-0.018987601598354394,0.06602109343325138,-0.04318290230859678,-0.07191789632450574,0.1645556929629018,-0.07469664793804032,0.13243480329323412,-0.05349854558236546,-0.15581534018506232,-0.03988532325945902,0.03653928767822942,-0.15893913814921257,-0.13099478890325722,-0.17965446757293754,-0.06530569827764549,0.01167242929054429,0.09429136351902355,-0.034414643571284056,-0.02191725607240259,-0.07080093891888097,-0.1487458874341381,0.11188190850149882,0.06303487039485865,-0.05709019527470502,0.02406919227082757,-0.03146119367706827,0.12013886745986913,0.07813000175347944,0.08357046952580942,-0.015248222336952416,0.051241744998657544,0.016240915367464227,-0.028417929102554845,-0.11967027006586411,-0.12760852367667117,0.06703062733870777,0.1014059283505849,-0.07722752493811293,0.02269610250751258,-0.005288967581387153,0.029456671867754056,0.02441789190942118,-0.06831186708425302,0.03013271515045596,0.023555880001394927,-0.29607807553852145,0.062402200187397644,0.12164069625313234,0.045970668093161575,-0.08712504296334674,0.18930288767122722,0.021912432228673714,-0.1256196686811969,-0.028369058593151395,0.003549015117998893,0.017837106289050515,0.07400692788414698,-0.07270960287710128,-0.012807387193176955,-0.027763465514433337,0.05828672849373125,0.16325258671674983,-0.08378704576518838,-0.05095206019243506,0.09247896203672325,-0.1263966279846727,0.3108652916152756,0.11772385294624903,-0.005184593539762023,0.0690684558122157,0.0506947470849927,-0.2740093101808788,-0.012176132418315893,-0.0024335377923641304,-0.19670514015981996,-0.06735157397223476,-0.1397413910386412,0.028835227293733667,-0.021818116431536017,-0.0005861830738287692,-0.09528563056931136,0.025286275521624033,-0.209598520469646,-0.1112707304173426,-0.0020920263573204253,0.01615020467113335,-0.1966324984653642,0.08445461699163109,-0.07100743768169149,-0.041824205344162285,0.0912075029336745,-0.07090262287827197,0.11450636968719524,-0.0005987372235543997,0.02956511402923272,0.24763346552189114,0.08306095187495426,-0.09469014709230032,0.08905594002129265,-0.07935140744954174,0.09662355203302046,0.011876919479602135,-0.04403592844563381,0.12143538481815438,-0.22736465782743048,-0.12735401172599195,0.055388086454362,0.014320091285409408,-0.06163095953098304,-0.0927411328716755,-0.05440012007608585,-0.028244016890339074,-0.09478139433526497,0.02329652401481377,0.1581279128940548,0.028096047272309604,-0.0005679432806910648,-0.10543741475115323,-0.16164231216915587,0.022219891265297352,0.13234022502213452,-0.022494996325123813,-0.053227683233159254,-0.04415803815114973,-0.22581977608886886,0.007637232100330753,0.04980402098034405,0.018258418847688824,-0.018611618619012275,0.02304048768369009,-0.02181702362487854,-0.016412953916204013,0.005461966662640147,-0.14231222793492887,-0.03229206042422865,-0.06872853034240628,-0.13596472789466404,0.04214966364041788,-0.008992565776873577,0.07404019510934333,0.2150035070239126,0.05369153097042353,-0.06375287560089436,-0.07256561034156848,-0.016367109396777928,0.039775258951752025,-0.09776815110431719,-0.13703044051426544,0.10282292900318749,0.02542317368559435,-0.04289224844265885,0.033038059857340554,-0.02579093018069866,0.13254558711304312,0.017456368591422747,-0.07163964617087658,0.006996781626079196,-0.00133358654447066,-0.12010160162474,-0.16503452927877063,0.009576284586157975,-0.02416244670940175,-0.09481731865043323,-0.11581933806612786,0.12728339827457816,0.036890728945763424,0.036648690775474224,0.007085785612220871,0.11373605544692542,0.1063882106817553,0.004808231061811086,-0.020292878915866418,0.13661773523210324,0.11706948094750756,0.10738776886677977,-0.1223864474517757,-0.02780647720389839,-0.0535812860130109,0.05160068107668668,-0.09547209006249024,-0.0014910705950088754,-0.016732160751032822,-0.0017605357540754556,0.09828522614570175,0.041361852804330405,0.015071590355773995,0.06752866000983855,0.14778994403059867,-0.03848730477519743,0.09138988501351171,0.07405341528735895,0.025882886009414442,0.09720728344828528,-0.029837092639009792,0.008163336727813034,-0.05084596736953329,-0.017078757115420035,-0.18243012521949994,0.05428983604795922,-0.01859011240577375,0.05744770287749642,0.09917975776488293,0.06167531172604966,0.11792116758592791,-0.05148890069350712,0.02894964645279184,0.0542476662472457,0.19311628164037473,-0.05574686119964517,0.1319007203099417,0.11915659697005657,-0.052434724451901865,0.01303958973294565,0.006980194270810891,-0.07181735229988825,0.036724082075289724,0.08867660528521816,0.1115114796155122,0.08990804216789453,0.024760836869574622,-0.03943608540385271,0.12420482329429648,0.03992800341522004,-0.020384946299381285,-0.018844880727787797,0.04259205869050487,-0.0820281024761317,-0.05571665930702763,-0.05409655148439532,-0.053816788993619455,-0.15455069221085893,-0.13308143723665605,-0.11406410645418283,0.05151388047092104,-0.08550436791651811,0.11682746222252917,-0.006990355251373973,0.06465333949849833,0.1173160256536698,-0.010894009979111146,-0.09796233295910123,-0.10436252151922427,0.010711174608159341,-0.08612778435227596,-0.017182803783975183,-0.08200102932510303,0.10624636134959964,-0.048247524750311764,0.0005190783902846624,-0.037605301024521115,0.1504299680255905,-0.042297650666933514,0.008528335471811165,-0.10179366371259055,0.10575349525792353,0.027693064022403725,-0.002669145810810695,0.13926843433960626,-0.05860174710226955,0.011997953891334491,0.11634691642310048,0.0217083701062629,0.04017207858668554,0.04916414915850684,0.009110430179654039,0.18126717986466614,-0.021742241713935285,-0.05344275065614971,0.046977168119687544,-0.10795542211879913,-0.0750173093626285,0.06865755325628671,0.06127964449697161,0.18838761841935273,-0.12848917603487667,0.024192057990468797,0.049953540326261,0.050060024772404135,-0.06541925797171681,-0.02665523884925514,0.09446020315773983,-0.007753680192105618,-0.03330523426553368,0.07189650773036857,0.0026595995749158943,-0.024252744698738896,-0.0028279516782794443,0.006254828970635174,0.02020144742554591,-0.09097024294125966,-0.23771288035939475,-0.07718220978527408,0.09766197334206463,-0.06894706111200961,0.012385794869770452,0.11632708791510049,0.11843553689974777,-0.08508217884128033,-0.02252355018399382,0.012819855012233781,0.20071191229203042,0.07994588556927608,0.09071703648882108,-0.08044875849609688,-0.06396514485496946,0.02887643438294401,-0.02713262537049678,-0.028755327502327597,0.07652185737051895,0.0066247735451930995,-0.2145263314137231,-0.0511094916595823,-0.02763825773509831,-0.10577709038081394,-0.062058260674302784,0.032017204031493766,-0.026629826400696787,-0.10835457383621687,0.037447521350760474,-0.03157956410442815,-0.09036626121468033,0.08041881319722106,0.05633231212755838,-0.07942923954312732,0.020945475553658964,-0.035715673240674504,-0.04467279710780184,-0.01297563134804453,-0.046351470975562574,0.07686633976603753,0.14978061941045592,-0.19611228649594792,0.03529988724099329,-0.017683815437417195,0.03092520904747707,0.0979754873748267,0.08852022170227394,0.09049245650334042,0.055432867242403365,0.005728078998285654,0.033665669361468746,0.17508292096090752,-0.10394077858409494,-0.14099887809778897,0.03380452222562533,0.08791447050887759,-0.08632213061695948,0.09066598228383699,-0.037626807902706304,0.04017252323553524,-0.10645663855623079,0.005843250385598134,0.18905779542148432,0.026321830173594532,0.1686602965540931,0.07216809716062186,0.0284105085804487,-0.14436195033299093,-0.0772900370102144,0.07165787574121898,-0.14391384819120379,0.14920905806900675,-0.006138450752143174,-0.11242875970837814,0.11962553484980733,0.007435114595465745,-0.09816624231577516,-0.16259332466613383,-0.0831544578514097,-0.05648615450534805,-0.01562988753184616,0.026190424574647268,-0.07523950036369194,0.06306170084417968,-0.008375059726141592,-0.06694801453504441,-0.055818395793263205,-0.07215752903116145,-0.01635642527277061,0.05806720608702446,-0.01235800958330252,-0.08716835750365347,-0.22357990910927278,0.15517869910818927,0.10031954073421184,-0.07002169924045057,0.15426222209256024,0.049267652492695393,-0.04782896024304055,-0.13525789825724532,-0.05713247752167772,-0.055981925766180794,-0.03626039851681845,0.12299242986233891,0.0020712561330592785,0.03545817708596549,-0.023338232034951077,-0.08565734851936507,0.19386318129193603,0.011676797396995923,0.10613235083744531,-0.0028868114298958446,-0.1237978572748869,0.02189173084111976,0.09718468485897115,-0.016695328987482338,-0.08942976992071078,-0.02668280971727982,0.17131538466517593,-0.11185793715877784,0.08862206765317246,0.06888533276824008,0.17008078496328471,0.17571355254085788,-0.11986504957840613,0.02966135486386104,-0.1870774436983684,-0.04280919229577631,0.2789795743028386,0.23994713145318808,-0.1488084938251536,-0.09970869102558448,-0.10119654476513591,-0.004322186364010893,0.07117806712689066,-0.008238343621160089,-0.11799853432299011,0.02497569930388339,0.034901163555445605,-0.056098625989533996,0.03528909219612078,0.011012093590404828,-0.020433758508110078,0.04275789850431538,-0.002014764287521496,0.019570843738438714,-0.07387639912362312,0.07361158114217427,-0.0821820579001583,0.08089500559148959,0.033589165639238396,-0.08739420961835655,-0.04875819532812655,0.038349728417966994,0.09049108722470219,0.023522641773782615,0.12809960345055915,-0.08462126884209749,-0.00034171271450811715,0.17218971761026167,-0.01060254693046469,-0.10757205361351352,-0.12742421904212992,-0.06808428219967536,-0.11063521399228521,-0.0068742967253708,-0.12887345208537848,-0.13401195889854012,0.006376847162256692,-0.00013799283997916766,-0.07064293354775991,-0.009332313979550762,0.035340559203330464,0.11296936464724246,0.14400153346320696,-0.11112181229201908,-0.18655473045769377,-0.17888321026438356,0.04890390290515629,0.03211510707519931,0.019546519099839867,0.005507281872930507,0.00014199205057615635,-0.08934485061232723,-0.03802751764679476,0.0491055236222102,0.032027100102210555,-0.04581550097833033,-0.0774870169572892,0.18939434092162744,-0.0035780880120318166,0.011471898122235407,0.03969158748298752,0.006423539907546116,-0.11937754845078424,-0.023615549985346925,-0.10654058176576299,0.06933646718226413,-0.056591903420768454,0.03821109450306035,0.21595095709804593,-0.04822864802254978,0.06601597885352542,-0.13052851217742942,0.0019232660984103123,0.10702589193544122,0.02812996082867297,-0.08642682893552177,0.05468642084701776,-0.030581126271614953,0.02283147540791903,0.11636962860837809,-0.09173543676419818,-0.0885987881118163,-0.07378501825326554,-0.035795006083382964,-0.10133727066753223,-0.15358051209314116,-0.18534172713494237,0.20976016009426907,-0.1909011982687371,0.06734694434815458,0.057954177800129285,-0.03529034087700446,-0.043897721406464245,-0.09931903779543005,0.13928150841735246,-0.0483424194843422,-0.022791659066593688,-0.07103691386719083,0.12204211200029465,0.14903893069318927,-0.08163525751333937,-0.056533428720614155,-0.04974405753075011,-0.1842225747353334,-0.11266415830172441,0.0682132517997819,0.025314650617381668,-0.004010731301178582,0.03827058607667716,0.09592635513067835,-0.01837043812984574,-0.02785294139500732,-0.13460240400316975,-0.05287015045227259,-0.1593587153239299,0.10935754633250347,0.12417042099109052,-0.045527402921999166,0.144647738503848,0.08891522481242778,0.005664038042313196,-0.1070355960082619,0.12933634306412872,0.03267366886006107,-0.040928294411947924,0.07962568968577348,-0.0360853099480468,-0.04477128121748336,0.08789382222952755,0.020728991820916042,-0.022916102448016295,0.04066045026746615,-0.022630598600509116,0.13084759704455132,0.0927448774594619,-0.06735114380600325,0.08779288437012549,-0.1409271430072546,-0.027593440405724503,0.07254678354280615,0.06302197834561524,-0.01282686192660513,0.029036029735022534,-0.05698704399572537,-0.04992055521202231,0.0502347746808459,-0.00600249112547859,0.011917023039495185,0.09620513389672652,0.010687430566093347,0.07906735061157281,0.01665121575581825,0.07830019512527667,-0.04981304211438188,0.044984561221677176,0.0036599818805825857,0.03378591464296213,0.043604774179204726,0.1136382804221919,0.04357085544249708,0.007175762791817949,-0.00565860011738675,0.03868134152685934,-0.0032334643861818935,-0.04145253207366245,-0.1677376949377782,-0.07729849374357908,-0.113702924311492,-0.07248236727266762,-0.13886622612454474,-0.056924692321762387,0.04298062244176754,-0.008264666937993928,-0.0020654613794571773,0.0048984873256675094,0.10557756953607637,0.17803251021166144,0.0780194424993706,-0.20850434924281536,-0.06778450275606425,-0.05064396635505073,-0.05545116202723706,0.028582587799157406,-0.07515990786593835,0.05366348838891061,0.1481179636129971,0.11882845312870599,0.02981788382968974,0.08599302346731551,-0.12119596471394307,-0.026709320846189728,-0.005961672579794026,0.002115196240582121,0.01749668358905315,0.24024993442473852,0.07635648447296875,-0.00460000256777969,-0.06460006658818714,-9.496049488235516e-05,-0.013364867654145995,0.15265139359560867,0.04418489219689759,-0.10232173549382537,0.122736307409848,-0.08428385412560072,0.011192277581699129,0.027275050594712948,-0.1629110253461801,-0.016902983114661395,-0.009199436432542632,0.01917690316049248,-0.08718450277498165,0.17685315771925697,-0.12166259160877817,0.04845760688852334,0.14029037212991957,0.03328052595807015,0.06805975651149394,0.06922431343879819,-0.05891965081821376,0.018892178574678703,-0.14950042111304596,-0.06314155549136687,0.07450484441029853,0.008676277651378368,0.035889160932147196,-0.03510006843897611,0.051178383906841575,0.00416103554481683,-0.09964215638390936,-0.24093222243710347,0.1092786419011402,-0.041526801214212955,-0.03141847936799295,0.08656258933462055,0.2311675063708128,0.03786986249838294,0.02712539152950608,0.032436468664990996,-0.07833300141960876,0.1890285154782959,-0.09150360765866648,-0.10500778377425181,0.04091949752998754,-0.15310759758299772,-0.06324920448753066,-0.09704692398932843,0.009430515751701625,0.04308491050516686,-0.03794920834542577,-0.11287752605212212,0.05739521543977969,-0.02505022500084672,0.07454286499349269,0.07524948567794221,0.06076896341329919,0.041839577319331446,-0.01043860029157697,-0.07502178835247614,-0.10292732232681166,-0.028485426483476153,-0.12391423528139556,-0.05618909301537503,-0.03106715341256702,-0.13289140850911574,0.09320584678341004,0.14633180414241503,1.686899131303575e-05,0.10547762808740616,0.04158281991672382,-0.19834287630003916,0.1366171129238248,-0.1662704351625722,0.0671356174965796,-0.13203918627174727,0.022785767157640753,-0.2341666506888902,-0.12915182581016646,-0.005131682375034578,-0.012815657796599544,-0.004149234747289975,0.02038995985312939,-0.025618892804304096,-0.11362672458626225,-0.005352054181036902,0.02962160242013326,0.2994906295011732,-0.030673750935621098,-0.05133808042669856,0.01889084640559546,0.03896689347327625,0.04521278904278888,0.023076115188945596,-0.13484189564366367,-0.010373903191439986,0.03739281063343816,-0.08124894776907433,0.07954943900007662,0.04575643720548,0.14450734177769006,-0.07528081857027961,0.01403207216210257,-0.034344844807314256,-0.1309907125753226,0.13536644361890648,-0.01607392758311408,0.031240729162589496,0.07814595102174439,0.1625568551522221,-0.04679661138652347,-0.1609152530341132,0.2168806720323637,0.05202348134903107,0.017945436264395258,0.12317019982051515,-0.0015934874758470876,-0.0351037256787488,0.009365724742047376,0.029975079497902405,-0.07671732897075012,-0.036074806260768366,0.05296174707450802,0.01397573646837779,0.05048359512872368,-0.017008381596730276,-0.02076911109111969,0.034321333936247346,-0.027455396191461902,0.2270309195757175,0.004629924209148483,0.11898392195886771,0.02084887128686711,-0.10394907835033615,-0.00911339683710975,-0.04259011673761297,0.0812791720788227,0.19777275346453857,-0.09053614600395817,-0.023317962808085586,-0.033065078813669956,-0.0213180712932488,-0.09994170266109222,-0.0036604495394232783,-0.1303291627509239,-0.05248194786190097,-0.00034521401514293936,0.007934414855412375,-0.11269619223770305,-0.045133426894335804,-0.017686789514583946,-0.14780093247415962,-0.014422371721608115,0.08889824864962992,-0.04590968327591389,-0.024838033847363713,0.10136032247920772,-0.12353065152121258,0.11558438705809514,0.21400977492627093,-0.03845786959701846,-0.08728731967006188,-0.09380956515251034,0.03734407903495761,-0.010251803201739405,0.11861423194391758,0.016730684187264415,-0.06659672283034278,-0.07116877456467638,0.1587297718374082,-0.097071594100217,-0.007033967518027433,-0.006214614297669518,-0.07762483533299774,0.07511356660513073,0.04457332085716858,0.09338101780342929,0.03744794137458592,-0.03430599402142467,-0.05518683536654247,0.13553404848639505,-0.10202141301964765,0.050633414470827205,-0.05590110999772047,-0.03532324986537843,0.08074458999931396,-0.2804048489281073,0.07922184256347907,-0.15950043023518404,-0.04186868982390564,0.01797233238544667,0.02823509181530508,0.17425317758704703,0.03193265784970471,-0.03163371790338738,0.0856988142738513,0.01830494957093804,-0.04815556783505768,0.19061993597754265,-0.10229925144416055,-0.2368861113821241,-0.03663367693386471,0.12263915672079126,-0.08527148232113714,0.1723241930048025,0.09100864468954577,0.11257039549344114,0.03175456172136396,-0.08577196919022116,-0.07417074546548827,-0.12052669110544673,-0.11081007076977992,0.042043798035061086,-0.013697746517206778,0.013827818168590142,-0.0889117397514066,0.07911483466177259,-0.02172700836330122,0.023815803655244137,0.1129807007782445,0.12054524489616068,-0.12146039035549336,0.09091206549340664,-0.00457344530911997,0.1684296742377732,0.08800098192319047,-0.15535553716912254,-0.0191973582584565,0.14332438173892975,0.1345958225983246,-0.07348279472375589,0.10502852046933048,0.03754217554422353,0.0970072397221663,-0.058122880779763145,0.09379564691294517,0.024013852076016595,0.13344745214179957,0.06070025805559003,-0.07605810115533101,-0.14874036841932595,-0.12754388322805005,-0.09840196253280928,-0.05604611555493717,-0.06802924276036709,-0.01351488943671813,-0.03935405712164646,0.1149593265829809,-0.16199860577271177,0.0030395547085719584,0.0616822602370152,-0.0017387866921360206,0.039813230569818704,0.13379935143396512,0.06651748847237787,0.02161952319895646,-0.15080654479046265,0.15945340248493897,-0.031461169614505735,0.0077881649914626865,-0.023644250518856245,0.08682794885070808,-0.08601351004941037,-0.03828358337133114,0.05936635163608333,0.07472338221556783,-0.1376471461657337,0.03779494931334295,-0.2358606301907694,-0.15115358959426944,0.10376159748614738,-0.05264257817295244,0.01782567517865084,0.17555656154441085,0.011804284180840223,0.2121102270953464,-0.018639035633456764,-0.07642023838996191,-0.10113285981515661,-0.026158108590409075,-0.04910885292563782,0.044473000407023504,0.08407084746796982,0.061996777616692055,-0.07850068503191843,0.17169721596137227,0.1369339136841231,-0.1482383208867888,-0.05982935580222347,-0.012407989831868797,-0.006213089715395786,0.014922916914157588,-0.008397076038294473,-0.03364631816433272,0.09266713957204227,0.05137251228397044,-0.23397967922734828,-0.02800755984859657,0.0025656598510270137,-0.16535190642893843,0.0292602759652725,-0.0410753585694909,-0.0533513176427157,0.15368376886872454,-0.011351777663893618,-0.012338172379215076,0.13393955772765628,0.09856359696602247,-0.11960128667318018,0.002954477173549408,0.0345304919061401,0.1439601355862332,0.02039898100195373,0.10065066180823634,-0.10136800676776617,-0.08618010491159168,0.049587701383426615,0.03970266520371519,-0.03187454014383138,-0.052144477390995016,0.00978307344666524,0.06091201669034125,-0.030235164956105745,-0.0943425757638726,0.0004967896376802362,-0.1616419974760595,-0.08949113136591057,-0.01069185590670585,-0.1096565776817332,-0.008070589967413737,-0.14815689876105437,-0.07191915498638221,0.12186093925585069,-0.0962354368787715,-0.12790281756614896,0.011499717336264646,-0.006983759058248054,0.07296739510607386,-0.1950341881877324,-0.0036988238442099775,-0.014218160675745585,0.04966729193765846,0.03710763281834569,-0.01559138308492676,-0.08218592415426179,0.07796023603577201,-0.0604972664789513,-0.05604834729827144,-0.13732415201358486,-0.0006403845840264056,-0.09750312304937503,-0.11622774164426335,-0.13407579870468783,-0.09715378571879198,0.008107184755072763,0.009380683676323663,-0.017294223495426767,-0.13405056563874684,0.17048487524072387,-0.06497185734868917,-0.059992016127463736,0.038654142109285285,-0.05320528513434051,-0.058936345375782906,0.0770911014275703,-0.16954105293757835,-0.14080998608732492,0.004057284149458878,0.19450419448545925,-0.009123195132927486,0.042353777365823374,-0.018849710247858767,0.00202127922496804,0.06228941723407861,-0.027351583866387027,0.020428499466655228,0.010168245831132695,0.011744436400150595,-0.0834918219833467,-0.03782044645390955,-0.17082214398044251,0.03593657069230104,0.1313778378580386,0.013773403960965692,-0.14755776716344268,-0.07721764610345278,0.0007196569690864996,0.018164223193619107,-0.08175752342678162,-0.08455947953392,0.0026796152430853468,-0.21083239118978106,-0.07505326988229968,0.03635000310867963,0.08916981245301459,-0.034487360319343824,0.10094195352618957,-0.057147843596957765,-0.046304897677360964,0.03445780509644582,-0.03163364701680514,0.07717314183156287,0.012963748317258139,0.07881121319026839,-0.040430063466472585,-0.0863360949528511,-0.011343446997648481,0.056852941451153736,0.049679666238047746,-0.028305161454303594,-0.08288951105356542,-0.04561974508743888,0.07511654403499005,0.040300132863274885,-0.06372337148965915,-0.09012656775474948,0.0028145716169080547,0.020770779661128835,0.002368015979836031,0.13325734034187614,0.0015647904711611918,-0.1101953858948828,0.08506895733212629,0.06834365770489928,0.01348626437879913,-0.008893611008131823,0.0808163215753598,0.02963652908966901,-0.06519222848061582,0.024408239690427682,-0.0683014785999377,-0.08179022090084098,0.02025919351897343,-0.04837892320982783,0.015769519294737574,-0.08841424990345874,-0.029718723519356238,-0.06593147064235409,-0.052503520484770666,0.07196933574716356,-0.15677902443599442,-0.20464915475232257,0.1425524469159897,-0.018304652286396206,-0.156798417474307,-0.051747143777003665,-0.07083225346565493,-0.035532732964197095,0.03593396233711592,-0.14495123613931016,0.07159192463758124,0.07646630328968292,0.031781246350088846,-0.08901671911326255,0.004492092687090012,0.03567196597918757,-0.015117578745846858,0.2561490069565431,-0.07204368148990943,0.0006400751651676126,0.008693160430048074,-0.03558285986087355,-0.030763298207316426,-0.16996231154632802,-0.05997009562817246,0.06655898748980033,0.03888790619762108,-0.02459314286365019,0.08642792769072198,-0.13310929697075694,-0.09075157705503477,-0.02946660529996109,-0.15808227128749033,-0.04080808757924923,-0.05684853681848448,0.17584877490376852,-0.06210159906412652,0.036936398671563904,0.02894886255763336,-0.16330795102437484,0.02605690159924456,0.15211171533785817,0.03530504362220126,0.01820038936651432,0.03411521234838043,0.1019895616552147,-0.01975125087373699,0.043571035560529325,0.03970150452206174,-0.03970141521566927,0.08316349738636886,-0.049928262676157055,0.02947986446608011,-0.06192989490709278,-0.03755333213649346,-0.07620559625267447,-0.09262186586494207,0.01499157201533982,0.04032922882414078,-0.03144862155370609,-0.026262259535419982,-0.1850147758856134,0.11565426616779244,0.13987270471409533,-0.14918809847455616,0.10294230381241523,0.003167688096609389,0.04331817981605532,-0.15207543984778515,-0.11775747433804946,0.1463496747874307,-0.007997568968081856,-0.052258777255787967,-0.03999449679897667,0.17294339148071908,0.09986244703312507,0.07122480682296226,-0.024100177449633886,-0.12031637793071695,0.022020514110944935,-0.14135288828222936,0.019376518316616288,-0.00045876722389754477,-0.23419144699556574,-0.0075407434593682855,-0.044393031120933825,-0.036183450085382034,-0.15345095809352377,0.09108374595298606,0.12112480457557062,0.14920100623115035,-0.04267424581367409,0.09097493790157131,-0.10974609330813377,0.08716390408678845,0.05056049040584783,0.03276563557693016,-0.11064732239243615,-0.017880249285696464,0.045283228520260024,0.10838005468471552,0.06579729141835992,0.0015546220481088828,-0.15290938911205695,0.03932566011713797,-0.00910185160151236,0.03060975162970739,-0.08697755022043427,0.1145650306618404,0.11579768022213306,-0.07273052476489503,0.16754899091570538,-0.08728905200565637,-0.06415552647745401,-0.09504250709080649,0.011889294897767251,0.024667633444201302,-0.021738248975040467,0.011678062820127517,-0.09843008371349925,-0.14437482004754193,0.1135824995270787,-0.06008419812922613,0.03376490386150005,-0.05987509754684299,0.08416318864424417,0.03833427471864929,-0.06440696293609244,0.04162562876881391,0.0946760607833081,-0.0077356219894871205,-0.0437507017838003,0.0038409230191109502,0.017566034243823653,0.07601130395522845,-0.022155568033044165,0.1267784033735593,-0.08925249602964297,-0.07395253863025829,0.07570084700735184,0.16096352743513212,-0.03678392537554835,0.009659794433705984,0.09780480065088941,-0.013054874455380287,-0.0010383443328619841,0.08425753466933675,-0.13862849061916918,-0.016563887140661423,-0.011515104013265288,0.1167198537884478,-0.08026022134668152,-0.09171250164462622,0.12145480553077988,0.00435452483347329,-0.033821179359894454,-0.07499050165458807,-0.06191228537153055,0.03511625265408274,0.10738729435500788,0.068258358776747,-0.039044618379823016,-0.04004029014745045,0.12679227417952102,-0.09537028396711415,0.04951657679540079,-0.07514277973656035,-0.015236015646305539,0.11862388356810794,-0.03163877269896028,-0.0471932910264455,-0.05492847187451356,-0.021454029807698616,-0.14919888872742132,0.17068373034889053,-0.0023288423476137904,-0.13426475376009206,-0.0899359042171566,-0.08119601632107902,0.022623900430494254,0.009211494414004992,0.017637670419170387,0.03128569929242239,0.038068700192166585,0.12407198554469515,-0.051825690002383566,-0.03048664010412033,-0.10002748135829613,-0.04584756048668131,-0.07169119831292431,-0.1640508464942051,-0.03903524519243678,-0.17860304368718935,0.10384058050953475,0.0493897345880726,0.15395364635403677,-0.015542630019564073,-0.05601285296634322,0.03551596412451391,-0.031222592736160938,0.060077942179787285,0.03210517211746003,0.0849463214188757,0.07699140931427374,0.07871412209840492,0.02421051741055242,-0.015323629905414048,-0.103141980421265,-0.1692966136916467,-0.03981327942104548,-0.17631937566186182,-0.007093688419835908,0.05404940162567066,0.030743366733972727,-0.024262816228704374,-0.05808571226952224,0.0928561223431646,-0.1682483099689704,0.12980798420880593,0.14211416121464263,0.10534192283662838,0.06366220116448933,-0.03852220767444895,-0.044025395011398835,-0.08179135869021964,-0.1632683475509607,0.013371951342640482,-0.06429369361367898,-0.04617428604477669,-0.04798009716485698,-0.005822848453341976,-0.05030176645754394,-0.02930193815705265,-0.05869500300644366,0.07243201056030814,-0.10127910873140515,-0.12212252337794452,0.031038962422098252,0.06370581736911266,-0.0012609179378007841,0.04432878682278412,-0.0266251810139922,-0.07223136504669764,-0.03476063687746939,-0.05074944702578492,-0.21000867610493237,0.17765970152734858,-0.1973919210205664,0.10078429182383486,-0.005931729513590148,0.14197001001707102,0.005968515166333644,0.16974234085586695,-0.08996127867145441,-0.19348125817171755,0.09455428780259802,0.11712340689194684,-0.03782874074390201,-0.05739436811027418,0.09643345576880293,-0.02079329247300112,0.12503707753258006,0.18804388229331445,0.03484910762404639,-0.07538078026703715,-0.0646552577981345,0.22328203008572214,0.06646533827460388,0.033730826097377105,0.09515249019445741,0.13835460714833722,0.16955865379353094,0.10791045978251292,0.0909390863395078,0.07903877438623771,0.046784582790998425,0.035180628855771515,-0.043803784460222296,-0.027227917220335168,-0.06572900466783536,0.011585536873777705,0.05204412550584775,-0.07615282203206579,-0.009605360267602918,-0.048803408202829274,-0.009105622276541134,0.13073031588544204,0.1094756293019474,0.14324732799945275,0.06431271113541372,-0.048277201080073134,0.017030635308634592,0.03742339848622031,-0.07770354767887373,0.13194497296269503,-0.0007790997240584911,0.03511783100435216,0.023030832745171263,0.1351119434312705,-0.13921448318958124,0.19326016738605192,-0.1133582197954855,0.1009098428441529,-0.018692073650594256,-0.062400993368906206,0.014811122980908382,0.0982098780662397,0.20852599279595263,-0.18968634795146652,-0.0904575435108681,0.07930718246798442,0.02103547819956012,-0.07183188343725577,0.008972189953425457,-0.19673782579232965,0.11738562755121593,0.12077851119701116,0.040087454866219265,-0.20875708385221423,-0.13191046637803858,0.01670109677697637,0.007414957663876675,0.0855736229334279,0.14018973672658283,-0.02938250426081391,-0.08620597893048557,-0.07098793455623242,0.058536800087136784,-0.03436803172739044,0.08341337237791746,-0.0069683943023691325,0.06595899414419802,0.046073570391429466,-0.05841312886322108,-0.027349595239575253,0.016171824627265335,-0.044040915059186114,0.09427227677635944,0.13642937731592708,0.17033329364941668,0.03362479317318332,0.21099580481696437,-0.17981503252301645,0.013390003394730197,0.047649912893835,0.15582650216706395,0.06719488775285247,-0.023281153879394265,0.0037116283292371365,-0.065596674457594,-0.12521496700543155,-0.0601999982921758,-0.008200143448413997,-0.07385060062061556,-0.0007124436321404864,0.12688230895050726,0.11048811422256333,-0.03904087352544679,0.0752882186016707,-0.12244222170381021,0.13381317617897104,-0.11865614693845469,0.07007026814893035,0.003063904006120689,0.020355502164285805,0.16139114037886212,-0.09076650582921833,-0.09454752036339581,-0.13823133338212695,-0.05748492230987405,-0.11846729502961534,0.206723744069462,-0.14315571642923508,0.10598003765625888,0.03169608984320712,0.04624394958903923,-0.06620168686629564,0.12448638242538947,0.07169097305204127,-0.10230041036028147,0.10202424391146679,-0.11671693706666895,0.014162132261748716,-0.10058782616173126,0.04880857675590547,0.026083716343695773,-0.20711451637837985,-0.09943900355070026,-0.09807133894476591,0.08437453614808713,0.039045107890651694,0.049906997663156254,-0.04177519528795847,0.04339949733398261,-0.11798766556136048,-0.1168528390948839,0.014597971543189392,-0.0239774833687041,0.07605760535196787,0.04793085089607613,-0.0358095346806856,-0.00636903584387812,-0.05802481377244987,0.06024974173928232,-0.09938470327902457,-0.036515679329668385,0.0059507088033051705,-0.013273351151605021,-0.015797251188716246,-0.06115080900808653,-0.00177419097180142,-0.018923192244015282,-0.1293537905871831,0.15517251280818445,-0.07427199201685525,-0.12218502545656088,0.1584091584486948,-0.03970755160488984,0.2021359859303954,0.0372546337032277,0.12221237035773741,0.04527759426148118,-0.12786016484887597,0.11153910022218368,-0.046036753527643,0.0203711213495272,-0.11893341862944279,0.019176287298134146,-0.13565575788292308,0.021452540820333346,0.044445333462664216,-0.19780809762420762,0.06659299126055294,-0.05990212152080986,-0.01774183063663496,-0.11262984336035269,0.028770645783762535,-0.059830885191084204,0.17261729508895796,-0.15880700175896195,-0.022974917468428672,-0.13554771162093168,-0.07556929758247989,0.06953123152929745,0.011151165237131867,0.07615501758182629,0.050939296818982564,-0.02966227284925177,0.08555072205491004,-0.05651344862282392,0.024509722897254185,0.12595131262035167,-0.2047696338514087,-0.10424051179592737,0.06379557633441092,-0.1168740536383523,-0.0684250947395426,-0.08070895659058136,-0.07246479580052739,0.05260291062569114,0.13278567506938974,-0.002578687823979849,-0.12416508969235648,0.07297910724357709,-0.17299957234338956,0.016871532573010547,0.15757575364734497,-0.05973199073724545,-0.0073337525751403666,0.028855574870739267,0.04772472502337517,0.009897819809326058,-0.07327054753847921,0.055533255943243334,-0.04496868383009007,-0.211345486337117,-0.04982140895467817,-0.05820264931432496,-0.1067278744620653,0.04685805003376953,-0.008917864133958122,0.030995868982662718,-0.1578501191721865,-0.09697717211946366,-0.1661097669981346,-0.04536797353558305,-0.12936382777203376,0.05885849299078489,0.03816689416138693,-0.021048115485423766,0.13430746866603033,0.07449114105214452,-0.014044925107224117,-0.04329266893968555,0.017121536491966623,-0.14257845976788547,0.15570442958426467,-0.05646575971720214,-0.016921610371415867,-8.804835779500393e-05,0.023784103800910467,-0.1995354218273668,-0.037855173662932604,-0.1712880660814052,-0.0880810496867821,0.013603710297227432,0.058361345383300664,0.04935306994606803,0.06482977610703736,0.09423949314089775,0.010344027417588317,-0.04110360375278403,-0.04676300664403153,-0.1298576183339799,0.06285232458976135,0.017471065788450313,0.025498103567458123,-0.021201729873067468,0.0994082859147659,-0.09217112576551209,0.11045083673078511,-0.03943386024288058,-0.027023785312518273,-0.08365379642027701,-0.06842795366456929,0.012485121394945708,0.041851287295186855,-0.11311775478444375,-0.013118832742487884,-0.01140739176382231,-0.03922613653545778,0.12692656573274577,0.03164563037653655,-0.035864093707715636,-0.04715980623971993,-0.04186744248934885,-0.013413510359967979,0.17466892657984032,-0.05660001369437143,0.04615669624195587,0.034096058984096504,-0.17687436261518824,0.10416686865895432,-0.06818797909504888,-0.025653077466932683,0.03508422187185564,0.0016201984793966914,-0.0243371440706905,0.054955470804520165,-0.0646519713957045,0.059726949109870996,-0.06937443903836622,-0.17714790232772692,-0.06138746830904446,0.0146053556043051,-0.053507010728720335,-0.11179594053434125,-0.04899424554844224,-0.18075007007293856,0.050065395102147456,0.044742788409996515,-0.040307759510205654,0.09996493025099971,0.030059216241772657,-0.03723244678086759,-0.032257960657271254,0.07220387857629516,-0.019654310870243635,0.07641399992831782,0.07178588150966113,0.1527259438184789,0.08442906107884848,-0.060934551481627734,0.03586779809524657,-0.09789759531996726,-0.06875094786016792,-0.13246212818328468,-0.04818329179203923,0.13660460776963698,-0.14991448339163493,-0.05322252927944703,-0.10247972956277128,0.15809943866486478,-0.016275116798306392,-0.025510063204288457,-0.05658722941158534,0.03145097285621561,-0.08710476409317339,0.07252324434905236,0.04482624894825451,0.002023920416199516,-0.0798695653743857,-0.13675008021421253,0.0027736403509455152,0.04510228734676001,0.04047562824100261,0.032534784851784494,0.00407928860589311,0.028832010756133373,0.030169048105743966,0.03502602351401708,0.255263424255998,0.06287184770911265,0.20696253713369894,-0.14982710015263706,-0.09236540773488813,0.05520440291331923,-0.06294727382140222,0.11915387921448192,0.09094039276992681,-0.1545213547540114,-0.0757522928958776,0.09363824651933245,0.07177078637125514,-0.08916192412920838,0.14899942983673137,-0.17259540275936042,-0.04134321875097236,0.06444565869357573,0.008094696697909246,-0.11489169503264773,-0.13669701940668383,0.04330151535565384,-0.16404193289622646,0.05753642893214026,-0.0319752747767844,-0.06941797887882332,-0.046596038097126105,0.030828471672717996,0.062198193629015124,-0.029840680713045575,0.11436552627784674,-0.12524962165824435,0.06051137827464782,0.038923914906531895,-0.12668344501142928,-0.09399309052986131,-0.11511910612658258,0.01907125741175799,0.10134948149794755,-0.01354080472512251,0.15021776342675913,0.06365745884496431,-0.007851030243663227,0.08652030033256426,-0.30839183330516046,-0.07096565161615408,-0.12315377140084575,0.01823699295961178,-0.03641714807797679,0.05246038075249163,-0.11243075532311884,-0.020247227923954784,-0.07563071527029883,0.057850034436771385,0.05087462156345097,0.10044011215570392,-0.0913552119486497,0.08118159111625438,0.1507506629776198,-0.01707797904258323,-0.03474310013625286,0.06011237889642506,-0.056295958940258455,-0.09747852263135912,0.09228907441961014,-0.07002031542647287,0.25003504056619635,-0.015980052258945488,0.22617449798517708,0.04185712534055418,-0.0926325236996934,-0.004270851603438727,-0.08632396165556618,0.14478374731865618,0.07167067625288538,-0.047491200436740814,0.04726505206244933,0.003950967570721344,0.06541955850783306,0.07703017649987308,-0.009646443904677697,0.005708401015200995,0.001596256929824088,0.010759171410932526,0.091181931732666,-0.04085929437754344,0.14892785331885294,0.019346729607767853,0.1311656404969907,0.013450931170134676,0.026950833894193008,0.14416757062820154,0.13220932163883245,0.02004743866922504,-0.06641575120399917,0.04328938867753432,-0.1788205143467875,-0.01135780609411564,0.038081694364827626,0.09301429071259984,-0.01296738115020327,-0.15796268182062811,-0.003042981213466435,0.025400945757425436,-0.157699840079005,0.075409964891441,0.05294495479082301,-0.12350074022613587,-0.043155961892957756,0.06769155890933899,-0.03747888211182314,0.009062582636105921,-0.036049050574098365,0.10110385193936838,0.2754748334365056,0.056991667075319614,-0.08496274859512604,0.0817557617166032,0.04719915556548403,-0.032458950321913684,-0.009694564363652841,-0.13323409453973145,0.12248284741139416,0.14197958253737905,-0.2171644139640151,0.09875500616155522,0.039152566912751735,0.1722354920141096,0.13515360590555728,-0.10880155626275079,0.0025345636354697993,0.03345976802191327,0.1524849685470288,0.05822186224042301,-0.05640682285105753,-0.017104526781724968,-0.044104689503600004,0.09074965743461216,0.014331348508866349,-0.06259423790923765,-0.1407182469186389,0.007871168262182735,-0.004550140192902695,-0.10330091953886293,-0.03582068385396122,-0.0036110918966919905,-0.011008549579920458,-0.037199617927428576,0.0873963558930085,0.014268961924430796,-0.04635556844429911,0.057932056353265725,-0.0934891191418659,0.11321257367637391,0.008250134786040175,0.11591588505227786,0.03457929504523929,-0.04775919809255462,0.04663562106625242,-0.007272738597552458,0.004814249829509753,-0.04373842437319236,0.09061942890207106,-0.03427553353775775,-0.02002807756223738,0.03319865999065259,0.0031741385757864614,-0.019762274242376865,0.11340108137845732,0.09388862621513455,0.03744234689185833,0.07192528787351574,-0.167741396594875,-0.05220877813287632,0.05216320342666278,-0.1009873293578406,0.11740636804590385,-0.12362472860224172,-0.10661098209539681,0.0428493959510267,0.016727230862125027,0.08715511838645493,0.022586878701386585,-0.05314424945699727,-0.01411652577645137,0.06787734931751797,-0.01734258370669539,-0.11342765526512387,0.12276319077356479,-0.19453740583708107,0.01949082709321597,-0.0006123866199822688,-0.035354499453727053,0.0005637653847817954,0.041120985488479665,-0.04708471774810813,0.02182044185172891,0.06442607549576453,-0.08994352400949203,-0.015576107037468763,0.04183480502047796,0.013496916746411642,-0.024517759831400154,-0.07450895565549717,0.04462053233570105,-0.0453168006732835,-0.06352025222135707,-0.07402243607594068,-0.13695997075729013,-0.03552935589539246,-0.08601626950634758,0.045160437528052565,-0.08150597251933184,0.03153534225315442,-0.05982170186919305,-0.013733338268868066,-0.01630256394148122,0.027858796189018008,-0.20174152221786654,0.008221418684679821,0.046148726370507306,0.03699900898579887,-0.032456907599220625,0.09784241277727174,-0.05608687004988321,-0.009549624229743803,-0.030471858118270977,0.02825791133801951,-0.02374139157420475,0.09384207989978079,-0.04492119145191303,0.08499757938569685,-0.13607044732897733,-0.038475506426216874,-0.043022271404529085,-0.22770966039682844,-0.0406890644376988,-0.12607469387236087,0.03489968412404274,0.17254399017242464,0.2291320824537467,0.01560576547888141,0.16081260567486436,0.02260471528298541,0.017730349725479717,-0.1429735262495222,0.05838404490032535,0.04824109689227011,-0.10440642140997365,0.0699186958083149,-0.045755921897136634,-0.025564953951377062,-0.09879396634924874,0.1078224730732048,0.10472282047174643,-0.0838063826460979,0.04846108693066747,-0.13392809135859876,-0.038585619481881425,-0.08543268413143529,-0.25193652571114034,0.052363776321477006,-0.026847238897581716,-0.05660776321194971,0.05805217552305508,-0.09889246807931719,0.06256299716636207,-0.19511773731533552,-0.014986393538016058,-0.16621451148832234,0.014791490104919354,0.053140378585544934,-0.004090456975993209,-0.133077096277953,0.021259876083970612,0.006250774025948288,0.004985600239483105,-0.0027654395688554473,-0.0009691283253475255,0.10396047350668029,-0.010226779912928044,-0.009987220534685527,-0.06511864543914547,0.0272067512597413,0.034146395931142604,0.22197720128902254,-0.164345259312853,0.03152825321733223,-0.1436446297725018,0.13737215924121213,-0.06467021324407528,-0.02497521962134463,-0.15060249870389217,-0.09904244829415153,-0.01588286348064285,0.0392148061771213,-0.03765224401502845,-0.08203364691084133,-0.207552207061819,-0.09955178234548104,-0.04958202373262593,-0.03713234382810017,-0.06912185121137893,-0.07493716811365805,-0.10396905707850355,-0.12593828974615176,0.03296627554710774,0.10535216294069367,-0.09078036686123749,-0.052703591836307094,-0.06690029786838458,0.024348252143399772,0.046965921530675414,0.0037530214353784673,0.07711479861706763,0.004089072815865636,0.09851329040948145,0.004481793764468798,-0.04108545210034358,-0.09829071663774164,-0.03208864339375271,-0.03284996140900582,-0.0028293348978748103,0.007572978484758964,-0.052035454072195134,-0.04449882883230847,-0.07074508864852,-0.29241227078311494,-0.08172553162013083,-0.05465267101562676,0.15622485340493883,-0.0983934593813309,0.06263315649678816,-0.05921405572511012,-0.05344016683926213,-0.019344644185653032,-0.05297114476414214,0.136990787705164,0.06371755778950712,0.09089330436751382,0.0822469887366445,-0.09198407044736671,0.033097807161793245,-0.0026085078026315952,0.048615028245862134,-0.019500227387919226,-0.04579860131040469,0.04268095031407188,-0.05823548234349615,-0.02377055799174754,-0.12656104537515295,-0.12307040161346887,-0.06965373759074642,0.03967652786504878,0.014052478426567112,0.19618541563821223,0.11126928779546912,-0.04082470234130552,-2.9534137184702927e-05,-0.15301262809051572,0.15050239744016744,0.05949106706541136,-0.00997597070176855,0.025985423568794203,0.07559838934777688,0.0035425759885875014,0.0886436010632673,-0.035039378875173006,-0.011868995844014019,-0.15161909901563253,0.10976073006633702,-0.11071268542104228,-0.031114718131966534,0.1428130197820588,0.007150290593445625,-0.08622892403158311,0.07440969257153084,0.18294459776033456,-0.16409757998841756,0.05569900237081959,-0.016734008797820873,0.12747073385879865,0.003563844109894613,0.038944436834142726,-0.1533477364936542,-0.016277449731558907,-0.09385607681099493,-0.020517899463955474,-0.14988856440399367,-0.11272391258323061,-0.15598344329132702,0.02468089234664858,-0.02070466309137889,-0.10939921464952261,0.000860239768633257,0.00554509994163702,0.09999019263566115,0.03150963508316646,0.03664231604714493,0.19033953301879494,0.07691306475931989,0.0030929634961112174,-0.01804817243547942,0.11518444183933219,0.01746273801500909,-0.0033513456504601787,0.03185128532831863,0.12023775422040082,0.09334792957006491,0.05295898246166103,0.03103417420905413,-0.19548104733369354,-0.011058125553726582,0.09953790349778015,-0.05260983401838489,-0.08464820028940341,0.0020916599450588273,0.14290791506437475,5.409666408864167e-05,-0.12065140799257888,0.07985135832495553,-0.03435944181757998,-0.023816368455032315,0.0336717905387531,-0.011771305862416185,-0.08496655451692584,0.05674167144822041,-0.03884334588262897,0.10349679020686618,-0.14525771958696324,0.012040289819799458,0.05062983422108505,-0.07349828309672597,-0.0454877394356347,0.025643486183599812,0.07275075164751826,-0.013994926344579713,-0.0477343001535659,-0.02750968122682457,-0.08623764168578736,0.1965666331727317,-0.0794004258021731,0.04232326522873693,0.08046974217121233,0.043551718424218656,-0.1085870369063182,-0.1562793943320291,-0.029574938942404115,0.07511633871987358,0.10911688852263215,0.0919757128651352,0.12252096844807932,-0.16853136655335726,0.025030397582534034,-0.050537988528914356,-0.045238780290043246,-0.0588844164880892,0.025809187344126374,-0.08313093745874019,-0.009686342452417295,-0.04409134194276708,0.019012600875397925,-0.15598873206846264,0.05806170510880455,-0.0367339979067174,-0.03159019800727007,0.06606567076873156,0.1836458056227653,-0.00032679629159768005,0.04081780618547775,-0.1944169788749318,0.023050820542991058,-0.1485123137724224,-0.017247760051293824,-0.01051343685584476,0.060889510057411785,0.0970692326585618,-0.14589498028156112,0.07294607476441958,0.17556986866123836,0.06909303500517083,0.06765288259977448,0.1100171140685101,0.09213128763736582,0.014213302131360886,0.048315706369568896,0.19932214823495076,-0.14558278304024844,-0.09186691790303941,-0.0631475741244721,0.032585338675055746,-0.08490687955368688,0.10210117041934007,-0.06429550896290469,-0.13986190303340287,-0.020110206479631017,-0.030488230519137228,0.056329193074863275,-0.028596416086296567,0.1768630589384411,0.09147184791544508,-0.007813370170051943,-0.00955274436852615,0.09851485765367463,0.07608339045402793,0.08165440023988257,-0.14850656615799196,-0.09795116690464443,0.034050750557354965,-0.07368176597520969,-0.06509878361404932,-0.10180663099334598,0.08936564408470306,-0.13105700599116135,0.08108662380715463,0.08545103209922737,-0.0020764185653038285,0.009764962938414733,-0.082769680534282,-0.04304400193144259,0.06252172980616345,-0.01899115338434216,0.029763021908540147,0.009381290771603474,-0.1045066510353558,0.04277096473058875,-0.29074985458772146,-0.07470868806393177,0.011521102429929044,-0.01145817130485285,-0.04951727230530073,0.1328245878969433,-0.10320448503565519,-0.0003571488248392015,-0.09310686421663002,-0.0153211571492579,0.015135366999111765,-0.031231897115621042,-0.10712483736096265,0.04356979541420282,-0.07345367660597393,0.05674312096964607,-0.09451538687515439,-0.21095662665857023,0.0033137664029896457,0.043265732813967235,0.1252238561060973,-0.1773032837247536,0.1188357060087782,0.025926897013524988,0.004583095873949439,-0.03529276162344647,0.097002004747032,-0.005294199463735485,0.033657557187728934,0.025453592424967676,0.046739444198177424,-0.12052321693571691,-0.012709602798413882,-0.08959779480643838,-0.014774232533347052,-0.15041676700580653,0.008670956620940551,-0.06599682276508222,-0.024756413058102673,-0.03227239732854349,0.07811786277222674,-0.12105722604534135,-0.04748715165079447,0.13971244558873444,0.017327899728216863,-0.20944722599952192,0.028828757873803647,0.30164525287731314,-0.10876183186686976,-0.0668092366458681,-0.10883373471230515,0.12655491731378796,0.0020678227039682795,-0.0797216104845773,-0.10654682697720477,0.04415339367279747,-0.10238267406177921,-0.08032047620609933,0.045209213212214105,-0.1157646719234446,-0.2348418092273572,0.14407355032467328,-0.10639575861403461,-0.055941823601519815,-0.05742104833712087,0.03693414201373388,-0.05171013985306478,-0.08477518717464735,-0.12985739847739244,0.054145591490122734,0.18371193895217053,-0.0679520029703708,-0.0018570297294268063,0.020947768985029282,-0.05801087140059531,0.045662777858863766,0.10732054229342948,0.03228573699705611,0.1288533055949548,-0.27327054813524204,0.20201522300379177,0.07273470603244292,0.006637619340989816,0.023612823075441172,-0.017359793820031725,0.051632155888092,0.04663433865900768,-0.15250579156841051,0.07466400995509484,-0.08252201475033945,0.08048053426822256,0.02580055890457377,-0.005717093848306811,0.020057114103435452,-0.10626951213994047,0.10674255851346388,0.1226039063586368,-0.03948215869613986,0.06633855756266982,0.1617470682725591,-0.16020777536558095,0.17420392302942814,0.05382545143894727,0.06037661352941685,-0.021981993703880598,0.00246069201734408,-0.01612100396615258,-0.05065092787398893,0.014856201684248232,-0.05030645930422632,-0.026821431847461313,0.010121206841089048,0.19994655505247416,-0.08043744016848303,-0.004244948821330735,0.15534298134472238,0.05753190018526983,-0.03569529733214177,-0.08196486147976459,-0.014790070271062172,-0.014355118832731118,-0.049680461316370134,-0.25553508080506315,0.06491488853087536,-0.029486236529170096,-0.09279246958886292,0.008681407831693638,-0.05570311837470752,-0.15497851629294973,-0.07582510894686323,-0.13438746651836608,-0.18309178797620204,-0.004400422397608792,-0.02918120152392897,-0.041893168609373053,0.08670673912191686,-0.05754368142713896,-0.04728231448431157,-0.012926199676601356,-0.02640836831027819,0.040536768860617516,0.11876389023246592,-0.02332591092035826,0.03708151422507495,-0.09937585464635013,0.0755634056406723,-0.01084270237837919,-0.05503257770316547,0.026965245668316838,0.020239237490941118,-0.08488242783684348,0.06257036992423329,-0.1379281621669366,0.17181471262265094,-0.19502349984865594,-0.014496789253325168,-0.03645474060017944,-0.05872958903245449,-0.0034112544337698805,-0.17076185688837142,-0.10466609041528084,-0.14663257732359175,-0.05051665354180676,0.09526212750805095,-0.004731023740253287,0.20053637856573228,0.07485183069655926,0.22592540001654676,0.004995509311900617,0.013395028753953798,-0.16747640360103422,-0.07273431219854627,0.024913125137523827,0.010482811737442093,0.06729834674821604,-0.12145715620670919,-0.027336697179315837,-0.039663695463346034,0.10173858906013529,0.04566783064839626,0.11625948244147315,-0.08210023807166945,-0.05679626116587079,-0.10567820066721414,-0.06411301268153156,-0.13081464695472578,-0.16741806709859933,-0.06387832558102169,-0.020397204979018736,0.002432638927149575,0.08385528062330214,-0.16653692161888312,0.03747182163303467,-0.019353280563156983,-0.008396909785472539,-0.11419843912718929,0.05922424596723847,-0.03677040731563904,-0.04628310372988618,0.0796978666901657,-0.08421623159466435,-0.009688614211987596,0.03424851269719988,0.09302750984231518,0.03039042839143722,0.026893973814596833,0.11467403929909181,0.037644218948011676,0.05445914930399903,-0.12171722435815496,0.008606848251178625,0.03683913305707066,-0.0790691514271237,0.05600838826460491,-0.07620350162328253,-0.15422692161856014,0.031779481033158676,-0.04771204477503643,-0.08087175774743523,-0.0005559120508830621,0.1158862627748049,-0.07103107885558213,-0.09124892478048406,0.13021872547325028,-0.19488436359097297,-0.020682044029761,-0.15556845252371784,-0.1076888455061842,0.03248747680610507,-0.1275012920986917,-0.05654438133022006,0.036022679640851776,0.12270187387548062,-0.11376103478406616,0.036532138345458855,-0.14404625934855367,0.037793649752550264,-0.05271645831028214,0.12036790584292109,0.06552977306912677,-0.03340965406478053,-0.0064809317407412735,0.06575090080814094,0.043789001671227505,-0.1710233001983342,-0.008003331057123761,-0.07521274758540354,-0.06412892485637726,-0.1675843450413933,0.03224625906625796,0.028178688163024154,0.023222514993145454,-0.07805216890222998,-0.05647360269520603,-0.14029337713586232,-0.11117744058500387,-0.009644558104782186,-0.17562910196638365,0.10486758648068763,-0.04401639116541603,0.02839673182528589,-0.027962149372194572,-0.09915859243292247,0.09722661312540863,0.044427729561783966,-0.13381156036012523,0.1668464430836178,0.01610413816936435,-0.059611446552435984,-0.013286828792288817,-0.013311221822421353,-0.14567311422427512,-0.03905354768050602,0.0005935547213080058,0.025008523488523303,0.034992928327995595,-0.1069947611862632,-0.06482661486995338,0.023729149827866867,-0.08489999691477809,0.12399112119339167,-0.125160074552257,-0.0339057241247979,-0.03770967929036566,0.17899872301964545,0.09181528292921674,-0.03423091294118005,-0.03576591672811032,0.0014534931970108303,0.10792174637441267,0.05684637605497741,0.08019299354436185,0.07169423637144996,0.14092904348862467,-0.0871955667132426,-0.08375478756837934,0.09877268352467233,0.15498866376407652,-0.014124356638996739,-0.01657723592653306,-0.12860412029842186,0.05531806312272193,0.15118772428860586,-0.10044509695045703,-0.016948562588744113,-0.020328543934224425,-0.0884121719475769,-0.11471217234857378,0.1440921046294311,-0.07085561575553488,0.09182879358942377,0.10183814189060436,-0.00026068049239945016,-0.031171989579049382,0.13337619969978373,-0.07838911354293221,0.17395400972765948,0.033188099271336584,-0.21013483027901705,0.011666880018498464,0.031775011339883884,0.009034218716037068,-0.04477567770818859,-0.05353383057589999,-0.03227042364066799,0.0033151233969023848,0.04601591942418642,-0.05013280664407204,-0.02487475706415182,0.04146045519068227,0.25515777181929794,0.03808807122775447,0.03419328635815208,0.06014164152706886,-0.03593873949694195,0.06060441917026401,-0.009867781972404076,-0.0011612190839729354,0.0616884927652816,-0.010947599944859089,0.0173109163248178,-0.21191428919539104,-0.088210016740655,-0.16032959573497396,-0.03740871967183834,-0.13124385337656652,0.06298120253779821,0.05219653621296344,0.03254448632617669,0.13861805552738485,-0.11521816565617389,0.023234125834975056,0.03100683805457119,-0.06810696774661647,0.1538465581790025,-0.036130386470583115,0.2162929802103662,-0.03016084528775938,0.05150966817369789,0.010140716353752906,0.04701468411338202,-0.2414783588794619,0.11060836389197032,-0.007010524877497979,0.039971978698336685,0.19240476162114123,0.03882049437555739,0.08945874561997001,-0.048446225528823404,-0.03450627672570412,-0.1001973404085651,0.03631126611905286,-0.119051543925137,-0.05569936263571113,-0.07180017757178063,0.034778553786797436,-0.00381464396959291,-0.061508166672626305,0.033352240577104945,0.09562752340474916,-0.028929649500628596,0.023540326632286574,0.18058399932960698,0.03450170394883789,-0.10366195756471684,-0.005031850875225094,0.09463726277715319,-0.1395309060374104,0.04704281028534874,-0.16991647879085353,-0.006939940081072151,0.005892694809604491,-0.08880018799794565,0.1967322877306457,-0.07250665265205446,0.07281416648520354,0.07903875428997217,0.06579002892889806,-0.14674980283835234,0.016242387043350077,-0.10384942847304833,-0.0878261577191244,-0.08163097767039167,0.033851594258254764,-0.01280521575118382,0.08392152376611353,0.04972858507768245,-0.09157837731742377,-0.04935932848175627,0.010992306246626853,-0.08667599821228726,-0.0051971963567088615,-0.08501636871660452,0.10004687773852709,0.009740864601790421,0.2238802574198129,-0.1558455510222889,0.008512647433666226,-0.10060694833143699,0.07355134629937825,-0.09803059219736016,0.016318712922009097,0.0738876137643363,-0.13206746209927253,-0.14925472933242295,0.12561982706577615,-0.0701462441267396,-0.15685167650493093,0.015891421068058496,0.059465156006023576,-0.04518754968666337,-0.1133331388587395,-0.10903293532304649,-0.0030094855494059254,-0.17785410892154968,0.05472901025437513,-0.0005329852172407993,-0.009142010627540522,0.24326445216866552,-0.1367517254478178,0.09033642198354265,0.04041831052458492,-0.013924185112732674,-0.04085668812987328,-0.05684643912428094,0.014219583839570693,0.14741737845725592,-0.07155327072405282,-0.13676565694303253,-0.19013050648486263,-0.0640910383948866,0.061691787249165644,0.0014328669610897632,-0.18143552890512318,0.05620318559013985,-0.12266372386223291,-0.038651839310728305,-0.012646252694468505,0.03298098125300554,-0.06234365135922705,0.07848501262836269,-0.054107247335683346,0.055955668383168476,-0.0064864748211902745,0.008828560922700604,-0.049458798237439025,0.06891141923491861,0.05483225124529987,0.0722820284712759,0.00841606090615799,-0.08946649415851056,-0.0973944460603915,0.05044430783161062,-0.05028546147137703,-0.008280799618638975,0.0731188347835259,-0.05330798386004541,0.0010132508451857517,-0.055501687074173696,0.016878835032980016,0.14738143554469113,0.039802433918375846,0.09064795279511757,0.016423022704424858,-0.05795318317115536,0.11801874614885605,0.18438305996781248,-0.006253120123148587,0.12548918220318178,0.03222970632873731,0.08878678734932915,0.12927259960622473,0.07262584505449782,0.0843439788064979,0.012529351615771012,-0.1754445696091531,0.11440170948550087,0.0655717745635862,-0.01814902631154365,-0.07829416552748,-0.05383020421845524,0.12099726519073015,0.1061190613038949,-0.03969318186014725,0.07784409429672914,-0.08718262750912195,-0.09462442336993335,-0.008588668485737,-0.05689400973837034,0.02225231265427357,0.1453478629202847,0.008543036399394122,-0.017363748428523614,0.09923610930354432,-0.1345206778072446,-0.136751333243704,0.027733546742913878,-0.09159696698345395,0.03437017227429156,-0.02798176692648147,-0.1458202083748784,-0.004381309943551719,0.06383866510376461,-0.08360609880270208,-0.04003668136503594,-0.02686896904950165,-0.23684742558973712,-0.01527575298783617,0.045924651732761605,0.031397859144221885,0.06397991950726209,-0.020448237610563528,0.12020936481118732,0.03412886059576508,0.0003180376693256394,0.03497031799437245,0.027328862879765915,-0.26410578383710454,0.01353719283191384,0.16239531321894288,-0.008868348873521122,-0.08235916631497464,-0.08077691489975194,0.1455968207334994,-0.01212372027432644,0.1335535998459033,0.046867917588152966,0.035980180550456944,-0.0497558608036057,0.11303884531933765,-0.06988347560679593,-0.15502155164860015,-0.14902579844042377,-0.05105376677802549,0.016210886365077667,0.03652736711582535,-0.07249848451322624,-0.0919110623758306,0.17667972942673713,0.00896055956597988,-0.11854837302026432,-0.1405933457087844,-0.00663084608502412,-0.0033934052192141516,-0.032586980353215354,-0.003762880962086877,0.04471670108655736,-0.03364682345436027,-0.04844732088568184,0.028906608441600073,0.07346739210289562,0.004173369761432094,-0.04279071831245018,-0.03144260179767128,-0.11180068825393227,-0.023005130923814975,-0.0842162372709247,0.03467860141362832,0.0294774301094719,0.1292645869624383,0.08051062866486865,-0.09062087873559851,-0.016231829901190074,-0.040541814956674714,0.03349867991431438,0.05809545951791218,0.05650649465361804,-0.016189315668232455,0.10095663526342023,-0.11795155040635177,0.140211372309719,0.033698289366783325,-0.035007741986212274,0.14379144828223017,0.07740569832149147,0.015130171375616926,0.06949929781125827,-0.07620576937197207,-0.0045380160982028805,-0.06646363291806184,0.11797615088594483,0.005527418444206618,0.14042429850939206,0.08092373845320354,-0.1818654136852302,0.0744089807860792,0.13183714678036007,0.07031367823354225,0.01182935814702317,0.04470776330755915,-0.0387264113311359,-0.08541038972935382,-0.1429024284843484,-0.05342864778254298,0.034466139777069624,0.09611101686410141,-0.04800849363547379,-0.12646645600911213,0.10719434148558758,0.027901156666441312,-0.13073101667692433,0.02618574697728469,-0.07216824180676759,0.01761501018122736,0.07382611632626723,-0.10165339323716249,0.08093721660095744,-0.06580841702325317,-0.024502290588686432,-0.0579604485684746,-0.01360764115031568,-0.19575778224341112,-0.011584672916244071,-0.05657073212269686,0.00322408343291706,-0.13437400405461528,0.05384115610155739,0.013108207156840005,-0.08026850772995425,0.12727322799336652,-0.01896655802628964,0.13049287894904668,0.014608470478654621,-0.08609479291433213,-0.05966208046915657,-0.1715404946426665,0.05535109749365067,0.05827879292491426,-0.16846482357227957,-0.09532234795319941,-0.046535268031205376,-0.09078543599562361,-0.06860272954902959,-0.05488348409807835,-0.12311280445049422,-0.10443799853942849,-0.0236805722079065,-0.10505213460681384,-0.07156952272177448,-0.12730504979080623,0.12291108671086722,0.08887295429843801,-0.032483667628887915,0.0323094730168238,0.06770660848686953,-0.10245983014808968,-0.0425487451631401,0.013936865065961609,0.14371843038695337,0.10625118914024281,0.16919379098459975,0.20815124105356353,-0.04462157037728324,0.14006225557352672,-0.009134505393182142,-0.027790241492984133,-0.037200865480571776,0.12247897940466726,0.01318059075682867,-0.06852297871341476,0.20999284624293427,-0.048650385964349466,-0.11813351029006489,-0.09909721302272413,0.13031602655517519,-0.07010876465971065,0.12341873250429376,0.04611720786994079,0.09494984920110568,0.004497239389300525,0.17230278633550017,0.013946335421011355,0.0011955577632123894,0.06395657048611089,0.06957842676074665,0.03256028827609939,0.07410588232484101,0.09467458307192904,0.0008655667501811731,-0.12352298097285062,-0.09508553463447801,-0.08303142854035422,0.12597283883827268,0.012957547342702363,-0.01866021488893391,0.03105890446117694,0.021459147531990044,0.0457734438340506,0.11258308636739861,-0.11290383643970976,0.01479312872545144,-0.016805406403373226,-0.056425541303021846,0.16848742760465912,-0.06673012912429341,-0.11011601688187506,-0.01942641973742834,-0.02599602355046773,-0.04125980775316231,0.07389016689071094,-0.015293710901476812,-0.037478391991856444,0.0823949040288104,-0.00444495299199803,0.04144281242148476,0.06695054840417584,0.03272961159132616,0.0688696216872494,0.07165918447400094,-0.11828588622737754,0.08455377705543872,0.1496055775165866,0.23377369254461028,-0.017741828547292397,-0.04145409715064638,-0.0664726465270233,0.13797931288379167,-0.12186206471820836,-0.030385698718689496,-0.16923358158360555,-0.04714875573993815,0.09501162498925067,-0.01305493656037147,0.13054143253659536,0.09957894255599964,-0.0455743075307414,-0.021076159086877835,0.15823319986802045,-0.07824053177510534,0.1291555389041898,0.07449077962387254,0.023334020591178055,0.05311194457045849,0.053145350852255906,0.07872523873032086,0.130818118383467,0.0029152402050959744,-0.029072041861492978,-0.023337181802892393,0.00922516378488653,-0.09195354626061718,0.021975333808511657,0.008973807927788771,0.046796547396233755,-0.041973817804408856,-0.012109339387357096,0.06551405804084913,0.0016023761580743797,0.09678120674518993,-0.06630991689323326,-0.04563199380614233,0.08736971324883237,-0.059477517158233816,-0.005056711469850604,0.15297577011020597,-0.011300890882818687,-0.16129149534612755,0.0030205492124432453,-0.10724224425110739,-0.04857686081537437,-0.2772253600869497,-0.009111035259804508,-0.08279941146345207,0.1775956290319208,0.04605927598004389,-0.025826518952724475,-0.08786989375261968,0.08947424065748945,0.13186285212640494,-0.12655985780906479,0.08619839924917946,-0.07310851752786658,-0.15143190067563475,0.04207203691319487,0.037541335868816424,-0.059579714656382135,-0.007833679265636,-0.14697745547296104,0.08405035971852728,0.08756071602159739,0.009981736486455554,0.12613119585482602,-0.055686401219873005,0.006588197473477921,-0.0023164103107955435,0.03557812987290489,0.12227333506504133,0.0543710777907302,0.03725375108263136,0.03049849361485088,0.011224949458060436,-0.030165763419980722,0.045301052318071355,0.02947080525876106,0.0197770765870695,0.10198491653291669,-0.0034406626216200056,-0.11474667883458063,0.08065818968668523,0.045036430267999826,-0.1032673621294379,0.02530888534356085,0.04312489061073019,0.11579187949583944,-0.01102941824800656,-0.05512812857824648,0.018445048940612618,0.007949999316083086,0.27845724555854945,0.028863517842275647,0.057395761994222805,-0.1339848119796036,0.12764614335805294,0.025105668169832552,-0.0389292738285147,0.03786850826470484,-0.02776892862841841,-0.08553077173952013,0.042805762256582995,0.044280743311256525,0.027555198458550128,0.11444985204684244,-0.022630001861202172,0.10598472423800023,-0.0536071486170674,-0.00249260779996984,-0.05136079907619991,0.005666633146755042,0.16290811842202077,0.024632173975601652,0.046037640531883514,-0.07415586383590837,-0.11564174395767449,0.1055485844073972,-0.09324047661580721,0.09537971578313342,-0.007792082445645615,-0.03428332812153909,-0.02494139627831944,-0.03733802455209582,-0.023151514098324083,0.20845490148690357,0.019559187583480624,0.19923114227926308,0.0010120851688056392,-0.07898531906131086,0.08201742939060708,-0.03361253249851441,0.09745543873577417,0.008153005281693482,0.052029117233689894,0.17183374255301057,-0.014222240905605572,0.07679061387345126,0.013373543321696369,-0.004660453393323791,0.06989255123409939,0.1934806870425322,0.030695665967580874,-0.1402073695496213,0.01975209577249216,-0.007285507869296695,0.001331186030110352,-0.022002630096268377,-0.12348087174506252,0.1974890495858824,-0.029254904299191514,-0.08523612061702927,0.1835352944602309,0.18787947707645097,0.14815130090362671,0.054873697560176855,-0.08327077033876286,-0.006356117207430178,0.05193827149568166,-0.06613135571814036,-0.0010815778944978018,0.1207862189053619,-0.0051595737855558675,-0.09492244166101081,0.03042821182117411,0.05107107947267242,0.02957329323476875,0.02377474793348577,-0.10779471278898796,0.05761758014562262,0.11973486461903474,0.04593360944271478,-0.09327923546444009,-0.01980399889310242,0.07815083575564581,0.03701618615985916,0.1105139827668185,0.03494230490705966,0.08782412182915507,-0.03199257683122971,-0.0662260241185863,-0.004608674223595201,0.0870982181581347,-0.07460535726515277,-0.22624973261490497,-0.08791759059498389,0.15553598082997583,0.07661922235224197,0.23354725941434612,-0.01853422363754624,0.0630646462203054,-0.0615393761728581,-0.061931409270454284,0.08282655569426366,0.054234917281336566,-0.05730958904225212,-0.0133015727844991,-0.12241908480086802,-0.0924280070620136,-0.10106882300786221,-0.09922171002259449,0.01941535553521895,-0.02665986536810751,-0.014278072292973685,0.07441822785463434,0.013934817979207073,0.052522228221771515,-0.00998825866068804,-0.2578883171490578,-0.0023978221324605763,-0.006460357314390525,-0.006856163093498172,0.013827650885811038,0.11205748723115647,-0.12306917305258783,0.09058622306594524,-0.04377908558978841,0.2280954408825379,-0.00616194140137087,-0.08055378200138738,-0.15995742456138598,0.05113164387691623,0.02515947662901175,-0.026876045817662054,0.08284877633707705,-0.07690090597216455,0.0517875358703356,-0.051568434237945895,-0.06729891849425457,0.053888954066358304,0.05711221848679512,0.019504256196071254,0.12613005834355473,0.05493180242114023,-0.08997909883670242,-0.017384073287942402,-0.06822130282071634,-0.06056879874279575,0.013095807510238224,-0.13349657410232912,-0.07819988374974644,-0.1901456993804865,-0.022385135620665974,-0.08696794125264612,0.10219884702735445,-0.04312068977248922,-0.12994837988963953,-0.11608826486531912,-0.23714986612595612,0.15669835617645672,0.05027151591793063,0.0445571830454913,0.050686733784688166,0.025644392555726314,0.028241033417595925,-0.031139876712760826,0.07813482905324014,-0.008457011216832346,0.14341383596779897,-0.000835533606984916,-0.09782020613225943,0.08880651059639774,0.021600214717452285,-0.01391671139955172,0.04481026189258481,0.16298239545039012,-0.0803875751210427,0.024641742516023208,0.0044185438312554165,0.0338086265967189,-0.026421422542602702,0.04019077007368238,-0.13617169372404359,