{"layers":[{"layer":{"biases":[-0.003697715417777173,-0.06324995232080448,-0.0008344957495733592,-0.011018800989083272,0.024083538871267456,-0.11274788972253967,-0.02869831948843257,-0.028056997231633404,0.12374640516939343,-0.12169546534409072,-0.037785652279600096,0.1265859682291732,0.24982704660287355,0.057877341436914274,0.10376097475177502,0.05871976355102042,0.21379139130397837,-0.06186492727232106,-0.02308710268991512,0.08757945344349233,0.018824475202199095,0.048549427509382515,-0.10791728005326946,-0.011101521965003936,-0.05414917641684456,-0.14125058210225566,-0.07502862762816463,-0.09963725913918975,-0.1436597984335057,-0.1804569683587173,-0.033900440667686986,0.010793302119134669,-0.04876478018373154,0.04768516510381068,-0.0287956893183756,0.005630640143272214,0.12104439936531249,0.00940683418125072,0.025252404210897188,0.035403449610211885,-0.0007134423081823108,-0.013596114420396842,-0.054606669908896475,0.13350182855322346,0.05924702628445771,-0.018620191603847282,-0.04964363397202875,-0.060277236644253725,-0.09463297392452406,0.05746220772013209,-0.07350180150268228,-0.08685074648706154,0.024238598736045728,-0.011170522477280887,0.08482729027765076,-0.05653866342402092,-0.06698011505000069,0.06535862126894353,0.1472095784096846,-0.17070517612366193,0.10188261249500621,0.001972934650185894,0.03806753941763041,-0.1585812390067926,-0.009339929867272957,-0.05686408510625724,0.0436833372253246,0.1165325361002893,0.061511392048501215,-0.2225422646392239,-0.02482632084672726,-0.061375910208758294,0.04166650234322464,0.032111112044024503,-0.01408015413147495,-0.016836363860887063,0.13835074805255895,-0.040052953136553285,0.009842564645237514,0.14973072724768738,0.015618794688590834,-0.12360912125506282,-0.08845649340094026,0.06529707150785957,0.03890952573625483,-0.06071399292250511,0.15103893912279392,-0.06700565919673832,0.03313275091275799,0.016882120558772428,-0.000606967675999711,0.13564793670566355,0.03650695243957409,0.03795923626855521,-0.11175432005934359,-0.03958209826319503,0.02681211220292189,-0.06270053392963297,-0.0005186486811864433,-0.02040273530164112,-0.043407797984736214,0.09059298949250863,-0.004162154961010968,0.0011886693221504834,-0.059425348227911574,-0.005125329803161951,-0.05163452261342074,0.0976653325076863,-0.021822871670985716,-0.050763001750031185,0.0626183805901951,0.0625262736729322,-0.11165952119555914,0.2093271608471615,0.012053596807511597,0.07700862905844334,-0.04324797151011617,0.014077379213022786,-0.021614245734755313,-0.005485826040542061,0.005368034263719771,0.0681860684619459,0.08521607493061958,-0.06294189168554766,-0.02815772357527811,-0.04235672913216957,0.03993869653636448,-0.055317099404447755,0.11191936327166123,0.02229121546997622,-0.08724798376235131,-0.006830612446737388,-0.04924388649476862,-0.03196253746631406,-0.0451475627106912,0.037894527038846194,0.10068916846204251,-0.16187931379383194,-0.08723635187968527,0.11069617613468177,0.11099031520849233,0.018640493136612476,-0.016123457715646845,0.04365222578606964,-0.07570080466231449,0.044301872390222874,0.009838980607439273,0.031912150862245706,-0.16378369966167414,0.016046318841135897,0.03052713946851486,-0.07416068544769619,-0.11810981098905263,0.05217889690085867,0.025453398917265703,-0.020601646969917377,-0.03592332133524459,0.21662081411961273,-0.044684952495618976,-0.0803760613317685,0.02429800722557754,0.05660327014042778,-0.06343254899038153,0.08249982784780513,0.030429036527868398,-0.02795502866947004,0.15432831633419525,-0.027148418726532692,0.12356471949363841,0.007112021505311791,-0.09011836499701681,-0.007620369863166805,0.12346764921468344,-0.11959655932509428,0.08705790926658719,0.1269594944173199,0.04719999915558352,0.10502016130374656,0.08061617879954526,-0.06708040372385798,0.150112222106727,-0.03793728330926396,0.004492648013308772,0.012925151021125268,0.060819685505660706,-0.06386333565192163,0.041526538016691615,0.0028969574805402004,0.3125181662398358,0.018775070373178285,0.10962512865803803,0.1126951588802352,-0.03411233922655933,-0.08418993365320042,0.12218173843296684,0.1727993827734885,-0.19529406950451084,-0.12541861588598055,-0.030522625922184445,0.0030226556469135366],"inputSize":122,"outputSize":200,"weights":[-0.019350509863506823,0.04246522929801781,-0.06022448033609637,-0.2205703317062606,0.128805685767586,-0.0561276361768644,0.09823397617815256,0.016929695200504337,-0.016442221405887393,0.00310779575645756,-0.039683467367943,0.04550576823882818,0.05400997090190865,-0.11671828193626428,0.14115651291216436,0.10627235499914499,0.12254782511107408,-0.0020327656786182577,0.0313714644011806,0.09250653456046304,-0.031295502600320636,-0.03978666133400129,0.05461096742474317,0.034824668264546,-0.03593859212648897,0.01449489337126389,0.06813259586081376,-0.008131436674966793,0.014289976471082157,-0.005177644584863604,0.03549530475683166,0.16277449511327924,-0.20295145645819182,-0.02369509223741779,0.12113074870526334,0.04862255269682669,-0.027532128442413383,-0.00027052789457949155,-0.029106777575821214,-0.11519615749496119,-0.1866812137852053,0.1438189684310467,0.03142137049916867,-0.04343688822846313,-0.022053133036445405,0.04940349599606967,-0.0444656418916912,0.010984530451101577,0.06905182305877235,0.026719580943113237,-0.007078493939834044,0.1538198905074567,-0.021905567222464263,-0.0710421250933141,0.03892072616804985,0.05490868623172865,0.026930744460228827,0.07338916680103313,-0.05527519614519439,-0.0127923430078963,-0.12265328991689223,0.21755372223182987,-0.038969848361501525,-0.047341658560092814,-0.02729247504556252,0.01621663046239159,0.02822239331568751,-0.041298036015551695,0.01795128576663902,-0.12477668882900647,0.06136994760823773,-0.12294726483615416,0.042128401896731144,0.044380600134704164,-0.09659418566416818,-0.1467899035976915,-0.06734796755669964,-0.0011151802763990526,-0.04917649147161208,-0.1839048448318525,0.08109462521558707,0.14103668095244704,-0.03369039835016532,-0.06387121969779502,0.0006801316073301048,0.0365694032265959,-0.029584347697496613,-0.11136092280182576,0.07179272685824278,0.05371021534538991,0.11448654907182597,-0.008573183402719906,-0.05659869144658056,-0.06576452247422601,-0.08354676385719506,0.13982977226413656,0.09334518499213952,0.05751417975107203,-0.074801693233638,0.13106796437500481,0.07148084506102814,0.033495068443857495,0.10256352853579524,0.07227689795524161,0.18570964650256747,-0.06585652443138006,-0.0022989604100635413,0.0033124839739748914,0.14688874130949992,0.019568758912486803,0.03406482103089636,0.1385780826507306,-0.03652285791172292,-0.09046784066293506,-0.09073774627355452,-0.027203853086180372,-0.08243462382933234,-0.06731317888878179,-0.07589738763750128,-0.02183765641131075,-0.0559466158644414,0.029384180467605978,0.09302568471597024,-0.08549347890881802,0.10257351837359428,0.06674728018384156,-0.07201918033902184,0.09091721945376602,-0.0994164908122668,0.07972739578939829,0.08172937374265689,0.0489971262320323,0.0031253935624582277,0.11479727431534377,0.04794951150937082,0.007913080991745326,-0.1003056408202343,0.05347159243977339,0.045278763351334184,-0.07324994296146775,-0.028952424953312992,0.1157828259696774,-0.1369179213675339,0.07130047657534022,-0.006797907008789121,0.04252756787373608,-0.09150610437180129,0.1744376824557538,0.05763665925845824,0.1367508340487857,0.023558640137173067,-0.06565834341761549,0.008253603929391428,0.07822166298729741,-0.055110848050955945,-0.036867612517482815,-0.015147155854979156,-0.0468831276351934,-0.04678452058475331,-0.0046361004604643504,-0.15133620362808067,0.19835070745992311,0.08931484907965623,-0.0010679208452994298,-0.042423764652754437,-0.12291701833781139,0.06986608633161251,0.08310836793843994,-0.063497336229937,-0.07904756072338415,0.0372271717039585,-0.0598235778469925,0.09262738534826438,0.014943807525605514,-0.07499838065229086,-0.11280310446945448,-0.00485224918569099,-0.19533924716267687,0.034626127611579474,0.08913455488492637,-0.06919736355526004,0.12697483384076214,-0.03768356736551151,-0.0832505733625649,-0.09176776173032325,0.038658657541921396,-0.02408112902379308,0.0168786408032964,-0.08620478930749785,-0.1530247758900716,0.08326270331017019,-0.06493679494629791,-0.06631994583999598,0.04480410601362093,0.028420337327070628,-0.16233312423782476,0.027135425638326858,0.11152524282765161,0.05677408023881573,-0.08122222427492223,0.04356090301566434,0.01833939398346161,-0.09744236940289618,0.027034373419109647,-0.08475843663869821,-0.13152909078821923,-0.03327124665735677,0.05812307860263851,0.027448337945232246,0.04838505325836035,-0.0778411489757019,0.00834941170826411,-0.01439695397498792,-0.07160004322212044,-0.03166671493368776,0.08072642230730034,0.13625848484707584,0.05913629546560523,-0.12630712772512015,0.11975707825570384,0.025676132331576906,-0.004469382035854067,0.15158910477442927,0.0018583143306859736,0.1382272714921527,0.058781879861213526,-0.0010943122869297361,0.089586264804596,0.012480754564167239,-0.03695644251293505,0.004221542134842838,0.01074205379184269,0.15341787103901403,0.14205223702358427,-0.0958265697541934,-0.1759118363308871,0.12821182455894117,-0.03248646842210321,0.181874850150982,-0.09024696957006188,-0.03839514657843913,-0.08209547424208273,-0.034618798112207506,0.0803909300322161,-0.01494436739300599,0.145371206842038,0.03707117760131035,-0.08502372068560192,0.07102333459317574,0.0656003274689837,-0.044153360925083714,0.024706796227753982,-0.05157781434570659,0.06577641538891867,0.1213654793720377,-0.05573113054353647,0.018150531312840088,0.02758713401389288,-0.01862118396285582,0.06564334091993762,-0.11029209396476616,0.07730821236439084,-0.21481173824128091,0.011532478683114451,-0.02970463069513887,-0.0070931266971871465,0.09328699780425503,-0.0043186761792697575,0.10790258139081985,1.6434404578170853e-05,0.11997790558396854,0.09478451805146057,-0.09192593805283619,0.039927595858826284,-0.06255776385801537,-0.059577711803300355,0.0040502932756636065,0.008605689524918872,-0.018224093196193034,-0.11805078235253795,0.06398559323463626,0.09354121653529762,-0.09591873938948219,0.008913307064790042,-0.10205595999560921,0.11117603989845942,0.05472202719876599,-0.03313204014051732,0.0036331534748186203,-0.038076647495169536,-0.005784263949057525,-0.0623832377217806,-0.0012414777580200171,0.08441122751866685,-0.07639193982186963,-0.07477106184570675,0.049675860621562866,0.1724804635549578,0.021784202305275176,0.011160949862311507,0.0515864983364815,-0.034061417694799714,0.05480833443127374,0.02588288950377884,-0.13656974995040191,0.10703677090477953,0.06129031996198219,-0.026258842209530144,-0.03391487304107964,-0.023422233434766734,-0.04153389366127893,-0.06772049577693977,-0.031895328129520915,0.14232337595875363,0.019645457074877044,-0.11830598530747925,-0.06620400629511633,-0.034543850267120764,-0.02965799055425249,-0.11248416037730694,0.09460127333762594,-0.05375668571241398,-0.1144390885800252,0.059351071967381715,-0.027584273938256795,0.08600521802561147,0.05815049078188774,0.16500358213120978,-0.045494363899224344,0.11265559375475777,-0.10037753077419007,-0.03520090595635109,-0.045848538295123926,0.05061308874928729,-0.004440182325074052,-0.12918852885595464,-0.011284034964858114,0.12146135424061777,-0.06035843214424601,-0.09055477927222202,0.03711528223118766,-0.08161136398363417,0.07151131934558491,-0.09447613962836228,-0.05777876065030497,0.1092448275670074,-0.09171433752243673,0.07256313179075839,0.10561971407426352,0.026524203885800676,0.021382207095271184,0.006329866593469097,0.09685251957835112,-0.002184200902090293,0.01095160352961015,0.18107118195422375,-0.04453214783962006,0.1856668186374855,-0.06218431344479977,0.12876064972770943,-0.014549544458373793,-0.03798904074029151,-0.04696841103286553,-0.0031696190852258353,0.046849155991162156,-0.17734306838961444,0.046560259426103714,0.12116332851036865,0.17779923140686138,-0.12139905723551954,0.1110020798168482,-0.04421925179802173,-0.11777636959373076,-0.1583291618819837,-0.043503898092983516,-0.0435049080958536,-0.12936609199391713,0.12031459425394062,0.06348758866485972,-0.08983893521014358,0.12413077018899198,0.10129790955027926,-0.024906200412366766,-0.10242093164703554,-0.03987921609649106,0.1188554358960441,-0.15301662182952042,-0.09570348978923685,0.0058302584134777135,-0.10856871795247724,0.10924264776349754,-0.07463046499399605,0.06973744832116166,0.10955981654617532,-0.1650489990145336,0.08728439221043058,0.07201784839156238,-0.07366448172438486,-0.13772212064164147,-0.055604530845849556,-0.08776569124847296,-0.07337282562245002,-0.02566808574055852,0.01588567471811915,-0.06845977967217341,0.08352134498168072,0.025510184564120512,-0.018072592378516415,0.11149555484740903,0.058642961390767356,0.07488714885780574,-0.06782724929161017,-0.031069612096922557,-0.03417465762862543,-0.11584846370045737,-0.013009781582118376,-0.020552002727670823,0.023244994268420076,-0.16128136195760764,-0.039337503147299356,0.05826549828897921,-0.14007504354779332,-0.10589796854547917,-0.14571875663202735,0.005697866411089678,-0.007597294012244348,0.010385753936191306,-0.2361030905848484,0.10071833537417865,-0.0019897243089533894,-0.15719750185843434,-0.12281356787962061,-0.02711421524812128,0.016853541717598144,-0.11300331916942295,-0.009395453751111088,-0.1036632150749102,-0.04126574487323448,0.08533869094284094,0.04731387637089823,0.0833840853328431,0.11176376891423666,0.05166818969800386,0.04109733690508727,-0.08402406742370681,-0.11338074825080093,-0.15220665707378706,-0.0030309139507425672,0.07417381147726976,0.1227493101004058,0.03319954660576855,0.02918303827366669,0.03897546648006271,0.11222711150508578,0.04280508912297583,-0.10572933756223597,-0.16926510769176284,-0.005620141641816252,0.07032081210269465,-0.0366156395197846,-0.03185036194989348,0.0520439074235642,0.07096086545012417,0.03157238551048361,-0.009089490077622909,0.021992333373076423,0.12929703698068556,0.0024841319909394014,0.012089839202967492,-0.20812450977497607,-0.10197436558384951,0.04268541816170189,0.019068834373793603,0.026574977652515003,0.017226461305451808,-0.0262728685636654,0.049507666366960364,0.07698789387711187,-0.006799115001953388,-0.02067023078714828,-0.0056984395282563705,0.0431297897652825,0.050886585960816196,0.032922724813915,0.015227696346095576,-0.05620008370558199,0.037616946672854146,0.13505320515380018,-0.028127998098712165,0.033620812629551945,0.0261847550341795,-0.09606339104566566,-0.16785138789277285,0.11702198737186852,-0.13414072254120127,-0.11479646314097412,0.08741713975417331,-0.12308689710880553,0.16474503309578278,-0.14260326860872677,-0.012028717966796845,0.07480268522525642,-0.04503426269728498,-0.10639247751895768,0.08699003473581823,0.03343971056237051,-0.09491625526165337,-0.05511409483267701,0.16597532098336146,-0.040915956639205706,0.0032383934871784903,0.05144840271684982,-0.09175993532712255,0.02946165812946175,0.026481178669956425,-0.1623687022895926,0.0017067559366990865,0.01247043442274525,0.19831408721297067,0.04274045242906628,0.0269276402980004,0.03813255849807298,-0.001665838204270344,-0.04560578781715258,0.02236282137589035,0.15235377004736753,-0.12616062267331687,0.0046585175070685304,0.01876016643444235,0.13139055578070122,-0.1351409087939487,0.07295500471338658,0.01010718398464199,-0.03182003330976192,0.08431261037690108,-0.07955131263890934,0.006742865696925459,0.09934889059403561,0.07073494691098124,-0.06932020420181247,0.06479218138086358,0.007784068709425078,-0.0025392261921594697,0.03550887828403528,0.11015891776843434,0.15791539802397375,-0.06319387174475095,-0.09576210338100152,0.10881105882498096,0.016767398777292192,-0.07271669748796214,0.005791806538488812,0.01278104472991791,-0.055328178599776096,0.052342356685545564,-0.051435167188414,-0.01259586160266999,-0.07002353867075489,-0.12216924579496957,-0.01706789741572598,0.1968773622749316,0.1195280357900229,-0.06384943865281988,0.07977819172498161,-0.18872889263161552,0.08332583310588673,-0.030707567597853997,-0.0330317363139545,-0.0313879004625886,0.08259746187472453,-0.08605836325116498,0.05323442535648032,0.139530194052564,0.05234932643510497,0.12323688522747488,-0.0668798055208542,0.10616467250820424,-0.008244200500974052,0.007964514397095031,-0.0186168655311311,-0.06222247200804212,-0.030470997408719815,-0.0033486825038991897,-0.0755804352713925,0.13131022429206715,-0.06757102711222783,0.10058704581643546,0.062353986437590055,0.061361105306791106,0.03569608271378455,0.06899683843446129,-0.047649030947391396,-0.10085988166928012,0.09299749842949645,0.10950881424409648,0.0039208188267007464,0.04850694967500248,0.21233274845123837,-0.19101446162878105,0.10473485434478703,-0.006907266734301858,-0.09443167120282252,-0.1410760244662226,0.06349283428990359,-0.03104838467908924,0.11648515603928883,0.029516282712590786,-0.05823554830693345,0.14753434704845272,-0.04104566050471744,0.010535338147976723,0.018118957527392145,-0.017602765796548625,0.14065963555271127,0.002287306103400473,0.12355452459048653,0.07036303252105272,-0.03392389068968064,0.0035988509766892336,0.04015439916526553,0.03584109431663885,0.0180144386708192,-0.06831306382859789,0.034164889306740415,0.015206595355973124,-0.01828483002395744,0.043228452785091416,0.10364642286374925,-0.1745155961430361,0.04377664107757027,-0.07611466499490482,-0.0006704516604793779,-0.1841546799185006,0.10542179632555147,0.16129522798753346,0.0208026545909428,0.0004921934480093603,-0.09905954851166024,0.035718267704104585,0.016214270215929426,-0.0763787624207962,0.031515850731781224,-0.08587389170073592,0.22542118491828766,-0.004224638119377005,0.07614756817753349,-0.09952657887533853,-0.1406490391160873,-0.08849846647543608,-0.00010100534420398758,0.010319850944606425,0.08278442762025201,-0.17195757380956445,0.017776825015904538,-0.19023075424994848,-0.11325430643296468,0.05099179007732392,-0.08285501029837986,-0.07687386361756476,0.014090392958388525,0.041136865094715515,0.09469439946335914,-0.026250442153428453,0.05992886735424077,0.07212753550575401,-0.1363833482506625,-0.0006514906272533276,0.01847309573860045,0.06425417726193267,0.10498529989523725,0.06216912870646945,-0.004034730721286402,-0.01872354852447966,0.06761572632379075,0.07309835443388103,0.06744835831270433,-0.037998791247382716,0.13978088107894485,0.14972554737957838,0.15845560621281213,-0.06594245050414205,0.05029231735538942,-0.05364046599878942,-0.05278506298554684,-0.004356173811922003,-0.04954114136630837,0.09366571844044812,0.0642376845771804,-0.010767161425948213,0.06232872158799057,0.038096164451202875,-0.028774465534106213,0.035145188579539646,-0.01346648748043949,0.03304813122991552,0.00779367031427781,-0.043782368225983526,-0.15630188033540973,0.12713731846867754,-0.1267948223687739,-0.09768864962344337,-0.10899893816119334,0.06943457830715566,0.0734678885695879,0.21972932293097802,-0.11082211384198908,0.10994324732903742,0.01591142121261128,0.05569118071095138,-0.08391659371589723,0.009780740359472897,-0.03677108984525479,0.1412831068319149,-0.06956539833180903,0.023999435114713866,0.08065648381125261,0.14996822640577495,0.023825652476918716,0.07711634035248154,-0.019143459015234014,-0.06296748190499558,0.1816191722418473,-0.037354963534691144,-0.11308028643892555,-0.09709870885002823,-0.09802104129337698,0.13024014670617717,-0.03559093644394659,-0.03079170574855179,0.09934954513384428,-0.008667115403250244,-0.034548094827178355,0.12237581493553706,-0.09507513810666977,0.04703066351720413,0.020039636289187174,0.08080590856605109,0.05132403195887946,0.09580218718369121,0.10781010416714774,-0.17419572626669325,-0.02540483993533389,-0.010043451219504349,-0.005716025586561827,0.07579513571579939,0.10671539305739335,-0.26777305240087124,-0.025989397491169915,-0.09270912255464137,-0.041467164471892685,-0.0362426672443619,-0.1288840078386831,-0.09530733174133782,-0.11914383577880346,0.0163446954394745,-0.11634881422325861,0.0889109232366638,0.053776995884356485,0.06473912022489169,-0.029794362775343367,0.09297000869838813,0.08830275915141321,0.004897692554219006,-0.029245091779312626,-0.01995825412731611,-0.1282399225251951,-0.03436120589059848,0.13654576464842152,-0.06741249712821361,-0.07293938746476641,-0.1412977114140675,-0.013491603696673569,-0.029669440787296112,-0.1016721132877377,0.14473906968575248,0.03347037839933254,-0.06598756437603857,0.162106547024914,-0.004892084658141613,-0.07369726856154196,0.040064083535910434,0.14906873581290309,-0.06295156284242001,-0.10067140084390626,0.06695281649744668,0.010446995347345608,0.01569607337831609,-0.1987325116467638,0.06930838968210477,-0.1154373652155857,0.12882322098531032,-0.06348976693774198,-0.06519064627913884,-0.013611586103081514,-0.07602077816163791,0.04677445166498583,-0.06750256479663931,0.01665365576453759,-0.019479471862623225,0.07713200522170476,-0.0018456113881099145,0.06743356192189512,0.0495639957295165,-0.04719852414006036,0.07154570007773604,0.026762875231742648,-0.04288636743067789,0.19489929078930535,0.02607227200580524,0.192972192248044,0.022737629288774566,0.05575070100705191,-0.01533876160260452,0.011292376472504933,-0.04147048920772768,0.07005399233085231,-0.06891135730590611,0.012872707888248892,-0.07225500719660055,0.011903068513329975,-0.042283692805442745,-0.14073867900048642,-0.013636505080838352,0.054390174070585405,0.08918120936537405,0.10351407848874897,0.030208387541964105,-0.13432830967724405,-0.00345977106899071,-0.0450795020319592,-0.07891619958169999,0.12650276275929268,-0.07805742819594555,0.08446488262333075,0.1770268356054657,-0.10650261565228125,-0.10281820091522538,-0.1625562166537282,-0.0787303862614162,-0.002915149259254091,0.06394968685902483,0.0014908231963065442,-0.06141734023458744,0.0016015464637149598,0.05059602641690093,0.12982564135715344,0.11633651359905173,-0.05842127110892894,0.0059084652958857915,0.013286001862321768,-0.02499939845544561,-0.01369307934172867,-0.0794370561187313,-0.14994381971102466,0.12008853230804677,0.04146177235263589,-0.08713999034061425,0.04692172046497745,-0.08792767992501099,-0.038270813742194154,-0.015924361327294825,0.03543595426921604,0.1558762544551161,-0.00203695088998358,0.007430914298804483,-0.1155912298772132,-0.21144058068776878,0.09870123418484196,-0.02989886233463799,0.17102316475109677,0.002103817098593587,-0.06546515786489379,-0.018185812556621113,-0.138839158713349,-0.00913433069077179,0.08315172239804944,-0.09461522229732756,0.04236955387843125,0.12777355365675921,0.11743173959302602,0.009618692307972328,0.03520813791468763,0.013793720704892858,0.013810104754858244,0.11354580147430343,0.11384670912845388,0.1322668216374783,-0.0753903222774799,-0.0036432779414269636,-0.016879919893808586,-0.10648928366389776,0.05634671921736243,-0.11067429335228046,-0.0401565237047411,-0.13941262358838855,-0.039986969656308796,0.1309155814187756,0.0813923302811904,0.0977548878693528,0.09179107307308826,0.024163761019278075,-0.004601951369528421,-0.011887255190316373,0.03379590867333278,0.08740320022053023,-0.03783288973006329,-0.056219726023569165,0.060964701262094544,0.04953627621434288,0.1209194575967943,-0.06368469574825471,0.13637362523635532,0.045788133085111093,0.2877767484387362,0.2046744197975216,-0.06033923613267963,-0.11779731726431124,0.08917046007642984,0.07166911823439309,-0.1501002954867325,0.022277752366466914,0.028085357669575928,-0.0014284906197319439,0.05842815195256876,-0.08708194476076624,-0.18703858101306411,-0.053648181045692044,0.10942796393723793,0.1011761854963261,-0.07035812978152967,0.06162859241064838,0.01845694632373527,0.10965891638711647,-0.11378558163329111,0.06883517657629296,0.08606493089528311,0.11357411706939653,0.06890120980694461,0.09875706547704347,0.0066172653975596725,-0.22870064758159936,0.012199289255833853,0.01096754748834932,-0.17940532537234966,-0.006209168600979388,0.05136444003908474,0.07266487507796708,0.18847499508101867,0.08027049181509088,-0.10712994254422867,0.11529765922890052,-0.07083768811309632,0.048448586314421095,0.008569370190193545,-0.011215871642852466,0.0026967109010604417,0.08889544625661512,-0.165316071539682,-0.07125360298422094,0.027271526247202606,-0.016414350510440358,-0.07493319972921006,0.182741555915531,0.007652351044488168,0.13138902671433397,0.0271473341230328,0.012030548694001126,0.04355504729481749,0.12505375751686404,-0.08311423503844488,-0.017635486649600744,0.050147735011691244,-0.018418229513723943,-0.027586814055531293,-0.022488260034274798,0.10796591568465957,-0.010548221700329862,0.14117559623947887,0.005665335364382142,-0.08976745861822076,-0.0013490594184938534,-0.0052884260567398166,0.14997273271101563,-0.1495537364872892,-0.0577963380616873,-0.1372265307082113,0.0873058254801275,0.14039472565187672,0.10867893940843809,-0.07734491017981997,0.025668163538853307,-0.15049604276488007,0.11117440200103977,0.03685073493909412,0.1712953354616492,0.07705445031827278,-0.037746007246471557,0.11484224198795508,-0.014125269158582652,0.053671749753541144,-0.0898910599859173,0.01545023388271237,0.1276848598956195,-0.16830354738967634,0.05338344920593048,0.08855845273667351,-0.0306818504266415,-0.005332708571016816,-0.0552630374118032,0.10321358593403303,-0.022458953920140766,0.0085219593153883,-0.016596768969203042,0.04519417461206548,-0.025896410425453643,0.11141357453160454,0.09772766687295938,0.03881254025348083,-0.01196724099158196,-0.08431044878158903,-0.08708173169129237,-0.07663613506603136,-0.12664967714989492,0.2115426530390729,-0.03575749036874746,0.0704405371983236,0.021129459635875824,-0.023165867832195333,0.04070085054407137,-0.051630473751923936,-0.10042993573004722,-0.008999909019509556,0.006188359609500704,0.1869564768655998,-0.10010662716892745,0.1535168494613594,0.03881088338045783,-0.043237953443955625,0.14543870297840078,0.006198513422359006,0.1549193654591595,0.010637457444310218,0.10701209484263557,0.013363498266362944,0.05655370059732855,0.04164376910620242,0.1737856152618144,-0.04270402186658605,0.052564427051685084,-0.04505899958320982,-0.08736100855459336,-0.05016975622061756,0.08925603306904784,-0.024797345813409664,-0.08336760659463012,0.16097862297230456,-0.13258340083967593,0.032170603104979385,-0.13884708708990975,-0.18981337790977937,-0.11408779136349363,-0.03768605906771808,-0.02051401393114544,0.04748672939825928,0.05097628558223681,0.03282729811594234,0.12017035103669121,0.07509969879720489,0.018526923488414306,-0.027271525685366768,0.07212935943655095,0.06443324436334079,-0.08264608805136786,0.015557249848946256,0.013792337897764174,-0.024021459364213602,0.12309933752437717,0.06539127336948726,-0.03128433065259792,-0.24645982811013764,0.0077370732897746805,-0.04336072872147775,0.016238021281796793,0.06744483150082199,-0.17290496350007264,-0.01603402021237644,-0.05499554672150035,-0.05244803205384309,-0.023000116066188854,-0.020970566702055177,-0.014668602185379314,-0.08288826704870157,0.0084648819521794,-0.01506564247673626,0.06639827244626019,0.04325830158351514,-0.029730901388146495,-0.05320962826640452,0.13298766867876716,-0.14084549084457335,0.10768783192920849,0.1274458785156789,-0.055441833745529474,0.03695256974123497,-0.0650923393138758,0.023608419468892052,0.02685623571331115,0.1936744260193756,0.006602730028520698,-0.20273360855935937,0.03749782772646701,-0.0957679067385252,0.03248565905017665,0.2078786578610651,0.0795813103502397,0.09510749099136288,-0.007283725492286328,0.011114390740380935,-0.06377088773475689,0.08460527525225214,-0.050221725349020564,0.06320607038666946,0.13583895780517338,0.0404891693182162,0.006605701569345666,-0.03437544240965692,-0.05581813937488988,0.10663718127630839,0.028199154134132945,-0.04238407944707731,0.1087131643841443,0.043052318318031274,-0.053203473812686516,-0.025939330696926218,-0.07809998677022961,-0.08176387572049112,0.20636134953201035,0.06574598310048287,0.025145511201306082,-0.00888294456777017,-0.18452612253348946,0.012631780751740233,-0.09407408598583683,-0.09070592928593094,-0.101611572855879,-0.10068926187482176,-0.09958970710602895,-0.09193417447944363,-0.07416215619685924,0.1297979856888089,-0.15622623066472396,-0.016262575873965828,0.034817252173929385,0.048373195825541636,0.22563690716203785,-0.054291827543235104,-0.14763913231586764,0.06322835490201922,0.11141430322644516,-0.034898695155834894,0.08190623570680568,-0.14782979776891905,-0.0017126755704937476,-0.028033568013853538,0.135420194146615,0.028131894446920696,0.014131374142224146,-0.14099719515954667,-0.21277571321184818,-0.008831456390207014,-0.03781732653453417,-0.10661753225624288,-0.033425986073674634,-0.13073817167786783,-0.0006787497450810678,-0.04559382978646398,0.016635173994997584,-0.17579555569973895,-0.12655303358978695,-0.07234269876775191,0.025572427517858973,-0.13094628071863298,0.06826110477129109,0.07688595212076257,-0.07039822243032764,-0.07937873115359702,-0.002098140660403135,-0.012898071715710247,0.18330362614061757,0.07490338015525118,-0.060495272608424855,-0.07396455456363225,0.02076622559501752,-0.09253225750776523,0.0967907161336784,-0.05124775476793777,-0.03680767678960883,0.1250076704116786,-0.12699758416099952,-0.22650386621019464,-0.022463053803602348,0.032900143021801734,0.05990075284497222,0.05856941941760981,-0.1634094662582218,0.04425532937946341,0.10163651800051961,0.00402808175313891,0.10669258631487682,-0.10960572060568599,0.003363046859371294,0.06757005709765915,0.026962712242575845,0.02266985498531301,-0.001467424048616693,0.09688419681757408,0.13228525729118065,0.15739784830751172,-0.05317233919498221,0.020505682309361034,-0.07216074690338065,0.07062751205875402,-0.11050887211568261,-0.14574710716827938,-0.12690073811271632,0.07417612502891335,0.07535726372796493,-0.05520129299610899,0.06644961310801092,0.16487714493215122,-0.16020863338370872,0.10582354320356238,0.029113796657763837,-0.09062063187024347,-0.08555480675119972,0.019080239612912265,0.04002593548735535,-0.12135959776980693,0.05111859579785588,0.03605402683160522,-0.05339255258919388,0.09979159575437574,0.10770402878442285,-0.030503924844543197,0.009443586161650112,-0.03770319712988071,0.1199916637273377,0.05573899128742117,0.012617804500111117,-0.02462601758703122,0.0011947061372063832,0.0035962723016767996,0.0708916195791587,0.013550291661404083,-0.05415348481464344,-0.012944921466708302,-0.019630547406239332,-0.015008618685282672,-0.05789620329302966,-0.24664719645151295,-0.09365323595843171,0.05924477102298562,0.18876516079346412,-0.004178039340588522,0.0881492770960002,0.06323588742392516,-0.03698496135906751,0.03198256130211169,-0.0499210096659226,-0.0681493242817404,0.06151058851410555,-0.0590972435253619,-0.11632471286680217,0.17189924590310493,-0.14264826877652534,0.020664040473418684,-0.0011338482706615236,0.0028792214396723744,-0.024835355746452886,-0.13767201286490385,0.12643195260410867,0.25558965015911606,0.004314936889006253,0.11795651991791278,-0.11135553925697644,0.02180563608093433,-0.11763807797308246,0.06127015313535012,-0.11407050711220061,-0.019570727496435292,0.14345449978089292,0.08215276726243594,0.13192765433845502,-0.026253142058578757,0.2181268262003291,0.0015556475390939468,0.16385031891126545,-0.02379983695836421,-0.15983348123015068,-0.046961303331058725,-0.10493097056542522,0.026602947957603703,-0.01090710499747275,-0.14980821746376366,-0.024716630437764436,-0.11744935654470422,-0.16940512447909387,-0.05402175589373772,0.03596738024402947,-0.029802155120286247,-0.11360754855191148,-0.04107306955024938,0.05254112325652888,0.045799373581630984,0.06803657584518799,0.08236453298497455,-0.11323536956600833,-0.04697917566723187,0.1260215643714706,-0.05933238212814184,-0.35233241549758515,-0.027427462732720866,-0.005496485665362948,-0.10832512951493425,0.040117006470135705,0.05766160159519725,-0.11721732434317995,-0.1650061631106979,0.07965793965096142,-0.12965227147825165,0.1736128448006141,-0.014565886843748701,-0.009387137903855706,-0.1180268074010098,-0.06898088180115196,0.03147878019073317,0.01528772279114594,0.01642605219959313,-0.08523873393857605,0.1425964579043856,-0.013593966909831048,-0.03675300534039304,-0.022533056043684156,0.08316824233583239,-0.04732093505243172,0.06509517333147788,0.13264920119048823,-0.055643395285713104,-0.058683090878369024,0.055801186660655255,-0.006978031282751479,0.06079684577761906,-0.11630871922937959,-0.03211525983175669,-0.12958314981862196,-0.08988170545120462,0.069865141573617,-0.10223042922677023,-0.1153889330713855,0.005636988925416494,-0.10292951695063256,0.013359629105305464,-0.06483381319576653,-0.14720904707089563,-0.11617374744543334,-0.13822427011757552,-0.029699493998947016,0.04678269306438259,-0.036760093884313574,0.08379521595673428,-0.057261885882997444,0.1101605025961363,-0.060879792460504664,0.056853438325909646,0.02932605366326095,0.025622682995138406,0.12470450638065202,0.05591111478478537,0.08723941492102609,-0.02099721269353712,0.0789108521347372,-0.2330443805573273,0.035430091284658474,0.029262352484071396,0.14520041713662787,0.039375522445837016,0.03492767208932989,-0.04112374450686667,0.11997831554566885,0.00539071975526293,0.03814970758204794,-0.06283904981357356,-0.0371761067001676,0.09081072103977937,-0.004217364236681243,0.16671725958974307,0.00756902734481093,-0.02510004879403139,0.030087722924295134,-0.15503212298728095,-0.017546953771158894,-0.14961339589165829,-0.09657541510403021,-0.05604405386496428,-0.03543763171229862,0.040830133396299206,-0.04253400743313445,0.06488110905156859,-0.007316063408087605,0.023687608746927113,0.008536467764000924,0.1049550126615387,-0.1867509039212618,-0.06221850353434077,0.04018775897342475,-0.028392203990395257,-0.09290659918353929,-0.03924601322499988,0.04869324175657015,-0.031081956996259083,-0.05697429401046957,0.006438977833162776,0.09343053683672528,0.04271340643603254,0.021616571940807638,-0.11464364477923923,-0.017478295203702005,-0.16992267225039515,-0.08115104239586286,-0.0573004149520582,-0.07101529471759688,-0.10583283008178732,-0.0035571046859740694,-0.12943968571125364,-0.16815037311881656,0.0596453462973357,0.036387749925862016,-0.0601146719940542,0.06896521548908054,-0.07958129093465333,0.19049862016021726,0.1986510472153322,-0.0968031757266247,-0.01905599913116591,-0.10521232746755423,-0.07933186629898188,0.015933848908752084,-0.02028735795224549,0.10390816554616626,-0.03179365093002507,-0.23850273002791092,-0.062246659089605375,0.14127771668566588,-0.04167542694404028,-0.041035658244791384,0.04130666561392915,0.044499540602419625,-0.008295676291551516,0.08381215158239275,0.011731588686930064,-0.02466334441367886,-0.09796051283822031,-0.08417137055607737,0.0029051209462858003,-0.05120342410966255,0.11792014053898134,-0.01668118580141082,0.047050865994537255,0.09658156100654465,0.11807281424443708,0.24487941329625595,0.07096153465139447,0.012660966176317517,0.019291950389692832,-0.016955642666679007,0.01066455175808105,0.1898718876310421,0.012700328717686723,0.10168907316759333,-0.035230169107930726,0.03641102621143187,-0.12251783820760438,0.24404781671011602,-0.10248978946762928,0.06434281241958612,0.11890292817220503,0.011305491869708827,0.18449448626442758,-0.04900980787137642,0.00761325571513995,0.10911320258707716,0.05750286343666656,0.009345373505028965,-0.000701848885041836,-0.04483816564871591,-0.01690496005870184,0.07007496324378695,0.0752816242869539,-0.15010072610802092,-0.1983430768913703,-0.024525041244877446,0.08685260750978573,-0.027874146432014503,-0.012700330175833946,0.040701525003939754,-0.11342997431934765,0.037691889060899854,0.08394426258079864,0.10527864139359745,-0.07359851420145858,-0.04742186981280431,0.029029773757531754,-0.004376642872464526,0.055155746582832524,-0.015194861561618917,-0.05332201594288415,-0.1287502259554051,0.15015240801590693,0.18822369505223663,0.06895845225828266,-0.1360091692566716,-0.0003289932076747112,-0.16737519102388002,0.0677387963709189,-0.03047256405343497,-0.03892543898628754,0.10142899278987312,-0.02345416675384537,-0.07334168682957348,0.18791944006637037,-0.05500072460976788,0.11926575973422028,0.023674956494846675,0.0751742502528794,-0.12565989408124925,0.006435523487859824,0.1263163635691992,-0.1086692066273455,-0.013462848481556502,0.04185441848500108,-0.15433385054470863,0.09644748280269198,-0.07731988439270054,-0.05098373789283046,0.13254821382085252,0.10487736925798459,0.020676389850790514,0.10914131943092413,0.08016916854105278,0.04135281546711576,0.014985111239155071,-0.12465150874272239,-0.01764820309212472,0.06802336531955244,0.09061498186956973,-0.03384075752918664,0.009011350489669844,-0.049620759039373255,0.15952507227830479,-0.004270748996460512,-0.060831597891098974,-0.20995979975293433,0.020820539465998926,0.07048258302370126,-0.17824438041358825,0.007878752414906431,-0.04533997603908426,-0.035684520580609946,0.057781892953577,-0.044763016424417136,-0.09750405986104682,-0.006321757789042531,-0.021249315192062416,0.07524373127302614,0.02399091762419249,0.0545171369996542,0.023941685210290616,-0.1274536337189702,0.04336149053170137,-0.21961705534507536,-0.1748558143410683,0.05220145460895328,0.04276409560578706,-0.07761594269171093,0.03108785043378154,-0.07788111212722537,0.10106406874065946,0.10494884655213052,0.10999192092723725,-0.11821430721563006,-0.016765120714759132,0.04867471707653572,0.12881999441170214,0.16120372256151302,-0.15184049902258503,-0.07293036973403107,0.17638225774717708,0.015441329925457692,0.03889223436093164,-0.10433432785901671,-0.0706312775816657,0.1272791052313478,-0.12355184526461116,0.03195346365092377,-0.016443895791987094,-0.0005661930597441394,0.22521764954005924,-0.0058941727880273236,0.1968629937543167,0.008097302971996415,-0.06998486989228483,-0.03115637777560622,0.04056136808714692,0.031172617389095082,0.13056964797693435,0.04682584841104778,0.08597837682434668,-0.06454141090344083,-0.015016908735352377,0.07130147224303618,0.10102159639492693,0.16903680782561292,0.10227028690800996,-0.0197640620071335,-0.07467996426772952,0.0012434704802765724,0.14326742339284512,0.0042151091757482466,-0.059750093804694676,-0.08406319860791056,0.06916804256246947,-0.04280968567207999,0.1917074956631313,0.04275754836619507,-0.14331696175081332,-0.13627471763041032,0.10557032800926298,0.08378787294731874,-0.14425815330757674,0.24481328860015647,-0.015459676208788273,0.14217711960282356,-0.02081985085592845,0.06955681910997612,-0.05086848177087623,0.1075194172652268,0.18561279421438412,0.015798712154329732,0.16379841053905664,-0.017919112858424936,0.14683302429066963,-0.038665211457965205,-0.06778530499558227,0.014425188976003003,-0.023051183645398193,-0.23267468729154017,0.14895920096813725,-0.01011049642665393,0.07448086673602378,-0.1070739703750381,-0.08657221305947334,0.05348061512635097,-0.01780829811558245,-0.04431263973894923,-0.04772876923340001,-0.12319465099982803,0.1729733949626526,0.06658416651580405,-0.02074273068110718,0.1782398242978278,0.10330467794337707,-0.04971917092951158,0.16228338475822093,0.06636337270890519,0.19441126662892846,-0.06635049759053908,0.1011517203039422,0.06101311184096156,-0.10198474007979323,0.057322855582597844,0.15270318806131702,-0.10180577098913564,0.08530195091113524,-0.062274385008153604,0.11727135160239963,-0.1331316097277078,0.006935426920317465,0.09119244287333164,-0.004469970459783611,-0.17022164172814394,-0.008656025781052491,-0.08795119937389607,0.12671118182880053,-0.00125204250681363,-0.005009250899654212,-0.049617396551567126,0.17926534806756758,0.18574704183604843,-0.111811185140578,0.04854884764299463,-0.022604461443845997,0.19876693698348122,0.1427695103472969,-0.02932144316853528,-0.20651049287575787,0.13694935967345126,0.07005150090639453,-0.1277497014163669,-0.026940444951050666,0.041230251069171116,0.13619204592935139,-0.03209720395476757,-0.13499303022293288,-0.021265451626557384,-0.08310659575960684,-0.05506287716179037,-0.03171049467643382,0.09465209488052023,-0.09911390382286166,0.04360800016879854,-0.056144540507122385,-0.035656981832985185,0.047750976850850196,-0.098467261361191,-0.05952392780695229,-0.049580156757664355,0.02430586530566232,-0.04143752193014158,-0.01074198370238512,-0.15357833707227198,0.23335995950752395,-0.13109367652159984,-0.15346259837947643,-0.09828566027824061,0.008972462501871432,0.028755334387658645,-0.06156058378848216,0.02274602405918682,-0.02941229975886986,-0.08189928693659801,-0.12986508430294877,0.03883950967703349,0.007746793293493052,0.019417043598258906,-0.013498037198161863,-0.08875059274521989,-0.0503103567668657,0.01171744043558681,0.027038940718287125,-0.044034223939865905,0.05119382876157062,-0.13012231619120443,0.012772914102552173,0.13583766557168678,0.022828207782954316,0.016429871570083757,0.09627184220527343,0.0032444272522203018,-0.02626418088525894,-0.0036438204310178146,0.03716935312519302,-0.04363495574100761,0.10155763885062075,0.006849125130029103,-0.0645942984776849,0.1376374828687138,-0.03608538944955244,0.028126121293194067,0.08340104687949906,-0.0672541013844015,0.08645622344440476,-0.0037451047978049943,-0.06978404527500054,0.01898640460385088,0.009347854059675484,0.007497024902241311,-0.05515053356054448,-0.09683168126343379,0.0012936894840043644,-0.06668140379394591,0.050861336685603206,0.08982595841629366,-0.22215433240554106,-0.010510545687977412,0.0008511807788010403,-0.2647891365463963,0.001194176470684666,0.09450233330867135,0.08442612278565749,-0.06215853748938646,0.041989354917116244,-0.03338827193482555,0.005258740382654462,0.04812777942203259,0.07989871891743537,0.11991305312532156,-0.10078320027605979,0.05267683431036255,-0.027653849924868225,0.08455392549074826,-0.013573320465964597,0.14900428208609567,0.007552114691801331,-0.003580298038125849,0.01733142695270285,0.05170993111552471,-0.04392418878341368,0.08485405142690221,0.03747501681062775,-0.08825270263066101,0.07596512231953617,-0.024169313929832764,0.08819827073771865,0.14944447426297114,-0.030973199773924265,-0.01745905257073383,0.1321290010260856,0.039403496855787035,0.13520416884456657,-0.0772783385949517,0.13822793631992925,0.0928037203562433,-0.07950869511933906,0.00595334469026509,0.1682750373750491,-0.13007257502662678,0.003356590950779503,-0.06643263420373559,0.006951084148346848,-0.25368786365700313,-0.07874060593538464,0.0063957591142269074,-0.017277842568264843,-0.2582707807260736,-0.021450857651853155,-0.0341139423134518,-0.1476392292424695,0.0003939802701469187,-0.11883452443081141,-0.1243500662404379,-0.025779043417508297,0.07386085902421037,0.20284456997694877,-0.022796656699025152,-0.09628011600114482,0.04953390947064821,0.07616026317415155,0.1208505600920704,0.008972708307594756,-0.026817792366655078,-0.0944659222798383,0.036485753991059765,-0.09280710430361012,-0.0601575752043831,0.06270783542845394,-0.05242697003099103,-0.03446775952110665,0.13816989160015308,0.0022076674556199137,0.030570162801232467,-0.06395853628600681,-0.004411103345349488,-0.012675502583805901,-0.07072963304422479,-0.09552278203118743,-0.0347546977718376,-0.09545254519485083,-0.03299453009822408,-0.053419806455519595,-0.12346514012996428,0.07885990365999135,0.13733373253494235,0.024690871577221586,0.09226322019207557,-0.10389558852461026,-0.030483839138801157,-0.056833102276320935,0.12086524646539612,0.016172268006037886,-0.04094828508488327,-0.016910663377151598,-0.11192384920012524,0.06310759420142105,0.13453842798923743,-0.05390418098944013,-0.022961893812542877,-0.025157267288705383,-0.05358628039048866,0.08952302329941007,-0.06408026728690357,-0.0395888897484413,0.1385213719842446,-0.08439223815766454,-0.14385999256602955,0.04544767937349988,-0.09688915079101952,0.09256289535100984,-0.0006218520228689127,-0.03694908411031784,-0.012697200242506496,0.24260413011684961,-0.025182834674483928,-0.16026420016338075,0.03540922509759747,-0.06399620540528743,0.027546555500657134,-0.01442425247198415,0.0143816660486608,0.10494457919342716,0.02053592117041143,-0.042533148377883676,0.035997204331569777,-0.09450954803201078,0.06974039320104308,-0.01389636782587185,0.009583989612521162,-0.029168449967245904,-0.014887354770174083,0.025744401847286,0.13962237399799615,0.05424839261082776,-0.09215843278887081,-0.09553497216021327,-0.08400932411943403,-0.1571042563285255,-0.07734757400664118,-0.02753380801747772,0.015427698598310677,-0.03906229984108655,-0.16795176341618998,-0.032442658357721116,0.15377722062925406,-0.04028238152831929,-0.005601183287736446,0.1956981592321911,-0.028659220008698357,0.11424478091298651,-0.021265291234840576,0.06749810490504335,0.10810382081651683,-0.03848253431645769,-0.1308831412254562,-0.10219113368005268,-0.10030188899012425,0.02387614836370808,-0.07650469715497518,-0.042879463456809624,0.14420617841792643,-0.06132435227355423,0.19339431464116272,0.0035318996520860477,0.07468683213836674,-0.07634588502490297,-0.10781787906080788,0.04159530856762794,0.15712809721739188,0.09029627606780483,0.14148708887478023,-0.03402718878967545,-0.08752197693455223,-0.01044717985791567,0.005341928420182785,-0.004020635558954974,0.1467907690199612,0.026169572376907865,-0.03914061342362863,-0.09390466502705082,0.038249314972782736,-0.010210799506240851,-0.018073175894361703,0.05645373449577244,-0.11977770564681918,-0.09077603168326338,-0.07789429760524816,0.023420405367733856,-0.1118591187992224,-0.11714792222324205,0.07042205029323348,0.04799018798224889,0.04082047999117448,0.011347247238106921,0.019463219431449106,0.1601555690126503,0.014392609473757837,0.11199725503189933,-0.16224107534338317,0.012651050960801843,0.07024644687821584,0.07613994404301798,0.039927375090937085,-0.005420285692565028,0.12577227367898677,-0.07789526913303381,-0.024346757312804643,0.1924232713286863,0.03344397931497464,0.09049112074563957,0.048475237574886754,0.033507260593415536,0.019687222830628574,0.046409749537087513,-0.05518876690113699,-0.060280265442678234,-0.11519276469092966,-0.020842256020287938,0.09892705630508151,-0.009761464370866193,-0.03034006480879957,0.26523656961002157,-0.05164032166946736,0.04973281277628878,-0.1083478275638585,0.07334726838897555,0.020296071821849157,-0.0482763854801878,-0.013455122621819976,-0.046709468015502416,-0.15689808519624077,0.03787596068595088,-0.050781253353889645,-0.1799013773025738,-0.14786572622157504,0.047383834300697966,-0.0581977223206087,0.02320407926049796,0.0025845213408373095,0.03845341941776536,0.10350130655493685,0.11652047646160923,0.11892264645887499,0.0057140788088369115,0.016240309164876728,0.044810036113630144,0.019760075433179772,0.025872735987594687,0.06481162464740459,-0.019513932225406896,-0.1557240145003291,-0.13874030238863438,-0.1020930081510356,0.3077269626716091,-0.055311196975357184,0.019215706872946717,-0.010612100707513228,0.08685869025644925,-0.04837352416871727,0.08828524257408352,-0.0008322857356210146,0.0757074674910512,0.011571189927730943,0.004928646192650065,0.029170209460642384,0.06768658752306167,0.02919272621123878,-0.007769707371665192,-0.1257378992862041,-0.18065264448365637,-0.13501531334775482,-0.06818200965351995,-0.09213703150145267,0.07830800674629243,0.09193806690603945,0.09304230570799549,-0.03753307689459921,0.06535310508054139,-0.07512891482127661,0.12397795878327242,-0.14674303793590068,0.031381537137350535,0.08005478294899405,0.15197539855731954,0.19319577326529286,-0.0030248783433352374,-0.1528815889816308,-0.031979079459127854,0.04092728537280019,0.17940809247822698,-0.0587504729866813,-0.016363069710729643,0.09113419674359323,-0.015103706547256264,0.09140722508155674,-0.026146315535543162,-0.13662952287208877,-0.0389965110345221,-0.061532933451643804,0.07151194209158292,0.004445062421251421,-0.14512305085376032,0.08308390751308564,0.09069233137043307,-0.05495768621548166,0.031055117925530826,0.10475159371880366,0.008853399102792515,-0.02629273497924603,0.0011705971095211573,-0.08804855339630904,-0.1301257968431785,-0.007682237160936128,-0.23077245501294968,0.07680877950191155,0.13563583721070843,0.04886816673137247,0.04119723269102988,-0.08657481334557246,-0.1913598729606559,0.036824776483566676,0.11612216534488602,-0.09850773769216636,-0.004599920511532955,0.0652196359518932,-0.09291051178547614,-0.06661699586060055,-0.06474922912080305,0.010887827178453428,-0.12752926287514516,-0.06589801678804913,-0.009262170926174686,0.05112932506879267,-0.004931554449841338,-0.0028909403187959465,-0.07448209119467375,0.04850035818524549,0.025163181656727686,0.1152789423943162,-0.10518662344079206,0.13168269089227938,-0.053509512784842624,-0.0764672514387215,-0.11970821976590093,0.02297107267034524,0.17598226219582075,0.03227439893894939,0.08262751967278298,-0.012474674751183754,-0.02260431794680366,-0.044020656506519124,0.09301772474631163,0.1715633791857281,-0.16910441752293004,-0.0024745271798213963,0.045985397218522975,-0.0056027921600148335,0.0900329974902853,0.0944868293983283,0.05281993279406834,-0.10971999505172893,0.020408588276198656,-0.07632042764067379,-0.027317669119919598,-0.024964393269880245,-0.05971518956854124,0.04815202606422793,-0.024164178916468528,0.08439412234449903,0.048245581669864514,-0.008220600266424941,-0.02894515801334794,0.0013799216794956285,-0.05624402733573491,0.0824686277753444,-0.002983866890153021,-0.04187590866442609,0.1690090991333245,-0.07083368735270727,-0.11211483363810755,-0.08167361747236894,0.11179846427040743,0.04792903324341624,0.09575355856161155,-0.15838935909224666,0.008990243604455666,-0.2028735435632569,-0.18203091305724123,-0.08733727594948318,0.017115269060183055,-0.09173890011782042,-0.14977331261995858,-0.023969332982484434,-0.09800578513264868,0.1438085629291557,-0.0168245784061498,-0.027722088782909188,-0.01934155014916646,0.06557941260014412,0.13718189597714983,0.1039273088424019,0.006647722679714516,-0.00047267411671199274,0.02406397768648692,0.058418167743419035,-0.1460797990233209,-0.0340056367146784,-0.17765133376254016,0.19920188550197776,0.06370589512103779,0.06684328178441445,-0.15863510256862717,0.0040197881837788505,-0.07289121218108165,-0.11887670212306332,-0.04401132953448336,0.046872422870325336,0.04764084439344402,-0.0529052441346241,-0.11126318406453488,-0.0695410064285943,-0.06613703574856926,0.13613164015389786,-0.09353853557863451,0.11320288929108074,0.0038406470583769886,0.13730047161394382,-0.07676310495790373,0.18888775674841546,0.12190001074470767,0.01868991990325899,0.06376124881178025,0.12674261635766093,0.10006530439188675,0.0955585780257743,0.03567740791300971,0.021208903418210114,0.022509669101732882,0.132419461563547,-0.016242587141044214,0.09285873912668939,0.07972901617499567,0.0007617709777948314,-0.06944872761099971,-0.024926236426920788,-0.04582944198826143,0.101886725444141,-0.014282520275218131,-0.008582288368079755,0.10364274396271252,0.013272595209289842,0.05009980033671206,0.029886524515415014,-0.020678168060603987,0.07017008250800624,0.06967152337283326,-0.07978287333108404,0.128158368752402,0.0687974834109014,0.09493058022384719,0.04704925635196486,0.030845273774115826,-0.1208005249121859,-0.025126971823088647,0.006174610517556567,-0.12490296584292918,-0.06038036969558904,0.0759772018728549,-0.004818828782982822,0.10294529637100494,-0.025174155428445467,-0.01648004809529209,-0.027196393982094464,-0.046629040350828724,-0.18314100337746206,0.00939598218618764,-0.015802631206343527,0.15435700980765582,0.05139960842409316,0.08950782016933789,-0.0933776053292566,0.06416775062898303,-0.1688567428596606,0.1468876217453302,-0.015525323569251081,-0.009951975035959005,0.06762778867457334,0.03704635307263584,-0.1162489286531317,-0.11750269437980748,-0.01848214106347549,-0.12419855111338556,-0.1020782336627256,-0.16498576383765529,-0.13281962677128234,-0.04550457021200259,-0.12201580298922594,-0.11585025329261235,-0.023474445728635232,-0.19157143126906204,0.10314197009839092,-0.07493980005616072,-0.12677066304302037,-0.04043758560302126,-0.013228366742001202,0.14127175688674729,-0.02982434464927969,-0.03521931682740477,0.09746593002613628,-0.023623480199447214,-0.030449563725187912,-0.07261364229772653,0.1782134931241707,0.1036073839104201,0.08328057216001454,0.009730712729955203,0.12451999808399392,-0.0474708442645159,0.0015700755416686067,-0.08472530507838245,-0.004495927823440457,-0.028723150349033902,0.062418915525371745,0.0581890222986904,-0.14089038603467147,0.091423591064959,-0.11046453751658956,0.11686846804172389,-0.003151209619946209,0.05977426126016632,0.019349502101292815,-0.10743080034498811,0.07376107807676462,-0.019932185668243865,-0.13732828239885092,0.07676902750220031,0.04055725363012862,-0.07268625924406114,0.038219314079543744,-0.0006699734982055221,-0.026270402364038395,0.165456723123651,-0.04572315604568298,-0.17201838365925168,0.12913826281860186,0.00485188348992325,0.11715758236025048,0.07836790816631749,-0.0618044699574456,0.03248719302670529,-0.16365780212384365,-0.040167072924662865,0.17539151349492174,-0.24278558361658575,-0.07121564824232302,-0.1541938837288174,0.03002800688575901,0.024852674522421882,0.2381241133010354,-0.01099100289943848,0.03784649723814203,-0.06752817525817674,-0.006544980977386643,-0.0390618897835292,-0.04327558774290594,0.02671749327326213,-0.03099059856983632,-0.15601328617613902,-0.0777181372018537,0.14571383863839116,-0.04911812744758416,0.0811232341296896,-0.07079054503950849,-0.12603899530823195,0.04239101044860591,-0.027121246162492202,-0.0004344187505497338,0.06953381987450079,-0.06718012428093402,-0.05957825475022592,-0.12259321795736197,-0.0895668473661693,0.1170514912493437,0.05221654300674849,-0.00822064732232199,-0.05411720634501956,-0.13758169624230682,0.02261765906542466,0.07012503393700435,0.16170553505568078,0.16071158689538695,-0.07435349460022934,0.0362487015541922,-0.08399462611514537,0.10104800470322758,0.038400505466348336,-0.0026633197360862856,-0.08014788969667637,0.028362850270195753,-0.1164577797102536,0.006071110720973864,0.020594719416354497,-0.07031514238376076,-0.09035515284951857,-0.0476670036080094,0.002125580330787536,0.06327143123544494,-0.1755657325631536,0.07323326917734901,0.13715614825137956,0.12018997931822023,0.09211938088040589,-0.028833373956894916,-0.11869169962327587,-0.015089764998191743,-0.02500024720927268,0.04453760523471921,0.05320861348414957,-0.16502517527520083,-0.24566853088582039,0.05333518101370098,-0.18231128209443428,0.06746674999965607,-0.13377381328528665,0.04153654758494524,0.06060042758839046,0.2068616979058663,-0.13800915106161774,-0.034786700288989676,-0.02141747955949366,-0.02044915044364991,5.7306872812078413e-05,-0.06631828787415714,-0.08991849294133768,0.11233345559135581,0.01773843925168715,-0.08508179575437164,0.06505109476408928,-0.009917639837020605,-0.0019592761772642157,0.06917341736218058,-0.03326620512182843,-0.04304779256317747,-0.004222837370262414,-0.15387161025459278,0.12355596145088085,0.03939384647767582,0.06795211158638595,-0.01388295674882707,-0.01104435309822102,0.0956730436294571,-0.12675024590011824,-0.041332286081418285,-0.11664518959641629,0.10271683608383418,-0.11701512207003045,-0.03828100988948379,0.06590011412156707,-0.022448074130690505,-0.0019831529697150376,0.17596967724047322,-0.09627656505159607,0.03433636810379483,0.0360288482386587,-0.10936942606713687,0.10291833523952736,-0.04092681576084157,0.023949777498884835,0.0654621143800881,0.14072467732733202,-0.053134974849932355,-0.017254323214758827,-0.03852253577257348,0.21156656553018868,0.034788444235984456,0.037957023572698964,-0.2659880088955299,0.070075393272986,0.04568078225239904,-0.04794732394064821,0.12084619412719418,-0.01141709818574709,0.15373929794470859,0.08652860264847392,0.10199165459833553,-0.02569564926151878,0.14788238707348886,-0.06806935444648832,0.07074505495100858,0.03177881944462905,0.04642520888617958,-0.02939816361714971,0.04401391560532735,0.024635797760375243,-0.0590451665082503,-0.037415342425763366,0.10750968770295288,0.13313556615617475,-0.1266138723322322,-0.04406521461060031,-0.0031941503489360695,-0.09897364083686587,-0.1068311502512775,-0.0170046331428637,0.11209129906333913,-0.01089645902276762,-0.06677328302812867,-0.07201827739677764,-0.016488841488575982,0.0039018359896557412,-0.2741182241020313,0.014771277292092785,0.1927775104929662,-0.1646641580200264,-0.07123185395052305,-0.1302678526235963,0.01780872582059101,0.028164633188523937,0.04085231042075674,0.023994146698784503,0.03670602335693704,0.08276426074400309,-0.10359628498911636,0.0583217574323752,0.01500850901311413,-0.0816989441647651,0.023914703219663595,-0.007644801432120833,0.08339838001433966,-0.028054208331103156,-0.010335256474733661,-0.026414774147285044,-0.005917409488373413,-0.14543112683052947,-0.10736414879982727,0.05407911705958184,-0.1451453448121602,0.04248127542043697,0.07676538152022262,-0.0550019630491708,-0.016830814481226763,0.02768560542652083,-0.012374120201302267,-0.0655823670615618,0.1263887581229343,0.026989670545535457,-0.07891369894258378,0.10445333506229029,-0.10391894373348237,-0.012649327809337049,-0.01162030034730459,-0.051236336490115726,0.11567506305977161,-0.09791112153401989,0.09544332920399382,0.09849258677661528,0.033379440213393695,-0.02819094175076166,-0.12405398976523688,0.05744917968851159,-0.039622541389609724,0.10528245543317977,0.09486751599045079,0.023478646262106835,0.04754999644322677,0.02282657600600617,-0.20988025104165386,-0.08849972263630888,-0.08125078762059484,-0.03577269634508559,0.0321475058666017,0.10895673078007698,-0.08877116450365319,-0.0916629981296424,0.009281621840266785,-0.012426968008486227,0.03448183504403029,0.010461313316448935,0.12270359330759324,-0.07740179323353105,-0.07283728417912978,-0.022409139428322216,-0.006033693671289699,0.0055426274528417845,-0.02813119201550457,-0.07568524328656136,0.02332586644023686,-0.006180997745573345,-0.08417673973969536,-0.08788921124154413,0.07752777757853242,-0.036558941001258206,-0.01133662502316392,0.16379358790604226,0.09338696720749891,0.03378355978915521,0.10384483805930496,-0.09158122868275423,0.09839677696679494,0.10484011106230959,-0.11483983609188299,-0.0404957438661256,-0.021800811112138455,-0.04372212054619511,-0.07861466795233357,-0.204997680393257,-0.013973840989897663,0.012876797731004726,-0.0703233469110068,0.0020264000344514758,0.08268962020606276,-0.05667491330907122,-0.07063802324395814,-0.0982736062466062,-0.13897676737388806,0.22305593171420066,0.1881012617473486,0.049460827184178636,-0.07940580200417949,-0.05525879484567314,-0.08430853400067925,0.16620889895065766,-0.12253052343770383,-0.06849477994133295,-0.03128200409233328,0.2706696156836568,-0.012346734886936555,-0.1658127121811611,0.0007543258247500595,-0.08397601709553362,-0.02880467965993292,0.0746477055226414,-0.10944788954284786,0.07189484690968462,-0.03510133629408237,-0.0908771112564403,0.155909682082548,0.09246647802100977,-0.22334650337518153,-0.10506086435636774,-0.01817167665383132,0.03498575256256004,-0.2177090342799026,0.12556569366843987,0.12098963599104319,-0.029743482055436626,-0.05569213154190479,-0.1556366617266888,-0.14971741391668703,-0.11253030626666612,-0.044035849682136446,-0.07358169312099787,-0.03908518731429658,0.05436165882433594,-0.035715310256242756,-0.05010561137385073,-0.02784274093221646,0.04553134306394031,0.0464935096809196,-0.04459946056046173,0.1510941163400058,0.048755066150225256,0.08412594828405326,-0.08485265708795493,-0.02771263314255857,-0.11297786505504025,-0.01739264487782216,0.00528225147742325,0.14779888611315042,-0.18108118341727028,0.06053078097966368,0.026570877644226085,0.08198371191726476,0.00831469712254876,-0.06581733713988219,-0.05483735036491888,0.0035983156044624787,0.06726634055008111,0.034684408127707005,-0.04607618744227303,0.1622317388868716,0.030186071700793723,-0.010290511122666816,0.09545181820820721,0.05288872847015758,0.014940226950192426,-0.10104842746233397,0.11085681696004143,-0.07072545263586606,-0.05929862129590769,-0.06586688432323158,0.11634379291116279,-0.1937081997549651,-0.0603907765644811,0.09735313839350258,0.1187957345924248,0.06320869871581145,-0.0011518238777273946,-0.05407724805309091,0.010287678450743725,-0.04114478154931421,0.003809753404166089,-0.12241650112416765,-0.014803914531934293,-0.009626577111833644,0.08023018052263964,-0.0684477107241059,0.12596668826279167,0.23722085755160746,-0.07500223346587104,-0.06981013448555012,0.09645844429765828,-0.035489435924562995,-0.18469204109198537,-0.13547673388074913,0.019756404208562756,0.07216067377620275,-0.11179009734501959,-0.004634619649859045,-0.002898419996961794,-0.029741115974072446,-0.10788460205753828,-0.055826326167574866,0.03514531079459389,-0.017332836836630276,0.14581008838973783,-0.1224470124764327,-0.03821600327345021,-0.10664749638926595,-0.045831381843444596,0.109874914262602,0.0626912789533166,0.08382500524580414,-0.0033142699220650904,0.10460193962575026,-0.05252640329278383,-0.008984131623389706,-0.04936684234747711,-0.04039508918024879,0.20044595178069954,-0.00010891463610116552,0.039615582931731834,0.05563848445843612,-0.040450240687744374,0.10303339521337201,-0.007538521377064253,-0.013733345400117277,-0.11627008192806376,0.0388627488033705,0.041748187493320675,-0.1627460361210422,0.08991774293827845,0.024155641775243982,0.13469432566751172,0.0377269505564311,0.10423136813441795,0.012261495657932532,-0.11765637136318098,-0.08523890287792316,-0.19794304833707305,-0.044753698637575466,0.09336101379475568,-0.05366654006492537,-0.15554727287142017,0.005296529394223721,-0.14984245158168738,-0.03845752416688485,-0.08444898317903896,0.006511637773324148,0.12971533922714518,0.034022585622192646,-0.00738333360604579,-0.051400446902443,0.01095039711151339,0.07496587847654218,-0.08727237917896186,-0.08969046644573148,0.011474020634693567,-0.025422474494097375,-0.08691722225014556,0.01466817572068221,-0.0032727306877510334,0.04128021154617949,0.18224309101483346,0.009949281625857577,0.02254473892825203,0.07450822842038926,-0.05574135360256351,-0.05867464730203305,7.900663122492532e-05,-0.09956477196960353,-0.05613312501573329,-0.14384501919640763,0.039085176751131816,0.02176050815550652,0.05420106242848997,-0.0282419757434332,-0.029120292887780945,0.08209648407235004,0.06617772161094321,-0.06222942062891795,0.08490785167465277,-0.004221128215808106,-0.014383644248908683,0.08380134546431234,-0.0919669103113015,-0.00952739631518181,-0.15781749138150647,0.08896500548181098,-0.05264219484388821,-0.1545771414712722,-0.15586419969316231,-0.11872144561760942,-0.007308899018047694,0.11641965993266559,0.06517382635997944,0.015386299663640458,0.10654923951589333,-0.1577046908599939,-0.06534152648518123,0.02626741495168018,0.053219368189958524,0.028401329547105354,-0.045740090060201924,-0.03798962720196282,0.15473072490750106,-0.11245474339378643,-0.022215790608508965,0.12118312339682559,0.03430378368647752,0.05501993869947607,0.08373939079861759,-0.0037035384632029345,-0.10168704040194386,0.13971103100339943,-0.028797338313096464,0.06156264937110781,0.009937159708337077,0.06939379802046462,-0.13575601935785356,-0.15924044853888691,-0.15863906059207253,0.12864710205700736,-0.08348693439520212,-0.13890433218826473,0.10692574776735646,0.0425258970485588,-0.06817172149659217,-0.11077367508075088,0.05517155117107248,-0.052137871487721706,-0.10107786348784864,0.11759957910041915,-0.04103410108698477,0.02794793202659128,-0.08462181465698483,-0.14908312398288961,0.08797146468437843,0.10097568319706975,0.14571978425446816,-0.008222128940393394,0.0763864954282912,-0.041751409472065695,0.006550974326479675,0.018771155429461103,-0.043391067604120655,0.10434811807036688,0.12217753986071621,-0.14582959360412495,-0.07602217318515526,-0.09532016558011884,-0.034444500289712035,-0.08691788488768487,-0.14997606517168985,0.13293664066530936,-0.2505172967843498,-0.10641404764998091,-0.0014112381482064252,-0.058783792544914455,0.19170599705413813,0.10059071860668556,0.07846494821959053,0.048863424042869676,0.12328915823245132,0.14557804132573937,0.044855540378448605,-0.18147583414053547,-0.06954922603962327,-0.007305487788504451,-0.0017813487968675267,-0.09442670710354145,0.053938119411762256,-0.08195763695117952,-0.09929490510416654,-0.03215694019538093,-0.039499953499614354,-0.0799318623097622,0.11415377163239812,-0.03889093591726403,-0.11272433496183618,0.052820426171101026,-0.09282036373529343,-0.03577933338507116,-0.11701406331585165,0.01455070683607115,0.009185032997433168,0.04007231844043312,0.05008887867552428,-0.01120493766009128,-0.0890141197450856,0.003958990609537601,-0.11131284810270564,-0.03440245542848169,0.006256330443280805,-0.08069663979716812,0.06694240319963649,-0.11939723023915702,-0.03588939639920506,0.04664351220519666,-0.13599727369578166,0.021714329088586348,0.08182248609525478,0.022367966376828054,0.048220603036269634,-0.09009395691817321,-0.12981665740359707,-0.0020887760744883817,-0.017697114580214852,0.019721767235279915,0.04322235878479866,-0.026473163969825582,0.10186803721181241,-0.11806707804944994,-0.00900383529739328,-0.1674661837695038,0.03250976333620859,0.03605560100274533,0.05923670069615269,0.23344858046227218,-0.02010300742169367,0.062275645465974826,-0.014098545142057089,0.015199442358787417,-0.005757790978548719,0.04775624047222324,0.011700003022440016,-0.0794059582922439,0.09054975542239718,0.018435297327234448,-0.2554508104029494,0.07922160857558355,-0.04086924538456839,-0.04042354638794748,-0.007353472774505032,0.09447210785816515,0.09258833564301841,0.09522034736999763,0.0898968799443988,-0.04203767951613325,0.07532001608056281,0.006428911791698539,-0.04416024246401702,0.046338869865166984,0.08465565489184579,0.1981732600182774,-0.07230627175513701,0.17213284263542025,-0.013781290311694921,0.0007910128290864535,0.07049782450072861,-0.023398451456675365,-0.11026546539014542,-0.09779957681890362,0.11559699841733061,-0.07378625494327365,0.16527926748166102,0.0431137303475629,-0.06661444191346812,0.08958962262074849,0.055297137273725226,-0.2584042971221465,-0.08821976555674658,0.0012227776697942194,0.030645834769598517,0.0107968144896175,-0.020054746429983634,-0.034145558598907215,-0.07485456080438595,-0.0665071283018374,0.06478798399982448,0.1944907294553532,0.00848903862524792,0.06710021340066437,-0.1951580667061652,-0.026998430041887185,0.06958061257506427,0.11589137309139795,-0.09886019631575134,-0.09416856519901808,-0.11077140761423465,0.03539487849948252,-0.134351110541172,-0.08430842219328825,0.17700276565874334,0.02063963147220713,-0.056446264800297234,-0.02001455179029716,-0.06164788604933485,-0.11733360603640054,0.1386678949023774,0.017372516942599135,0.0801907384662862,0.07565226997673775,-0.028231890093990825,-0.16801419326454164,0.015517244638170164,-0.10207827071152921,0.05879823416538128,-0.11477277165256734,-0.16365623199445373,0.008392233545363385,-0.027732244810231257,0.027677418704490565,-0.11604133821426718,0.1145468301195395,-0.019022135798762607,-0.12038465898301756,-0.09147274241797036,0.12682006147503588,0.06835745023169047,0.11048898835464208,-0.023136991275492194,0.08391354138886042,0.03499707908221998,-0.11986104253635073,-0.047744710696851766,0.020351061168968412,0.16041087056106884,0.012375821249353644,0.025611745293067697,0.033498734746964604,-0.08465718045330549,-0.08325818118599641,-0.07231493385326765,-0.03996042539054572,-0.1074863028349977,-0.06750003827854598,-0.05227003042053038,-0.11346665947854544,-0.04531633080984963,0.017056647511937438,0.14323170059582613,-0.090702394448401,-0.19680828515385315,0.05134732261528265,-0.0659239714006217,-0.11971816983140116,-0.09920136813408154,0.16634630789133376,0.03097388350790906,0.040079375858473806,-0.1716167336493378,-0.08996000069627264,-0.18587134797466154,0.16181939959634134,-0.04761820809718227,-0.00334284093534783,-0.06028850610898132,0.0393765137748884,0.13987419022790248,-0.026742021083260306,0.036564807065108874,0.04194636229667501,-0.04328930439495356,0.007472804753583416,-0.015084591696391552,-0.07480021650930395,-0.18716048187569803,0.050615934412761604,0.16641660253170149,-0.13373779415226528,0.08661626522025377,-0.0012698182897128642,-0.12243655559186402,0.06102769844867211,0.012117315692559551,-0.15895310212151173,-0.08391074434373612,0.04830765461454728,-0.0890247194954297,0.09667496295239202,-0.011674657144980014,0.12843303367308004,-0.3152186665891172,-0.019557913001451172,0.17952241526558244,0.1523955447431592,0.08113044595528997,0.002692474822991229,0.09453373734340345,-0.01864170993327671,-0.03200053348312856,-0.03378735259132354,0.04383293704335668,-0.09303405823521253,-0.03677475050957788,0.07285459221734954,-0.024239597702452206,0.02502543027882816,0.07191332746037735,0.06996424910650313,0.1542927481278121,0.11724762252354953,-0.08444553291350555,-0.042614466766467685,-0.03593144203666742,0.11157752920510387,0.2478134740523362,-0.1541754101877665,-0.0793500629768791,0.04024008692841837,0.13878169238999763,-0.056447577309798616,0.05850687064053854,0.15663932766812305,0.09854495912290938,-0.08998830722585055,-0.0012568099449241088,-0.04094731105558176,-0.04669756375552933,-0.05260034594315279,0.0029447271424925237,0.020845818359956827,-0.07528299108920511,-0.10738056872910885,-0.19268021674790065,-0.1006797204741564,-0.021781218194945436,-0.0072082582659285495,0.0997553661698865,0.13354899834521325,0.05423755362120745,0.13890540733284412,-0.06144376296580346,-0.02861282529776248,0.047576898038609386,0.061171399058365994,0.07278856628449501,0.04576363040857093,0.09397068582709978,0.08524661091547683,0.06404341319401942,0.04849225423286426,-0.00013113663789629542,-0.1418541173330069,0.10039134874542573,0.0911575971662649,-0.14480354714859736,0.0015534875030266588,0.020725027319404735,-0.11919809847395635,0.04845161579615686,0.012733425731913526,-0.055602282142317154,0.007820332703080201,-0.03170477847535878,-0.03313012376226364,0.14214079553978623,0.08766983987104499,-0.15055751199557868,-0.09102152932493478,0.04460255714423512,-0.14757529397435867,0.07104364161290777,0.03074666507068177,0.06389197052820259,0.09601189965556743,0.06523560097466628,-0.05759325807129798,-0.060914470569218185,-0.031107604845676533,0.10875556077668258,-0.004225812121066519,0.041202732954943,0.022352738494282345,-0.09699600163982826,0.09215533021048991,-0.17722751544822662,0.024059161301804483,-0.02717098015106608,-0.037371991313358846,0.024477057372120702,-0.03014472105766232,0.04850458867918649,-0.003455654494393402,0.042220999912266445,0.08543410448870103,-0.12477170608198729,-0.08965456447493442,-0.032438580580367235,-0.07230086055338525,0.010680331041759895,0.08107897433512022,-0.15986179049510665,0.010117707367838832,-0.07211063756309337,-0.023790666957623472,-0.05327135840841419,-0.2124927896299455,-0.022278431917419975,-0.004773425448574621,0.07787219013264508,0.1432322559988873,-0.008927559702818857,-0.047966477377605767,0.10080319493445804,-0.07335383388167972,0.030123558586379016,0.09541337233014524,0.011793980629384781,-0.0516222011758642,-0.011790667573271022,-0.01501994334314759,-0.015932468044857498,0.11859813474350685,-0.07784115419363465,-0.011243817653532868,0.07628016301373329,0.004957481106950457,0.06674437099048977,0.04451848536951355,0.05341056981448092,-0.006583666921961988,0.1019060141854539,-0.09067329169621552,0.04501219937125181,0.017473781388676658,-0.010049437187129246,-0.020095849646735914,-0.14727642724396023,-0.06854062627662603,0.07113572519685091,-0.05495176712325021,0.13591662166157711,-0.04142304588573802,0.09700412783686871,0.07855405537922647,0.0013479399593938582,0.11287051589694766,-0.13400221405248314,-0.025659568912731662,-0.047989218937167635,0.027942147894374124,0.17444842722717468,0.11259700361136897,-0.0004601078237918335,0.1229160796809845,-0.11379825740101254,0.049342045730540136,0.09115762740178524,-0.16525839696209163,0.01890077993108825,-0.10563119211298228,0.03846916252888025,0.03147443649454983,-0.1739189066613668,-0.04376447181428406,-0.16221410974646505,-0.12164191363665743,0.13945764049827059,0.05888899420571447,0.0012193986396088245,0.04765257121082162,-0.04672051239195203,0.07191570111102512,-0.07338700528266459,-0.0761564188488076,0.07690029041922991,-0.16643585209023945,0.09344573051024473,-0.11414106219901744,0.11310572568748917,-0.062447425433450034,-0.0931176660530148,0.05417795930864294,-0.01890143060559162,-0.06636535764602129,-0.01128474864428783,-0.039185299537238566,0.0014242038016623426,0.044319106704492454,0.005535072276324539,0.02862073554283053,-0.0386334371158254,-0.03825822808047587,0.12215826191312806,0.004023616294274024,-0.03128263058802876,-0.019600741404218008,0.03035485431712008,0.048480795494479104,-0.094541336013025,0.02730282758369693,0.1183713600456392,0.04533226036510248,-0.11761467028364864,-0.022156510796382808,-0.04805005564922644,-0.002599108837550583,0.07416380816712899,-0.055345859721144086,-0.10474464764229802,-0.016911476184393558,-0.13760996562817523,0.004284478601010608,0.007766618590102065,-0.11456472173284739,0.05007751834192526,-0.03925582151505967,0.06861861827080823,0.044314430016056824,-0.03331138401209998,-0.014058004853736166,-0.04545936257650705,-0.029896032097187247,0.08308164890460977,-0.0017392101057507276,-0.12340816370781556,0.018974845860240175,0.04438073717695159,-0.11191521444394546,-0.005755325373952431,-0.16414582195026858,-0.20704786816878815,-0.021796454624644215,-0.19555733543612852,-0.04572284198079625,-0.02344414548945811,0.07402496902948985,-0.09538772283099196,-0.13168223057871292,0.09517974054704934,-0.185422831037275,0.09720071754704425,-0.0793856550691282,0.03010000546318029,0.06298008872377124,-0.057053285634417444,0.034186229132073746,-0.023384554689043636,0.10221751827868354,-0.18108635054137823,0.10247187170422799,-0.02100482675545558,-0.09786241974655781,0.10447519732719938,0.03868974951904668,-0.10845715324068236,0.010430661526138996,0.004352437205808986,0.07701472489268381,0.08413330499842286,-0.012781362020668527,-0.07697406421879416,-0.16261225497284457,-0.012474536914004982,0.009242546791888412,-0.24004708714017267,-0.028821905901786675,-0.09622406003489285,-0.0838301622224067,-0.05364127123266507,0.13160148776053432,-0.20239904187453112,-0.13384915795887925,-0.03834217657334844,-0.14714825102653448,-0.1043094176860449,-0.011436232166727973,0.0795712599551407,0.053003170803995525,-0.008050693200559527,0.1568738897146826,0.16055713119900053,0.08590906156721301,0.056019056562637816,-0.07483312516707866,0.1743621401677629,-0.13563926547327218,0.13566621945595025,-0.015288772503584071,0.009063677206022852,0.020762276566482284,-0.07056796389353494,0.035075129932645194,0.07216855653033281,-0.20458203641585224,-0.08222158419884514,0.06920763403106876,0.018483597355037434,2.18929183698987e-05,0.07172735967802456,0.1561140538236733,0.04370203454993853,-0.0692129477476186,0.061895288262166684,-0.02176741665606685,0.03208673792998465,-0.06736756627519327,0.011314359754117383,-0.20034182507002588,0.10097975098550814,0.12084706177890987,0.015407916578827232,0.03125909554028451,-0.11983285217957869,0.004463951631327388,0.0956875716388088,-0.03829730809009901,0.08013896264889912,-0.022036363385418912,-0.0799535585334813,-0.12015350658004639,-0.03857749732014079,-0.052807337145139244,0.06526144960768389,0.007655954317709174,0.06960831135132055,-0.08050641958637739,-0.02266071327194811,0.0572668272719477,-0.028055648254244267,0.10495729791433103,0.024833516404151355,0.10347148221985321,-0.10786711554138932,0.22218486541189866,-0.14468117902024621,-0.0003949416997560426,-0.07041886258290442,0.024597826221234763,0.1016496842396174,0.06027218399591339,0.019951429016373506,-0.17451629399607954,-0.01306475803723506,-0.08149800949990832,-0.11693822371217104,0.24657463708776825,-0.13382235529565933,0.13880749929608993,0.09177388849299387,0.1599419004900785,0.04536515216651849,-0.006525570455931535,0.02184308721829456,-0.00046944728871284953,0.018708929684468616,0.10500496712113574,0.1037420225497153,0.0217798269839919,-0.12623109402624907,0.18790328652548427,0.047892847668511464,0.03434502646862064,-0.10028412232373596,0.16387458664480126,0.0655141760839254,-0.212344054011604,0.028733680790380772,0.18565864784144795,0.062350045901765724,-0.13189926348750589,-0.15218308637245068,0.030065316500977025,0.014365031608500008,-0.13397394511217425,-0.0884280866713104,-0.0386573123931528,-0.04191352108077537,-0.026370727684849722,-0.18174051890805348,0.1003883535905534,0.16460668089302044,0.06453327495821301,0.05675275976845312,0.14378866741473667,0.08876565002066614,-0.08066421312935973,-0.08113311581437081,0.06156565716958419,0.06046125370328664,0.03311880412509128,-0.06573147752722117,-0.026337862947182687,-0.05521640102799331,-0.07374406559676998,0.132397907991734,0.013002177658627623,0.045351447722056196,-0.10562018309072611,0.12877584284462415,0.10212017144549487,-0.1070367539250239,0.09271139077823805,-0.0927939344058257,0.1880303554825658,-0.031017105491708087,0.011407343270946408,-0.03260252078361042,0.11502172797916994,-0.011464437718141575,-0.1026113212080442,0.03853802040828068,-0.03538236808740136,0.11709410196985226,-0.02697862788409778,-0.10815933713990032,0.11508571369999258,-0.07648271328501502,-0.05720266437646333,-0.020102284003132062,0.1852058724800151,0.04192097036892075,0.00043219240319568373,0.028948759248599867,0.0061734392950915365,-0.04789963768908938,-0.0456530076967593,0.025759212661752236,-0.19541825271315533,0.19246676529609877,-0.054338468141306134,0.0420405279041856,-0.13280074674104966,0.11475996925863004,-0.017328537233755856,-0.12671739453135317,-0.029947241521643415,-0.1386152439639768,0.020839230748779563,0.21496897554812452,0.04787933327104425,0.0524873013699505,-0.02124627567535482,-0.1710323031008326,-0.12534158343572147,0.0009746851309473256,0.07107114263011871,0.011912736316262374,-0.011490725311283931,-0.023141734734398064,0.05409704960512579,0.028729969510738217,0.032744300652728014,-0.0723949846848572,-0.026086174904435776,-0.14816031695820006,0.05701114520939829,-0.08183251817647494,0.1090124465752854,-0.11808190676673748,-0.055027414262764696,-0.06552842717114751,-0.01872572898371235,-0.032729305855155544,0.13900422733032436,0.015246557293474775,-0.00041413717653598935,-0.023658661423651875,-0.019619550267569598,-0.0772468161202277,-0.10361166287183994,-0.1879973234363928,0.03798889885813529,-0.027726039563483962,-0.0056462513368275465,0.11698597746301402,-0.1500984746406548,0.0429732817629336,-0.019348494845905426,0.07928779252685171,-0.07598670149176076,0.11070227593951612,-0.02376558959400131,-0.08094308186230975,0.026771974645652976,0.023604716452725247,-0.014734985144098225,-0.05926159107159868,-0.014945230790301873,-0.12466655653472655,-0.08630551241762893,-0.09271868515894886,0.0075051397904974775,0.040927981837177406,0.017658778442485024,0.13595993387800656,-0.113006933248559,0.11869917733454413,-0.04697790841113044,-0.08880483883377713,-0.034858199990019476,0.0907977744909243,-0.005649046229198831,0.06600597715625126,0.03923052453466883,0.023627725707047645,0.02166595660022056,0.14759811822488036,0.04094916548175215,0.045864526649802624,0.1258693039287828,-0.027854388183478157,-0.03029413921763515,-0.01728715774748835,-0.045599734305002096,0.03277690001930376,0.03518631640047381,-0.0016172291150815215,-0.07322946576007325,-0.030233039966769352,-0.07905316067718422,-0.1426169058606006,-0.10861825426028424,0.09495721388394586,0.09048339912659727,-0.014652245619841898,-0.07740590032444307,-0.1400562237871155,-0.0037643907835499643,-0.056627320371992355,-0.11419551420555694,0.028150707034701725,-0.061392992902441976,0.04704854081508931,-0.008757152173178321,-0.02804885421556957,-0.04759080614821797,0.04218152536262278,0.08423642712154657,0.10903208520598796,-0.03705653527991584,-0.16560888774052532,0.12861378703033888,0.03712757902676504,0.007886843122906773,-0.02297059871814003,0.015545499572726629,0.07423926599410939,0.05588002245953834,-0.12075029612272407,-0.1458521236039687,-0.1488635001409017,-0.13121914865479584,0.05603234066816162,-0.044031401993370634,0.03174336894458279,-0.02243025662582119,0.01887253980168144,-0.026661344762521296,0.07555978801324724,0.06964644067324262,-0.002376229164908443,-0.08347825577478613,-0.06872424579724484,0.014811348136036219,-0.02926816718661619,0.04102215322861473,0.07619440997909399,-0.02861620186872506,0.09782694558745138,-0.02723263438867211,0.029808129080227747,-0.14097783807335523,0.10009178897596248,0.19325117152055432,0.05156805168672738,-0.0845823738207769,0.04920395815458491,0.04360876403443042,0.05515191308520473,0.0442296764351464,0.14887905866887152,-0.16818942935990092,0.06823293333505658,-0.04702796913929567,0.13584474004910094,-0.042173265490472345,0.13575737739332983,0.03512138054735399,-0.021607073997752795,0.02808443630955523,-0.16414221565563755,-0.11918267667449328,-0.053189016182169306,-0.15241773632106154,-0.09982121148606626,0.05849492159919218,0.03580687957899836,0.04349313532970754,0.0026347407528695276,0.17238782246653706,-0.011804693205292796,0.10560831943818597,-0.14640634893653753,0.03457871753752956,0.03543416338228074,0.00865902232405599,-0.1024733370771234,0.03662272005333257,-0.015126109216988834,0.05051306161504855,-0.04838284749541611,0.049220008230274545,-0.10345990395753867,0.04067633119138168,0.07365432448233532,0.07196696149011451,0.042239356078351824,-0.04355474825891555,-0.09713048268980096,0.026040993781374824,0.0014843044957038327,0.0406428449913208,-0.014273544111177695,-0.017414468442772217,0.05116336468971084,0.09049714093300232,-0.18321009827574347,0.05906066691241246,0.10688658332610376,-0.08261845572413558,0.08065510070469531,-0.04393148101834586,0.18111853890388455,-0.19414895621713915,0.09429754453548153,-0.2058835646933919,-0.12315630516300456,-0.05150928910797137,0.16617078044578965,0.027429072916391874,-0.07048227202061834,0.0029191348146264933,0.10471934081901393,-0.00472433702730839,-0.02947077456206182,-0.1248291161599241,-0.0772890455775164,-0.04032533239092701,0.24245241624905906,0.07852780512073508,0.05360001504984802,-0.27343378074974517,0.04235110127684194,-0.0198254552535637,0.1275602001750997,0.04124679693383999,-0.0012479750707323097,0.08759702250728417,0.034206783187338496,0.056375679859021734,0.006163431295394213,-0.009353780539228107,0.009668878838605198,0.03703370715840966,0.0225341654875866,-0.09984340401547871,-0.1094526239830101,-0.042302991909968085,0.039956907924372516,-0.035003177486135094,0.2662160763099263,0.01911895707137163,0.037324328726629344,-0.1216755286032921,0.02469609812740278,-0.07153455474612568,0.04033065967730092,0.054095892611793636,0.08590312691837117,0.15810843778656872,-0.12595524008833703,-0.11949739937875131,0.06206340182008923,0.07907624259604283,0.028952267795346848,0.10393177835041328,0.001633201224987084,0.08823023828279446,0.07076746833696582,0.026473727165921276,-0.18294647166583924,0.02110482673863552,0.006967393551109001,-0.014924110491989597,0.07745224673894932,0.169240444099962,-0.0028378552646612476,0.014761013529813714,0.0954023783211807,0.00332361143578107,-0.07193270792507307,-0.13059163227776888,-0.1805258762777249,-0.18936052799961586,-0.047841923610671945,-0.0692757729409792,-0.05965963081410123,-0.0017858430407663663,-0.028554900944065254,-0.15958990135551604,-0.13352751340784508,0.007360207556673831,0.1591753069175816,-0.02815652573351065,0.03599579204760047,-0.008945519893887246,-0.21663268022760018,0.14012347019783136,-0.0757751791369862,0.007835306597415095,0.02569009263222539,0.06444873503284836,0.07616098537477128,-0.13323443832499418,-0.02337400110383662,-0.23340057528222238,-0.036084760075645435,0.11769672873594586,-0.07321864683674524,-0.1436816425775734,-0.1216300631035821,0.09649261756895716,-0.04438638047238976,0.0025034127941221274,0.06993480733793195,0.1282273917917393,0.08653321532280524,-0.08356131935798326,-0.00948315437294246,-0.06912996082241496,0.19446692743973537,0.009723679745195918,-0.2693644531891067,0.11959449756454893,0.15829279576234556,-0.0651942860948164,0.07732185371124904,-0.059377384584753876,0.027335483877255963,0.05057143374133872,-0.01631778403945829,0.16326564589482667,-0.07216585157618007,0.034435023657782816,-0.09206404320863674,0.010186297905642126,-0.07402421475008959,0.11060960937769687,0.10869837658599571,0.06817354750053896,-0.0777182229601798,0.12813449907260854,-0.061872942810835004,0.004264746223576437,0.10807635994251379,0.06968194729872161,-0.015551492687310814,-0.09055426109078382,-0.023151801191559802,0.03438648652198478,0.1414140212687827,-0.07056324121672301,0.13862372095241998,-0.05875754195671728,0.0634570380741958,0.09796411631660436,-0.06757978608526129,-0.11987849569145617,-0.03571181063445579,-0.03424264378075018,-0.054011800121768976,-0.03174396415751483,-0.0013354444673614005,0.09772191288551019,-0.16554029785374658,-0.15288059645476135,0.09658056646787226,-0.20134665285914505,0.08070250147457933,0.0007423773828948138,0.17927787516200355,0.1768026905204527,-0.06492797268641809,0.045050580759353615,0.021203842388825618,0.09970367142720528,0.05696180546012014,-0.06269148324771329,-0.02236057626211326,-0.025928057557894985,0.06131423929761466,-0.026256508974401852,-0.08930236385013537,0.06803682669670724,0.1347075506673511,-0.012934260768699619,0.0044832057739126,0.029051614683901546,0.06322396905019646,0.053496879786686755,0.06172600096431761,-0.06392655015660355,0.03522082855246251,-0.11619798984792852,0.04979929438606755,0.057397508350025196,0.2513209173934581,-0.03796203915178429,-0.11959480131929665,0.12050914234666558,-0.013838624311794712,-0.07202755596434539,0.04708198996217968,0.03826102884367918,0.008814864083833196,-0.0159875798363959,0.07500069021710525,0.03947737987972042,-0.0062789909357206155,0.17342108011414664,0.003864052973796182,-0.0037499245955071327,-0.007572366693941733,0.05671609084364976,-0.01541386419687256,0.01351037104190453,-0.06667061081228705,0.11061448718810621,-0.07758115335773141,0.0001991218161585886,0.09068511316181865,0.007785034493939759,-0.05267077439038197,0.042661305429583386,-0.14048066423983196,-0.09929251780004628,0.12117181184762288,0.08250260947278136,0.005448271350873672,-0.030814532003999993,-0.1060007723878141,0.07405472420043087,0.16794977928973023,-0.001255253827113149,-0.08233663256951106,0.07482019656672587,0.036435658416396205,-0.006260148784940849,0.09932840136054578,-0.12679925406904508,-0.12604556988627227,-0.053928748807530735,-0.10899784968510644,0.009434790479458652,0.11066001816876321,0.056879366909533415,-0.09922362671621446,-0.148928914491871,0.05114052645148544,0.1778491124793282,0.025614034482544443,0.06653589325794888,-0.009543861771463364,-0.028902239705252644,0.14649285051761424,-0.13550933446415095,0.08470183451264235,-0.1479752079374881,-0.04502941641119226,-0.10628907222248644,0.05109527292722183,0.0701398354939236,0.0779954907501759,-0.11995590993245654,-0.2666195317211367,0.08032885722837811,-0.13651235696790012,0.13461424463591948,-0.07871020776046772,-0.10646497464725717,-0.11871829225271424,-0.18173395609649662,-0.027666461121815582,0.03137850060992561,0.045557928941288094,-0.0990091441110305,0.12800028259825186,-0.11493785974875811,0.0629363937952905,-0.030229870605843697,-0.019558084085455684,0.030488311606308258,0.0376022126917401,-0.029774496586535203,-0.043426007084646695,-0.06382532883389508,0.028415949706820508,-0.05843405892996102,-0.15437646474133077,-0.0012968097541853061,-0.07865273559843905,0.0374672679286135,0.008681287145177801,0.01967514101329846,-0.09293127422557661,-0.08707475395236029,-0.16597171891003681,0.05557886685377459,-0.10969184412441173,0.022982209887417344,-0.06581063085016571,0.1993806801113608,0.08540191652697866,-0.0004621579655287478,0.05441979068148506,-0.04004029600007049,-0.10244071673253796,0.06440394378584713,0.0763011365074475,-0.06816025711545752,0.03203393443781257,0.15827265648371017,0.0540748371699521,0.022356167104083648,0.0817385892342113,0.17705614860389687,-0.09798787414942466,-0.092634832638833,0.054524971427260184,0.056785075320876996,-0.13498400862801618,-0.031057771118122187,-0.00230245705248227,-0.08652487436361514,-0.05278058303108981,-0.11073364852007873,-0.04833013348540032,0.0026355299587649725,0.058592195368946325,-0.13206889436798977,0.005635610235152128,0.04628350386556948,-0.01784194784740163,-0.13187889685638143,-0.04418051178478431,0.01201297228239077,0.013988567694867898,-0.0030167666014662134,-0.062055803139858,0.05206313450940146,0.07802285327801585,0.06034370750799076,0.027051557909113486,0.18669983203362664,0.07873792098782309,0.09108248064946603,0.12656761939106226,-0.13932736120692657,-0.07311998838067194,-0.11698627280749599,0.08310473868058646,0.1614348240678084,0.0001976421667994374,-0.054344647261052335,-0.030458527432187122,-0.08333580348036404,-0.040334502507762854,-0.08965331038169336,0.026799653777311583,0.07268458152518764,-0.06806280154466395,-0.08853604465341591,0.04160173737767677,-0.03882362600693189,-0.06921375230446158,0.09269109545695899,-0.042309961062211986,-0.10873217544398661,0.011040794152196701,-0.14096550052112672,0.005799494000635933,-0.006581041148850081,-0.040062024990002325,0.022023856304618145,0.09955427259825243,-0.009459884396206977,-0.011555984175045072,-0.08194632383338157,0.03630198883344055,0.09117225107905175,0.025017543603901335,-0.0748897772806305,-0.1371625044521607,0.14843905999489107,-0.0276158605269967,0.07639866339764868,-0.1262003763233972,-0.04169469209288295,-0.13010349208351565,0.12888320376015394,0.03083171084423659,-0.07426646702322341,-0.1493506893995557,0.03310209997033495,-0.07484745142093455,-0.00798872288846575,0.03820274193901151,0.07212580980664668,-0.11137446130758145,0.07332550445243596,-0.10395153298630035,0.10280520751276721,0.07704379885690946,0.11916968871371746,0.16999938372990356,-0.05144373225269878,-0.20917046138579026,0.10080283417938211,0.06074979198261013,-0.006766250147732613,-0.026182236081547714,-0.17763367953290712,-0.04215483035490792,0.04469033085989872,-0.053797871825760665,-0.03204921895413423,0.08310725380870172,-0.06675307100150238,-0.07225991208404131,-0.02994771198003363,-0.03552304737202257,0.06588974706353498,-0.0021548533362008436,0.10516869426965164,-0.022577971356006914,0.1442683943704616,0.06209593767389969,0.11474839029338675,-0.020839980950025382,0.09297135824891714,-0.01115304351891439,-0.04297031988766265,-0.1911745082458905,-0.025227803182066078,0.04424878504743124,0.04836078760563702,-0.17658681529121167,-0.033620446170723545,0.06375336333110856,-0.09524490675014466,-0.008768326694666526,0.08003031770164919,-0.0897597989765882,0.16015148571885976,-0.03164432521585455,-0.05001274443003204,0.05086200069353378,0.008340134979549187,0.022559910928815728,0.10060384080249454,0.03194798054816895,0.16392004465667195,0.01154517671435809,-0.038619666699058704,0.14071535566486476,-0.025645261643124667,0.1272109137555379,-0.19768430983824858,-0.09246375154555295,0.1133088070544851,0.05398592010793976,-0.004899340870667226,0.008168017204098295,-0.11864300801655871,-0.010959429854659577,-0.01961648817247553,-0.057011857152428236,-0.13374160716263575,0.23270917598329371,0.010798976164278582,-0.028330801099279036,-0.013984274332955507,-0.04791197246437721,-0.09735309773467747,0.052421886536979774,-0.07750242599995538,-0.013777148913757416,0.0886304751618669,-0.20146229231466747,-0.0737038796053298,-0.1194120210999055,-0.1113520701885592,-0.041870295252224556,-0.09191884772417727,0.12335279418681895,0.04097836148367922,0.04326593671869389,-0.11376448045518175,-0.02092557954554583,-0.013948964253312355,-0.02693070578305784,0.15838697069166457,-0.023515581805593058,-0.031485126589195785,-0.01301056529696492,0.061290845051548144,-0.03867711739331623,-0.13336709708432598,-0.06323012240170177,-0.09578375442934495,0.10574181287925695,-0.0671938860835368,0.15778865342897785,-0.024065789158877412,0.04595001271688918,0.11166637750653882,0.05200762996667393,0.06054871004159874,0.09507270138942041,0.056873672588982196,-0.005084738084691481,-0.13043909889358268,-0.17483378553848822,0.13278532541147725,0.1094920853419069,-0.05389560058877276,-0.0762192274679926,0.0037548279069634536,0.15874619874238538,0.03268821006621508,-0.16253081219700186,-0.05396963161893978,-0.005905728125859631,0.02478452086819881,0.0775721670189131,0.008554909532712896,-0.1004948462516356,-0.10572191614530686,-0.001968028607295189,-0.04701735053678576,0.126057898883556,0.024278044427555025,0.007645348582578436,0.05850676411336368,-0.019603667668579416,-0.02534289376251261,0.01743576086893239,-0.016858689315436697,0.029316323003905968,-0.026011574924640134,0.030174545375343198,0.17649062514402614,-0.07230939319787291,0.1281048910658533,0.043519301433395705,0.09732049774920769,-0.026324151487474398,0.01799843657904482,0.01419334531620593,-0.062099583286996794,0.10503544492953655,-0.1060520220613186,0.0022021630220083544,0.08653217266064275,-0.09198808182864225,0.03541337416091969,0.04977333070383385,0.071984109984929,-0.0825861419573951,-0.04302284578362557,-0.10550179450042407,-0.03372632554573198,-0.1607127941185306,0.11558906257264141,0.007860286241265453,0.0194681203222435,0.048180972245810395,-0.2210357623971287,0.07245300624518822,-0.06693457365192218,0.017803257576047803,-0.049774857316862334,-0.10803180807443509,-0.09214519987094555,0.03025132845695873,0.11095737811462408,-0.055831389798354565,0.07221906076053888,-0.07573680305856548,0.11269904801395036,0.10196330564905202,0.046202552238079446,0.1296537247055656,-0.05689601935257161,0.12208260653363297,0.07713477881013138,-0.1469467940798238,0.019368397591838674,0.04208808161308029,0.04665936496169187,-0.22059167984499362,0.018007421962786277,-0.03144492929606071,-0.030560416195511746,0.13363931284592942,0.03715452316525387,-0.13125885423968883,-0.044267572237354495,0.020054013586298974,-0.1922117028849077,-0.049056096960712704,-0.07468452890275536,0.10087312008407297,-0.011480794364377987,-0.08538478870944535,0.003172995856295718,-0.02750704220254753,-0.019223730123576796,-0.08190101203687669,0.06970914363817544,0.045127759909642365,0.06152472642343891,0.11544172199299955,0.0298548998236945,-0.0029490599850002944,0.05163123279842293,-0.18690775011627783,-0.0610660667161751,-0.0025116310181112433,0.05857121877770745,-0.028804525066345163,0.03381697463870537,-0.09212121391485302,0.09840868353918905,0.03530798158482676,0.020043935871931023,0.009900252608248832,0.06858459214489607,-0.1531382615865796,-0.05503561328920041,-0.07496143161011394,-0.022291531432628933,-0.1727904478071172,0.21728275970284816,0.06065176737331258,0.10147765063780873,-0.03797718148409963,-0.16296394512832332,0.010543863479396315,-0.24586898395947046,0.12658657784405603,-0.0546173365736016,-0.083260960738458,-0.10209896344595787,-0.005130336985338188,-0.1678506697151559,0.0993055809189212,-0.09830047420563626,0.09053197366063613,0.04158604653289141,0.0029589666022386617,0.12215626321639805,-0.01964706185048047,-0.0378378272525079,-0.061024537427054215,0.13884887006291707,0.01394864315357839,-0.018449401179140817,-0.01575503389367268,-0.10649932109424358,0.030015443758358344,-0.04014034923853805,0.048383493743870645,0.08678680387827693,0.13676044329302173,0.03100238004840217,0.05950577089010663,-0.13708940208604053,-0.010410630477913766,-0.1312898110926513,-0.1749480956031256,-0.13194260635621993,0.03909122972723406,0.031796842902105514,0.056238758341406965,-0.055820597784937566,-0.15671578243707673,0.07662543462462877,0.02226460103993374,-0.08309151741774334,0.0016807791009604525,0.04076883197057064,0.017863445409268125,0.0622684672351161,-0.07292573316023675,0.13607655909197783,0.0036094339607670506,0.08907226847995642,0.06185633156519819,-0.08843757387043358,-0.03483331441088871,0.033348012959601755,0.18023574507687323,0.11458490189353668,0.08747408470462187,-0.00020824881480772605,0.04406312633550402,-0.15765489386113402,-0.09776469387464144,0.04363225666662641,-0.06839410343994212,-0.024568465642304294,0.09411249051937179,0.2739374793779104,0.051916851607897066,0.03133362054235681,-0.027634339223397433,-0.1623122428527684,-0.0017032010908211352,-0.18061237999678553,-0.06551550841817963,0.08380895442884007,-0.011226594326561581,-0.16986473670668026,-0.18138273631861446,0.08720784385857801,-0.01870345689812972,-0.02444416025902898,-0.10930601035373883,-0.005338439040233637,0.18511919433943214,0.054443802600593096,0.034377139742154096,-0.00038537922984784305,-0.061797228588776815,0.02902404821008617,0.12686405889768493,0.13589278152778958,-0.04379642563511257,-0.04846946995593994,0.13592840450625174,0.09487424875925364,-0.06819670026586903,0.04702071582192889,0.057438019111659855,-0.17985452214101413,0.1889162381889654,0.0716472576756403,0.17959516525605745,-0.09939032645343188,0.06955672764984908,0.002695237352942479,-0.2078866579456737,0.065188748413072,0.07868466835735217,0.004518794961429747,-0.16978526285143153,-0.049178487508597483,-0.1116633329603641,0.0345283528060881,0.08231887554191036,-0.03219149243516664,0.01668993974913785,-0.01886738924412649,0.007189405807055959,-0.048449843549308994,0.09902826505851976,0.0658731939983839,-0.022310401190564016,-0.021477853523342184,-0.13480576591021098,0.05519461299834615,0.03393539651246047,-0.06900980612211266,0.035476886500771514,0.08103214218352467,-0.08310277116739402,0.11212603231486475,-0.09001207728511351,-0.10858577150296782,-0.06305536536798942,-0.027724186005044508,-0.03795360836605763,0.0780193839750867,-0.0671077816835318,-0.12705961951770053,0.03036831301292014,0.11663876660664597,-0.03984188182056672,-0.10895145807258258,0.06273319418091965,0.028229611390736507,-0.07117061175936262,-0.010924371907418186,-0.09222386308380731,-0.06323840342460958,-0.04261264113109441,0.12764701663550992,-0.005107610720758735,-0.06146632567750434,-0.15197269773998523,-0.05863862873903494,0.19543663605828157,0.0024029964470127663,-0.06508449921459315,0.018083511128715764,-0.044865305663355316,-0.05503971661537575,0.058577797046756405,0.09720599473668864,-0.04450318080259273,-0.034656644596634666,-0.16536631491949502,-0.12798418002608333,-0.03829485740530643,-0.045223576827332135,-0.09179416830534719,-0.022644800510338976,-0.1777147086717986,-0.07583232870666426,-0.013505915724038753,0.1366900219192184,-0.27356916662736763,-0.140419990418786,-0.08061127318004888,0.08940799122471928,-0.05888175390483836,0.027403968783942904,-0.06571768700266649,0.056533547168077236,0.12498835867621258,0.13591463427063494,-0.1098021179216974,-0.06563749310248265,-0.035525748106641955,0.15285385711163776,0.009919152430661346,-0.009579974702866353,0.005600721209842222,0.0004870942517235575,-0.0448228264206275,-0.09225812553118995,0.027949568578593313,0.007210205490441436,0.006696666200739044,-0.022943034086780948,0.0017482223831906604,-0.056832987733203284,-0.12554641094559843,-0.05357673520274424,0.08827577516945036,-0.09674451064579219,-0.0697104320821943,-0.1611080393078736,0.017930305017389115,-0.14213673153275966,-0.06717809785251255,0.028343487790904152,0.046588625559907094,-0.1403248459141622,0.0960812892460718,-0.06686274332787427,0.22432157739856148,0.09502402562614914,-0.3144955640142888,-0.07082474826901493,-0.0023943319222459753,-0.17235678740771815,0.0935906536465,0.11495726969755397,-0.02163974534040741,-0.010501029140395775,0.06834933565840604,-0.016229609310594886,0.04259480475548749,-0.005340290319137618,-0.03689745728178061,0.0090483808296736,0.2386854448520007,-0.11929489534011938,-0.09517926519261873,0.02874073197641874,-0.0797252105694423,-0.05593423822138607,-0.03818352879245736,0.0022280710664061604,-0.11300388848550955,-0.03087153117234718,-0.12072447926065918,-0.12350431892874662,0.04315031956777253,-0.03070492824317265,0.13915485142180148,0.030117760382743292,-0.014565146100488095,0.11402552397931556,-0.055845721905545036,-0.027240125601455036,-0.020936511514393304,-0.004257617979648731,-0.2156890371847471,-0.1305327023380418,-0.16644799252076145,-0.09587962655060624,0.01810289690389604,0.01770280247149494,0.02050791663541096,-0.1152886225639613,0.02452765548118005,0.036987857645727935,-0.0717487270231999,0.0018192199262874037,-0.16068641968666736,0.05649476407264394,-0.14022807836985024,-0.06658107335962689,0.13655382963320117,0.10198044424354236,0.01960073812168494,0.09850386591057038,-0.10923742940287944,-0.11195372836943472,-0.050197032813926866,-0.14410877167866953,0.18694220523503788,-0.09705168419898803,0.024535086297987216,0.04513645421275219,0.02765097430497541,