{"layers":[{"layer":{"biases":[-0.0037104124421708617,-0.06325264055726687,-0.00084784975730874,-0.010992917758408015,0.024067467853808134,-0.11272877475236771,-0.028705312622689678,-0.028034382246292337,0.12376317718458595,-0.12168816602883152,-0.03780213241557233,0.12659141892060177,0.2498783737749059,0.05787749864527533,0.10377598555008842,0.05870346154442858,0.21377446426650232,-0.061841279124063835,-0.02307915721104216,0.08760076096252609,0.018787850576668215,0.04855662860689037,-0.10792837376849342,-0.011100468141617732,-0.0541788754194433,-0.14125426837254737,-0.07500148136323506,-0.09965791189672123,-0.14365795448522733,-0.18043597935211828,-0.03393520362352032,0.01081747144664891,-0.04873717698282531,0.0476721581670122,-0.02879287664987391,0.005629822913315412,0.12105267508748933,0.009376423324233824,0.02522765022918386,0.03540939810045088,-0.0007234926841680461,-0.01359628626661331,-0.05464981799195598,0.13346887246184597,0.05921422557282374,-0.018642915406117046,-0.04964421891096996,-0.06029941499412747,-0.09465854156940423,0.05746083485636877,-0.07344415054243136,-0.08688350597255011,0.02424696447869392,-0.011159335603106805,0.084813434987897,-0.05652387477148889,-0.0669752979452657,0.06536208421457024,0.14724435364111335,-0.17068152030784473,0.10185428580491633,0.0019374599678176599,0.038084016226934574,-0.15859678837538596,-0.009346993476814738,-0.056858105551028444,0.04370204518968492,0.11648836618861227,0.06149200580559093,-0.22255941777338017,-0.024851059122445632,-0.06133256561325296,0.04162151621105569,0.03212198524549372,-0.014073739835127769,-0.016858919053731842,0.13834781732538365,-0.0400446915334649,0.00981606166344693,0.14971640384204357,0.015597610288277115,-0.12361033653196381,-0.08847420441462278,0.06529584065862108,0.0389292380162253,-0.060696158649326926,0.151044427259292,-0.06698344159203526,0.033148291179009595,0.016862591320576683,-0.0005902947182243187,0.1356389885454136,0.036516355049656966,0.038001963205894815,-0.1117077587046991,-0.03959483800374786,0.02684067518074462,-0.06275637943900055,-0.0005106655324792112,-0.020368729090979035,-0.04343501519106478,0.09059146902243018,-0.004184660703840085,0.0011746941444079097,-0.05941174500053112,-0.005116031251379111,-0.05159377840785415,0.09770223784537378,-0.021800277091511576,-0.05075167742433735,0.06263648465501152,0.062531364962695,-0.11167765054396253,0.20930379791428175,0.012049919354123093,0.07699711205514345,-0.043251467434968105,0.014082379117525448,-0.021624657503262455,-0.005498571665514317,0.005369680744427734,0.06818561656787232,0.08524619229097381,-0.06295190010942248,-0.02816205356131166,-0.04237832498584647,0.039952231309346345,-0.05533987375961559,0.11187693197378407,0.02227033853962709,-0.08729062964211529,-0.006832790611620199,-0.04920292548394369,-0.03193493533193903,-0.045152922399085825,0.03789346749562526,0.10072487879112987,-0.16189621291329775,-0.08721320949211604,0.11073060305466953,0.11096350974835086,0.018668380404307516,-0.01610417935760631,0.043608968531077735,-0.07570902496599008,0.04434902715016626,0.009875022017906323,0.03192972997510253,-0.16378657397580973,0.016046822263791862,0.030512828540213196,-0.07415861667893354,-0.11809343934244551,0.05221465609029455,0.025470809163853053,-0.020569377907190284,-0.03591669107385404,0.21661426393159647,-0.04467703731953698,-0.0803720754099343,0.024264407112659397,0.05657911284684147,-0.06343205808169741,0.08251147783476416,0.03041165201333729,-0.027978794831239457,0.1542907452160585,-0.0271285915059848,0.12360102610090208,0.007113887644712597,-0.0900894652615749,-0.007617921697279865,0.12346512110964428,-0.1195606833868695,0.08710003240702054,0.12695297088079588,0.047199628241633984,0.10502677530723387,0.08064323270059204,-0.06708700570977559,0.15012976196729097,-0.03796319243404344,0.004489825244244295,0.01292105304185295,0.06081724358791687,-0.06386115517375827,0.04153579332469874,0.00290434766314734,0.3125244085096519,0.01880216140019015,0.10965249259880558,0.11268109869981792,-0.03410459313071173,-0.08417814019677859,0.12214125627405413,0.1727576898755857,-0.19527149179242909,-0.12539360181580592,-0.030511620370579078,0.0030150142485364274],"inputSize":122,"outputSize":200,"weights":[-0.019505365732522026,0.04251552780422575,-0.06037569220614214,-0.2204186940386656,0.1286044757790877,-0.05582382248232896,0.09810320376658031,0.01728048103046772,-0.01621142820230596,0.003267270283528608,-0.03995983317338936,0.04567822852269942,0.054694856526566304,-0.11664001199804493,0.14119342649637076,0.10604854032793748,0.12233380086683932,-0.0018755542611372778,0.031526295292580164,0.09284170466518647,-0.031782782353581916,-0.03975640559978197,0.054499744172932824,0.034774304683960526,-0.036227921096718824,0.014449153124440334,0.06837660556075137,-0.00844964846887328,0.014255190100682037,-0.0049543504691592875,0.034916680792118744,0.16305560837507513,-0.20245949495146992,-0.023817689446898094,0.12121860705483214,0.04853989254753633,-0.027372061309794526,-0.0008560398784259028,-0.029513611273924382,-0.11525502099164787,-0.18688593303214537,0.14380773779754824,0.030776717460731042,-0.04398717137828131,-0.022575677724025505,0.04913500229400376,-0.044549856349898886,0.010590355347399574,0.06872604686181641,0.02680783896120095,-0.006245626680595986,0.15333705053224295,-0.021797629423115493,-0.07079855659670939,0.03887650101733377,0.05508974856603412,0.026971447749820913,0.07349928138175398,-0.054827972640375325,-0.012656756492169179,-0.12292711633877512,0.2170692707395603,-0.0386731521693993,-0.04761017000360839,-0.027400240326464015,0.01624946021560187,0.028524145619206808,-0.041843421191173555,0.01763837057017188,-0.12495750921584367,0.06100735738104075,-0.12238495005557082,0.041474202235846885,0.04461685558832571,-0.09643762191877317,-0.14725973705986325,-0.06740573353020317,-0.0010474595163024473,-0.04952638505776996,-0.18411375897660648,0.08070389349296839,0.14114195646118108,-0.03399891043284337,-0.06395726772281897,0.0009257013282500719,0.0368937836562172,-0.029423842198174392,-0.11101263932432745,0.07191159895535357,0.053455072556223074,0.11460113375181621,-0.008674949626269995,-0.05631588939291861,-0.06526510200241945,-0.08291280944625021,0.13966780589022113,0.09392565879578746,0.05682124689522686,-0.07463488420177568,0.13144661189303777,0.07108488784358455,0.03339676243252713,0.10241315006447964,0.07209178160605491,0.18604471708340822,-0.06565013328188647,-0.0018219017206706882,0.0038160185493595396,0.14717991768455238,0.01963509260513866,0.034369457906429174,0.1385893872697164,-0.03689791724437689,-0.09069513703592783,-0.09076340169551074,-0.027375144871712238,-0.08246704622704154,-0.06726672630670552,-0.07597820911142983,-0.02199945550970873,-0.055981580648686656,0.029448434767634212,0.09343609363784622,-0.08552597148821432,0.10252768003978134,0.06659625939236563,-0.07193958293774401,0.09057476070634582,-0.10002788637672276,0.07941969405925414,0.0811875730824775,0.04895070292549237,0.0036629099190890364,0.11511975785514163,0.04800655660493002,0.007838422340774302,-0.09982244535008447,0.053227431036493154,0.04558121697960924,-0.07273111992547474,-0.029336719504898162,0.1160520076095922,-0.13656549662224773,0.07064176198695798,-0.006909192673002949,0.04327550643081207,-0.09105354166658937,0.17465450678956762,0.05755835379897097,0.1367621375534739,0.023281588383552848,-0.06560499034853655,0.008511951553066133,0.07882034972240398,-0.054850025223338365,-0.03634551264203043,-0.015053278390047857,-0.046871329684655606,-0.04672691372755645,-0.004479131655075202,-0.15179500910950103,0.198066862287767,0.08923538636880031,-0.0008563104975784581,-0.04253823020914517,-0.1232910747507258,0.06933245845938263,0.08348232235754174,-0.06293750462622076,-0.07917145102103293,0.03749947843745451,-0.059943057745794406,0.09261947177646424,0.015451069530481663,-0.07444356728185585,-0.11302735956885727,-0.004837317818446134,-0.19518414132490627,0.03495690329615259,0.08912593393570789,-0.06893979424259199,0.1265115812273081,-0.03764211095579089,-0.08339551334994086,-0.0918155205360148,0.03867600171562516,-0.023988620332981252,0.016920891029960722,-0.08611190467543171,-0.1526022892724441,0.08371499437127151,-0.06524945530114037,-0.06613465250179831,0.04487868244850958,0.02788834409781348,-0.1628778059444976,0.027503736911131893,0.11187772720045552,0.056944643257456934,-0.08137902297847627,0.04354820599127121,0.01833670574701633,-0.09745572341061952,0.027060256649786545,-0.08477450765615176,-0.13150997581801724,-0.033278239791621526,0.05814569358797987,0.027465109960415415,0.04839235257363245,-0.07785762911167968,0.00835486239968529,-0.014345626802958457,-0.07159988601376002,-0.031651704135368754,0.08071012030068991,0.1362415578095998,0.05915994361386246,-0.12629918224627026,0.1197783857747376,0.025639507706046026,-0.004462180938337676,0.15157801105924107,0.0018593681540735173,0.13819757248954648,0.058778193590923115,-0.001067166021994046,0.08956561204706452,0.012482598512456929,-0.03693545350635099,0.004186779179003036,0.01076622311935693,0.15344547423990879,0.14203923008678046,-0.09582375708567721,-0.17591265356084934,0.12822010028111214,-0.03251687927911892,0.181850096169302,-0.09024102107980277,-0.03840519695441945,-0.08209564608828455,-0.03466194619526701,0.08035797394085119,-0.01497716810465027,0.14534848303978218,0.03707059266236914,-0.08504589903547691,0.07099776694829557,0.06559895460520482,-0.04409570996482531,0.02467403674225929,-0.051569448603056754,0.06578760226308197,0.12135162408228393,-0.05571634189100444,0.018155348417541295,0.027590596959508946,-0.0185864087313948,0.06566699673576157,-0.11032042065485605,0.07727273768200998,-0.2147952614319765,0.011516929314545577,-0.029711694304677155,-0.007087147141960867,0.09330570576863201,-0.004362846090944,0.1078831951479072,-7.187296049079198e-07,0.11995316730824603,0.09482786264695889,-0.09197092418499758,0.0399384690602955,-0.06255134956165126,-0.059600266996149225,0.004047362548451085,0.008613951128005972,-0.018250596177980447,-0.11806510575816995,0.06396440883432146,0.09354000125839664,-0.0959364504031647,0.008912076215569945,-0.10203624771564869,0.11119387417163652,0.05472751533528586,-0.03310982253582697,0.0036486937410674936,-0.03809617673336467,-0.005767590991283088,-0.062392185882043295,-0.0012320751479379503,0.08445395445599617,-0.07634537846722514,-0.07478380158625765,0.04970442359937608,0.17242461804558504,0.021792185453981615,0.011194956072972934,0.05155928113015293,-0.03406293816488324,0.054785828688454434,0.025868914326035154,-0.13655614672303917,0.10704606945656393,0.06133106416754878,-0.02622193687184137,-0.03389227846160929,-0.023410909109069962,-0.04151578959646424,-0.06771540448717697,-0.03191345747790612,0.1423000130258739,0.019641779621488848,-0.11831750231077914,-0.06620750221998305,-0.03453885036262043,-0.02966840232275963,-0.11249690600227417,0.09460291981834612,-0.05375713760651408,-0.11440897121967097,0.05934106354352026,-0.027588603924290345,0.08598362217192596,0.0581640255548696,0.16498080777605295,-0.045536795197096726,0.11263471682440508,-0.10042017665395404,-0.03520308412123617,-0.045807577284298996,0.050640690883662326,-0.004445542013474585,-0.12918958839919945,-0.011248324635773735,0.12144445512117746,-0.06033528975668617,-0.09052035235223427,0.03708847677104284,-0.08158347671594114,0.0715305977036284,-0.09451939688335068,-0.057786980953961495,0.10929198232694037,-0.09167829611197155,0.07258071090362736,0.1056168397601513,0.02652470730845664,0.02136789616696952,0.006331935362210984,0.09686889122495823,-0.002148441712649497,0.010969013776200773,0.18110345101695524,-0.04452551757822951,0.18566026844946923,-0.06217639826871778,0.12876463564955035,-0.014583144571286987,-0.038013198033877815,-0.046967920124166146,-0.0031579690982644617,0.04683177147662327,-0.17736683455138857,0.04652268830797883,0.12118315573090634,0.17783553801413374,-0.12139719109610975,0.11103097955229012,-0.044216803632140124,-0.11777889769876992,-0.15829328594374611,-0.04346177495255104,-0.04351143163236879,-0.12936646290787057,0.12032120825742793,0.0635146425659065,-0.08984553719606118,0.12414831004957098,0.10127200042549243,-0.024909023181431938,-0.10242502962629835,-0.0398816580142349,0.11885761637420746,-0.15300736652150054,-0.0956960996066333,0.005836500683256726,-0.1085416269254711,0.10927001170426509,-0.07464452517441332,0.06974519441700434,0.10957161000259714,-0.16508948117344105,0.08724269931249143,0.07204042610365413,-0.07363946765425276,-0.13771111509001233,-0.055612172244224975,-0.08776701164298406,-0.07336502089334446,-0.025674038280985224,0.015876858947030493,-0.06846476246328595,0.08353035064372863,0.0255072779259482,-0.01806056136261397,0.11150314451028387,0.05864666680598409,0.0748788878659475,-0.0678174990475362,-0.031054166599482073,-0.03417091589678476,-0.11585631169012572,-0.013015525725681385,-0.02055271967298615,0.0232388002289036,-0.1612762165989295,-0.03932866815830461,0.05825178522093548,-0.14007702067502822,-0.1058944393017353,-0.14571954668913592,0.005694427700626482,-0.007599499422496655,0.010388223971858493,-0.2361079716893319,0.10071114806370324,-0.001984112468731122,-0.1572180691999449,-0.12280655717317722,-0.027101013950449043,0.01685442014747766,-0.1130024635402491,-0.009401187638875002,-0.10365468994733898,-0.041291064039000736,0.08532938665872818,0.04730288679910755,0.08337707941053274,0.11176005196327757,0.05164627831735898,0.041074163798762796,-0.08403996294536611,-0.11338682638212925,-0.15221248838135087,-0.003043371232381875,0.07416520251149465,0.12275944584435634,0.033223540624095334,0.02917012666128493,0.03897215842277921,0.11223772087193071,0.04281015904829196,-0.10572615880818341,-0.169260948115292,-0.005616613193150204,0.07032899532936222,-0.03661994751644388,-0.0318533705617165,0.052034987115945404,0.07096758805700783,0.03156167078380994,-0.009090458790981065,0.02199456377828301,0.1293043980009826,0.002475048016715851,0.012081941663042975,-0.2081259888768038,-0.10199174679172285,0.0426936289919262,0.01904865415370037,0.026586909353879324,0.017230440757292867,-0.026289988359311598,0.04950080252992174,0.07698852717195429,-0.006805020828184154,-0.020674560381200482,-0.00571178893235729,0.04314018462434677,0.05087603130363433,0.03291963308830108,0.015230100124549274,-0.056189558817974286,0.03762616158260882,0.13506342846196115,-0.028128408449767703,0.033617972244134244,0.026186782928631004,-0.09606687090037688,-0.1678372581815247,0.11703438486138683,-0.13412232129197002,-0.1148001119950158,0.08744029453703693,-0.12309604543395809,0.1647522255872672,-0.14260018791493562,-0.012041570650829947,0.07479693032097547,-0.04503003470031408,-0.10638981057711146,0.0870051294644844,0.033445837232694495,-0.09491268039530328,-0.055097329565940684,0.16597720538214308,-0.040916786487192075,0.003248054596899108,0.05144505635602977,-0.09177345922274761,0.029463273838257757,0.026480214347086615,-0.16237296195327808,0.0017050054436216426,0.01246835928719259,0.19831817590119244,0.04273754638523926,0.026919071673984017,0.03814121567113677,-0.0016534865303864834,-0.04560093145724015,0.022363153546272573,0.15235859834349086,-0.1261674750757816,0.004651393649202862,0.01874580388513342,0.13137916480116182,-0.13515540308349824,0.07295504020118403,0.010118645438055358,-0.03181520417802969,0.08431823169035918,-0.07955671427321086,0.006755416878454487,0.09934098068902894,0.07074058307873814,-0.0693032986769234,0.06478016334931586,0.007782544277669971,-0.002524625437899306,0.03549143407685216,0.11015784911945625,0.1579418935469426,-0.06318231563092175,-0.09575558508010477,0.10880407209764244,0.016772189499857624,-0.072732955348883,0.005797818653132066,0.012784499262899618,-0.055309554209027674,0.052346752385685195,-0.05141730732052412,-0.012593237829747412,-0.0700193648608423,-0.12217015761323938,-0.017060203364501453,0.1968626151263387,0.11952365972895057,-0.06385858925400512,0.07978581511920163,-0.18873176952626042,0.08331437566917387,-0.030714827076245295,-0.033019036072717604,-0.0313684284758713,0.08258773650049236,-0.08606032406833804,0.053226845059802616,0.13953064839356621,0.05236649463189003,0.12324417361242532,-0.06689392051575957,0.10616347488001548,-0.008238597710126177,0.007969814719890387,-0.01861851461110089,-0.062209178730899414,-0.03048973529988756,-0.003342728790432087,-0.07558736057589244,0.13130759491889898,-0.06757193516474816,0.10059019581144497,0.06235597521582361,0.0613652916378948,0.03571213463975423,0.06901475031577296,-0.04766180969541106,-0.10085216741348864,0.09298850953444565,0.10949939160695948,0.003910530607580513,0.04851760369338968,0.21233961744397814,-0.19101194749482517,0.10472951383027312,-0.006910722928990832,-0.09442644643052574,-0.14107971714352527,0.06349341998855625,-0.031053911492071113,0.11648753961023271,0.029508793642642445,-0.0582332469665883,0.14753932166615763,-0.04104513053248907,0.010534925866910433,0.018126355346138965,-0.017592413414911086,0.1406597552062011,0.002284361671965841,0.12354930643061177,0.07036551043695909,-0.033932844197282416,0.0035891031617141106,0.04015543481301733,0.03584018031936479,0.018009524072186218,-0.06830701655556214,0.0341560470367511,0.015215773032408824,-0.01829282605739418,0.04323552913127806,0.10364748250177128,-0.1745159979658244,0.04377997552451136,-0.07612758787918206,-0.0006694099506099647,-0.18415351234096058,0.1054182351039488,0.16128372419510337,0.020809667290988244,0.000495372479979801,-0.09906929370613082,0.03571335171349708,0.016207363477109313,-0.07638316977479137,0.031514938148284856,-0.08589012925668467,0.22541464667763478,-0.004238000310722748,0.07614309236921096,-0.09953145363956997,-0.1406555327736042,-0.08850425853500721,-9.834757226362749e-05,0.010326505546180174,0.08277029802243088,-0.1719633570290076,0.017775185513796792,-0.19023252779726943,-0.11325150809697186,0.05099009104064537,-0.08285541855096701,-0.07686701618421055,0.01409372206222611,0.041147851314065606,0.09470593529454979,-0.026252137848019438,0.05992114960483239,0.07213480364442103,-0.13638279442914078,-0.0006398511163159536,0.018454927638167935,0.06424872026157565,0.10498982742711399,0.062157992814932526,-0.0040377124208202395,-0.018730692803024834,0.06762223753920399,0.07310228112620079,0.06744067506152357,-0.038010513719658766,0.13977915592056067,0.1497220092269601,0.15844885254767285,-0.06594067373851022,0.05029869106760981,-0.0536368357136017,-0.05278320134942959,-0.004349726411917467,-0.049535658024005454,0.09367345287313819,0.06423606753175556,-0.010771618608243947,0.062325429702717434,0.038092229163736946,-0.0287795505025034,0.03515453147403137,-0.01346300756878918,0.03306124922992488,0.007791963442623125,-0.04377512896804929,-0.15630978652049918,0.12714041049790586,-0.12679802921502245,-0.09769251608903416,-0.10899921511563433,0.06943537547253048,0.0734685469918907,0.21974078413719764,-0.1108144145100617,0.1099462427674315,0.01592908632620683,0.055691027200012136,-0.0839171834812035,0.009779164143394786,-0.03677325321836532,0.14127287214693562,-0.06956832793179002,0.02400014684860516,0.08065442107622378,0.14997834162840898,0.023827235574401306,0.07712334698284899,-0.019137638099244784,-0.06296922027544784,0.18162488263037374,-0.037351352666487724,-0.11307895751518439,-0.09710044582017203,-0.09801704662921527,0.13023273216027156,-0.03559350114822028,-0.030807032122229284,0.09934098507083457,-0.00866728861268012,-0.03454088703934919,0.12237668798410005,-0.09507276481310359,0.04703011087736779,0.020019346381372705,0.08080516720906608,0.05131677726691425,0.0958009938344157,0.10782148990949968,-0.17419596347254662,-0.025404996283872067,-0.010039417994674242,-0.005715920270293542,0.07578468946619266,0.1067221806075548,-0.26776824720404663,-0.025990244160033992,-0.09272244289953252,-0.041474836346877327,-0.03624936204928052,-0.1288840188366879,-0.0953123766420943,-0.11914082866595495,0.01633932973950462,-0.11634499766993288,0.08891644761098669,0.053781422396508446,0.0647449894469721,-0.029786481736690074,0.09296120247479897,0.08830172492660611,0.0048977913296844025,-0.02924712830822079,-0.019953797044651136,-0.12824998000603324,-0.03436691653576217,0.13655213224581006,-0.06740055647036085,-0.07293908432353216,-0.14130404935160212,-0.013492303022221094,-0.02966962090540662,-0.10167455864991073,0.1447471628500638,0.03346010586222998,-0.06598874435563112,0.16210557190895783,-0.0048972339673437545,-0.07370260677409698,0.04007159129411038,0.14906325802985954,-0.06294934224360045,-0.10067734292877306,0.0669426003531175,0.010448614853688054,0.01569639382306239,-0.19873104585775703,0.0693143582095141,-0.11542881471772928,0.12883629658517087,-0.063489503472348,-0.06518641318977315,-0.01361856725320452,-0.07602606018065221,0.04676958191460025,-0.06749221631747984,0.01665576451737291,-0.019479850900227448,0.07712528335073247,-0.0018460837251686518,0.06743264265952924,0.04956379799696509,-0.047199086080788016,0.07154573658942007,0.026763166617225616,-0.04288644762548506,0.19489979783136988,0.02607279675849187,0.19297172477647717,0.022737640373264697,0.05575054583795473,-0.01533955206109236,0.011291775826308498,-0.04147075861686297,0.07005465725411746,-0.06891092410742602,0.012872383298846742,-0.07225432404207133,0.01190377553885513,-0.042283220146576345,-0.14073864175028766,-0.013636190696906917,0.05439040363437166,0.08918079324737457,0.10351477804905244,0.030208299400771934,-0.13432913396762408,-0.003460235043426707,-0.045079393557031985,-0.07891508850716893,0.1265025136683923,-0.07805606549914962,0.08446535837275043,0.17702744217312663,-0.10650221147082742,-0.10281735369466861,-0.16255651414698216,-0.07873029490892117,-0.002915051569326604,0.06395025619024648,0.001490584720868575,-0.06141722307804317,0.0016010980839207421,0.0505957839128613,0.12982556972958714,0.11633655934521313,-0.058421429685967675,0.005908433769290623,0.013285882654611838,-0.024998715830990025,-0.013692664124732258,-0.07943622860041301,-0.14994373728104685,0.12008893346999933,0.041461255385017035,-0.08713998394863795,0.04692194538857437,-0.0879277673232201,-0.03827142525812727,-0.0159240935137103,0.0354354989804758,0.1558762759369899,-0.0020365613902004706,0.007430629429684888,-0.11559141203045559,-0.2114404146540951,0.0987016838114048,-0.029898298721764378,0.17102316176315283,0.002104415600826536,-0.06546471104584231,-0.01818624774525924,-0.13883866202368741,-0.009134762016420385,0.0831525937411411,-0.09461458829989929,0.04236932982403724,0.1277726886871159,0.11743237557856934,0.009617846447867352,0.035207764255989024,0.013792964858188456,0.013810031791159146,0.11354502000267552,0.11384616602067558,0.13226668544396664,-0.07539035826164574,-0.0036428127092394615,-0.0168804085397995,-0.10648891070598199,0.0563470158858928,-0.11067416729123496,-0.04015727127520514,-0.1394128794463974,-0.03998728442103244,0.13091566936697163,0.0813931807730483,0.09775466299946663,0.09179090860804295,0.02416397796306696,-0.004602291839436046,-0.011886683378802406,0.03379658720252714,0.08740339660405082,-0.037833511849034655,-0.05621998275740267,0.06096467056627913,0.04953660360251196,0.12091882617941568,-0.06368449886025894,0.1363733519738858,0.04578830252282236,0.2877767650574766,0.2046741992713291,-0.06033854741626229,-0.11779798963323879,0.08917079274902592,0.071668982498333,-0.15010048084853672,0.022277328503402912,0.028085320421254594,-0.0014286839720569766,0.0584284128632692,-0.0870817133550692,-0.1870379777084568,-0.05364761175561122,0.10942761020072789,0.10117709794000428,-0.0703578548430563,0.06162912032546602,0.018456609115370635,0.10965826285780264,-0.1137852903988018,0.06883546024723321,0.08606576287692996,0.11357470843085957,0.06890083610860977,0.09875736075943718,0.0066170003337878616,-0.22870050647740384,0.012198581863770779,0.010967195606688176,-0.17940618400916827,-0.0062083134608617654,0.05136410750056667,0.07266590224578733,0.18847499950288638,0.08027055626057068,-0.10712923586228605,0.11529785650126488,-0.07083838902999978,0.04844850902662041,0.008570117263158084,-0.01121598069637874,0.00269759501636227,0.08889608376453706,-0.1653162347543555,-0.07125365389455497,0.02727074830215641,-0.016414072292582394,-0.07493332798485045,0.1827410354366306,0.007652967928147166,0.13138843392237043,0.027148030343571657,0.012029700904073983,0.04355418155802042,0.12505431370376816,-0.08311430950859855,-0.017635290218904576,0.05014765311866994,-0.01841840819534341,-0.02758601811612068,-0.0224889388483709,0.10796611237379253,-0.010547759174265066,0.14117560793097894,0.005665587486267206,-0.08976730007390323,-0.0013489748238200287,-0.005288579521685869,0.1499724023512846,-0.14955389846489045,-0.05779600003726296,-0.13722623318286978,0.08730573192727129,0.14039428864672926,0.1086786197185418,-0.07734508297234159,0.025667709403867183,-0.1504966573710897,0.1111744179973518,0.03685058708200005,0.17129600335778836,0.07705539204148405,-0.03774527297693458,0.11484239548625198,-0.014124850368198999,0.05367227162732118,-0.08978946341453543,0.015404059999358274,0.12763490586775952,-0.16837773729478556,0.053411133930703854,0.08867923336017261,-0.030594214458583836,-0.005218449976410128,-0.0551784041185133,0.10326099429417468,-0.022514563379525347,0.008549178536890203,-0.016569502668750728,0.04522903043572512,-0.02594329051030269,0.11142067192016065,0.09769079525269739,0.03884688875849671,-0.011756235243392537,-0.08432608063920917,-0.08720390456381442,-0.07662089742667301,-0.12667476178356,0.2116077108414063,-0.035941573368990516,0.07054463744942663,0.021051955999091525,-0.023226019176003518,0.04065940908672807,-0.0516346912758629,-0.10040487303528356,-0.008961898390975373,0.00632216340344913,0.18701957090305768,-0.10001020682700057,0.15338875726007511,0.0388421908704332,-0.04327232448528887,0.1454345364962941,0.006219711286845698,0.15489992899440536,0.010665182302338044,0.10711924862059269,0.013252969936927492,0.056600421131596586,0.04159348166521973,0.17379930494586593,-0.042760622245718985,0.05259336422177241,-0.0449831004872271,-0.08719149525134069,-0.0501198568891636,0.08927320093199678,-0.024748616242625712,-0.08325634239677872,0.16098368393814877,-0.13246809830562817,0.032180054171829724,-0.13882583844356786,-0.18987161682492046,-0.11426780456543896,-0.03793008819409206,-0.020449150881956726,0.04745336838113345,0.050874663756469804,0.032762227963431464,0.1200912216207549,0.07526442125877643,0.01861749873388512,-0.027286236428705164,0.07217330640035789,0.06464391754231168,-0.08275119848152238,0.01559773073881531,0.013740763081538885,-0.02397948451117661,0.12320985063932627,0.06541085963303335,-0.03128040179458825,-0.24635024449602017,0.007562411089181608,-0.043446551259904154,0.016055013157017687,0.06737613432404718,-0.17299426473693563,-0.016031679784496666,-0.054941313296728134,-0.052340653891460406,-0.022882774655984473,-0.020951732070684514,-0.0145233452883914,-0.08282589105249637,0.008444343741889631,-0.014964401218417309,0.06635309053291162,0.04322620251679593,-0.02961386782671185,-0.05316213604653431,0.13300876602908882,-0.14079754453660376,0.1077089039216123,0.12739314976976157,-0.05542237908578151,0.03696508560988771,-0.06514063205364301,0.02352328638394697,0.026827936544075243,0.19359705719774187,0.006624099025819619,-0.2027220997298724,0.037586875183136165,-0.09578694637635071,0.032562907314324964,0.20785920071227695,0.07958207815451214,0.09505702929156028,-0.007415271452508544,0.011126800202976258,-0.06383165377765387,0.08444715367302236,-0.050260810216973026,0.06318460312249292,0.13585279674551867,0.04052727572771237,0.00661966204861132,-0.03436803962992907,-0.05579662609186825,0.10658673608032752,0.028249820904197,-0.04232937813165799,0.10861834754900328,0.042982714744351606,-0.053133524459020684,-0.02591700985640413,-0.07804867309690718,-0.0816262861340692,0.20651273650206037,0.06581678760593454,0.025168636422439234,-0.008918041035771282,-0.18461916368964187,0.012598574899647203,-0.09403562019273476,-0.0908393828720731,-0.1015058352972215,-0.10053944100116857,-0.09950428382438489,-0.0918030835472414,-0.07405810475682308,0.1299790748779045,-0.15627536985018245,-0.016298819893643342,0.03484902768363159,0.04852835875255358,0.22572553353682315,-0.054173681982618425,-0.14758332115150738,0.06317153071777395,0.11127620133935737,-0.03498421543768833,0.08188885652328631,-0.14787184413050578,-0.001751848059222387,-0.027958098634551284,0.13532596784619783,0.028239090431429213,0.014140046240101314,-0.1409058461663498,-0.2126711767405142,-0.008911716796851259,-0.03777395348920719,-0.10666624567825357,-0.033396959494283784,-0.13059481230501452,-0.0007607354134202311,-0.045585751182046774,0.016571734943542547,-0.17573112092371995,-0.12648557364738117,-0.0722886096861399,0.02563196621911031,-0.13097583953421657,0.0683220623370244,0.07690859316710232,-0.0703150825211339,-0.07938939219391146,-0.0020975641782790795,-0.012887425612548457,0.18321947663566301,0.07492297913945238,-0.060487772732812944,-0.07403438636658963,0.02082345593764567,-0.09249707553395804,0.09677955252146254,-0.051250902518716696,-0.03683963125369949,0.1250757792333211,-0.12699387393522504,-0.22649188100862644,-0.02245808546551654,0.03287798742329993,0.05988926371670826,0.058563227603620996,-0.16339154154315527,0.044310767588171984,0.10165194027147167,0.004096837749586361,0.10672494078139626,-0.10956174297644594,0.0033335651894333507,0.06757014306106619,0.026966437617728253,0.02264821066813494,-0.0014900321856330524,0.09691309732286012,0.13223960272897028,0.15742957956146122,-0.05309669578979162,0.02052193943085137,-0.07221202698988986,0.07060372768132275,-0.11054115727475272,-0.14572222077651545,-0.12694462728322717,0.07419611038976871,0.07532414407137944,-0.055252971276152446,0.06642871309969538,0.16490013428867853,-0.16023625527515478,0.1058334616453186,0.029145361081396745,-0.09060091823803987,-0.08554380268849071,0.019055107724963983,0.04003044463821089,-0.1214013943430442,0.05109600935203836,0.03609674611495614,-0.053415611995855754,0.09978599114477478,0.10771704584816695,-0.030542453137624635,0.009450207592774816,-0.03769808480676308,0.11998595715435591,0.05573958861331383,0.012611481601042177,-0.024612764635702937,0.0012789361712678396,0.0036113761073734946,0.07092714866598407,0.013609424207290655,-0.05411797589639134,-0.012960500962454427,-0.019576950225099247,-0.01500630662479943,-0.05788648115921844,-0.2466646869822013,-0.09370302113166995,0.0591592179493905,0.18880121289811655,-0.004186185590491064,0.08813612454888332,0.06320514800985304,-0.03700121070043576,0.0320354120211899,-0.0499300263470265,-0.0681695804813221,0.06152780463563999,-0.059028629402191835,-0.11638039139812727,0.17187154349249065,-0.1426654213836314,0.020648113492582235,-0.0010758661710540427,0.0028956082596367496,-0.02483901476869633,-0.13766260493648905,0.12637404744477548,0.255577372386939,0.004270659854220094,0.1179475038991437,-0.11138325949959549,0.02179752704194833,-0.11760328225957624,0.06132989216077124,-0.11404494917946192,-0.01958827856553744,0.1434662018159808,0.0821522226339998,0.13190720459977512,-0.02621978583907668,0.2181021616330345,0.0015149719005668695,0.16390396899341542,-0.023804957858847797,-0.15985645157655312,-0.04696007298903154,-0.10493177673628228,0.02660290391590997,-0.010929135694446491,-0.14980140330378905,-0.024716590750021753,-0.1174823140190541,-0.16939170720609295,-0.054045285381608674,0.03598170411739081,-0.029804103683703596,-0.11354541383923285,-0.04105067709860988,0.05253889149345468,0.0457972016999633,0.06801544527868282,0.08232028225654772,-0.11326555458235764,-0.046987319572144554,0.12602681426139992,-0.05941261015939131,-0.35236397398977604,-0.02743206035118832,-0.00549090540151416,-0.1082987717121981,0.04013214630205865,0.0576795703652689,-0.11719565528742562,-0.16503985152329081,0.07965849270237803,-0.12964129516348277,0.1735849028776858,-0.014573474833140258,-0.00935241218096982,-0.11799371887348227,-0.06899667314412357,0.03155171290708742,0.015322794478887304,0.016449567201143492,-0.08522198032571184,0.14260453594327727,-0.013609745915834923,-0.03675227846307623,-0.022542842253126593,0.08309170024312904,-0.04729149665933314,0.06515958848694252,0.13270082836138747,-0.055621792537973544,-0.058647382030058155,0.05586970107375249,-0.007019729995719163,0.06076483017010958,-0.116300543278305,-0.03204807365274279,-0.12955856533116084,-0.08982442343333577,0.06986307761510775,-0.1022667752890303,-0.11543253914590362,0.005599042651299535,-0.10295316423313823,0.013347159743594057,-0.0648313946982813,-0.1471525646621798,-0.11619932140660504,-0.13820646735412556,-0.029747102724142264,0.04680115877557586,-0.036731693560862526,0.08374400395884903,-0.057220891380533934,0.11015023073021005,-0.060897335824020724,0.05688053512141506,0.029298164503602897,0.025584985993175775,0.12469172552911546,0.05595223418305691,0.08728938979853534,-0.02098382307666711,0.07894946324208353,-0.23305459557091968,0.03543508210796819,0.029264522102211733,0.14524160487764773,0.03935672722114268,0.03494305242188095,-0.041122167740705415,0.11996027900176999,0.005397766131172015,0.03818515019441971,-0.06288321471201855,-0.03714766921228497,0.09085046839055648,-0.004254127714823017,0.16670131480594252,0.007593847554430948,-0.025072416027575026,0.03008109494838486,-0.1549972108958838,-0.017546953771158894,-0.14961339589165829,-0.09657541510403021,-0.05604405386496428,-0.03543763171229862,0.040830133396299206,-0.04253400743313445,0.06488110905156859,-0.007316063408087605,0.023687608746927113,0.008536467764000924,0.1049550126615387,-0.1867509039212618,-0.06221850353434077,0.04018775897342475,-0.028392203990395257,-0.09290659918353929,-0.03924601322499988,0.04869324175657015,-0.031081956996259083,-0.05697429401046957,0.006438977833162776,0.09343053683672528,0.04271340643603254,0.021616571940807638,-0.11464364477923923,-0.017478295203702005,-0.16992267225039515,-0.08115104239586286,-0.0573004149520582,-0.07101529471759688,-0.10583283008178732,-0.0035571046859740694,-0.12943968571125364,-0.16815037311881656,0.0596453462973357,0.036387749925862016,-0.0601146719940542,0.06896521548908054,-0.07958129093465333,0.19049862016021726,0.1986510472153322,-0.0968031757266247,-0.01905599913116591,-0.10521232746755423,-0.07933186629898188,0.015933848908752084,-0.02028735795224549,0.10390816554616626,-0.03179365093002507,-0.23850273002791092,-0.062246659089605375,0.14127771668566588,-0.04167542694404028,-0.041035658244791384,0.04130666561392915,0.044499540602419625,-0.008295676291551516,0.08381215158239275,0.011731588686930064,-0.02466334441367886,-0.09796051283822031,-0.08417137055607737,0.0029051209462858003,-0.05120342410966255,0.11792014053898134,-0.01668118580141082,0.047050865994537255,0.09658156100654465,0.11807281424443708,0.24487941329625595,0.07096153465139447,0.012660966176317517,0.019291950389692832,-0.016955642666679007,0.01066455175808105,0.1898718876310421,0.012700328717686723,0.10168907316759333,-0.035230169107930726,0.03641102621143187,-0.12251783820760438,0.24404781671011602,-0.10248978946762928,0.06434281241958612,0.11890292817220503,0.011305491869708827,0.18449448626442758,-0.04900980787137642,0.00761325571513995,0.10911320258707716,0.05750286343666656,0.009345373505028965,-0.000701848885041836,-0.04483816564871591,-0.01690496005870184,0.07007496324378695,0.0752816242869539,-0.15010072610802092,-0.1983430768913703,-0.024525041244877446,0.08685260750978573,-0.027874146432014503,-0.012700330175833946,0.040701525003939754,-0.11342997431934765,0.037691889060899854,0.08394426258079864,0.10527864139359745,-0.07359851420145858,-0.04742186981280431,0.029029773757531754,-0.004376642872464526,0.055155746582832524,-0.015194861561618917,-0.05332201594288415,-0.1287502259554051,0.15015240801590693,0.18822369505223663,0.06895845225828266,-0.1360091692566716,-0.0003289932076747112,-0.16737519102388002,0.0677387963709189,-0.03047256405343497,-0.03892543898628754,0.10142899278987312,-0.02345416675384537,-0.07334168682957348,0.18791944006637037,-0.05500072460976788,0.11926575973422028,0.023674956494846675,0.0751742502528794,-0.12565989408124925,0.006435523487859824,0.1263163635691992,-0.1086692066273455,-0.013462848481556502,0.04185441848500108,-0.15433385054470863,0.09644748280269198,-0.07731988439270054,-0.05098373789283046,0.13254821382085252,0.10487736925798459,0.020676389850790514,0.10914131943092413,0.08016916854105278,0.04135281546711576,0.014985111239155071,-0.12465150874272239,-0.01764820309212472,0.06802336531955244,0.09061498186956973,-0.03384075752918664,0.009011350489669844,-0.049620759039373255,0.15952507227830479,-0.004270748996460512,-0.060831597891098974,-0.20995979975293433,0.020820539465998926,0.07048258302370126,-0.17824438041358825,0.007878752414906431,-0.04533997603908426,-0.035684520580609946,0.057781892953577,-0.044763016424417136,-0.09750405986104682,-0.006321757789042531,-0.021249315192062416,0.07524373127302614,0.02399091762419249,0.0545171369996542,0.023941685210290616,-0.1274536337189702,0.04336149053170137,-0.21961705534507536,-0.1748558143410683,0.05220145460895328,0.04276409560578706,-0.07761594269171093,0.03108785043378154,-0.07788111212722537,0.10106406874065946,0.10494884655213052,0.10999192092723725,-0.11821430721563006,-0.016765120714759132,0.04867471707653572,0.12881999441170214,0.16120372256151302,-0.15184049902258503,-0.07293036973403107,0.17638225774717708,0.015441329925457692,0.03889223436093164,-0.10433432785901671,-0.0706312775816657,0.1272791052313478,-0.12355184526461116,0.03195346365092377,-0.016443895791987094,-0.0005661930597441394,0.22521764954005924,-0.0058941727880273236,0.1968629937543167,0.008097302971996415,-0.06998486989228483,-0.03115637777560622,0.04056136808714692,0.031172617389095082,0.13056964797693435,0.04682584841104778,0.08597837682434668,-0.06454141090344083,-0.015016908735352377,0.07130147224303618,0.10102159639492693,0.16903680782561292,0.10227028690800996,-0.0197640620071335,-0.07467996426772952,0.0012434704802765724,0.14326742339284512,0.0042151091757482466,-0.059750093804694676,-0.08406319860791056,0.06916804256246947,-0.04280968567207999,0.1917074956631313,0.04275754836619507,-0.14331696175081332,-0.13627471763041032,0.10557032800926298,0.08378787294731874,-0.14425815330757674,0.24481328860015647,-0.015459676208788273,0.14217711960282356,-0.02081985085592845,0.06955681910997612,-0.05086848177087623,0.1075194172652268,0.18561279421438412,0.015798712154329732,0.16379841053905664,-0.017919112858424936,0.14683302429066963,-0.038665211457965205,-0.06778530499558227,0.014425188976003003,-0.023051183645398193,-0.23267468729154017,0.14895920096813725,-0.01011049642665393,0.07448086673602378,-0.1070739703750381,-0.08657221305947334,0.05348061512635097,-0.01780829811558245,-0.04431263973894923,-0.04772876923340001,-0.12319465099982803,0.1729733949626526,0.06658416651580405,-0.02074273068110718,0.1782398242978278,0.10330467794337707,-0.04971917092951158,0.16228338475822093,0.06636337270890519,0.19441126662892846,-0.06635049759053908,0.1011517203039422,0.06101311184096156,-0.10198474007979323,0.057322855582597844,0.15270318806131702,-0.10180577098913564,0.08530195091113524,-0.062274385008153604,0.11727135160239963,-0.1331316097277078,0.006935426920317465,0.09119244287333164,-0.004469970459783611,-0.17022164172814394,-0.008656025781052491,-0.08795119937389607,0.12671118182880053,-0.00125204250681363,-0.005009250899654212,-0.049617396551567126,0.17926534806756758,0.18574704183604843,-0.111811185140578,0.04854884764299463,-0.022604461443845997,0.19876693698348122,0.1427695103472969,-0.02932144316853528,-0.20651049287575787,0.13694935967345126,0.07005150090639453,-0.1277497014163669,-0.026940444951050666,0.041230251069171116,0.13619204592935139,-0.03209720395476757,-0.13499303022293288,-0.021265451626557384,-0.08310659575960684,-0.05506287716179037,-0.03171049467643382,0.09465209488052023,-0.09911390382286166,0.04360800016879854,-0.056144540507122385,-0.035656981832985185,0.047750976850850196,-0.098467261361191,-0.05952392780695229,-0.049580156757664355,0.02430586530566232,-0.04143752193014158,-0.01074198370238512,-0.15357833707227198,0.23335995950752395,-0.13109367652159984,-0.15346259837947643,-0.09828566027824061,0.008972462501871432,0.028755334387658645,-0.06156058378848216,0.02274602405918682,-0.02941229975886986,-0.08189928693659801,-0.12986508430294877,0.03883950967703349,0.007746793293493052,0.019417043598258906,-0.013498037198161863,-0.08875059274521989,-0.0503103567668657,0.01171744043558681,0.027038940718287125,-0.044034223939865905,0.05119382876157062,-0.13012231619120443,0.012772914102552173,0.13583766557168678,0.022828207782954316,0.016429871570083757,0.09627184220527343,0.0032444272522203018,-0.02626418088525894,-0.0036438204310178146,0.03716935312519302,-0.04363495574100761,0.10155763885062075,0.006849125130029103,-0.0645942984776849,0.1376374828687138,-0.03608538944955244,0.028126121293194067,0.08340104687949906,-0.0672541013844015,0.08645622344440476,-0.0037451047978049943,-0.06978404527500054,0.01898640460385088,0.009347854059675484,0.007497024902241311,-0.05515053356054448,-0.09683168126343379,0.0012936894840043644,-0.06668140379394591,0.050861336685603206,0.08982595841629366,-0.22215433240554106,-0.010510545687977412,0.0008511807788010403,-0.2647891365463963,0.001194176470684666,0.09450233330867135,0.08442612278565749,-0.06215853748938646,0.041989354917116244,-0.03338827193482555,0.005258740382654462,0.04812777942203259,0.07989871891743537,0.11991305312532156,-0.10078320027605979,0.05267683431036255,-0.027653849924868225,0.08455392549074826,-0.013573320465964597,0.14900428208609567,0.007552114691801331,-0.003580298038125849,0.01733142695270285,0.05170993111552471,-0.04392418878341368,0.08485405142690221,0.03747501681062775,-0.08825270263066101,0.07596512231953617,-0.024169313929832764,0.08819827073771865,0.14944447426297114,-0.030973199773924265,-0.01745905257073383,0.1321290010260856,0.039403496855787035,0.13520416884456657,-0.0772783385949517,0.13822793631992925,0.0928037203562433,-0.07950869511933906,0.00595334469026509,0.1682750373750491,-0.13007257502662678,0.003356590950779503,-0.06643263420373559,0.006951084148346848,-0.25368786365700313,-0.07874060593538464,0.0063957591142269074,-0.017277842568264843,-0.2582707807260736,-0.021450857651853155,-0.0341139423134518,-0.1476392292424695,0.0003939802701469187,-0.11883452443081141,-0.1243500662404379,-0.025779043417508297,0.07386085902421037,0.20284456997694877,-0.022796656699025152,-0.09628011600114482,0.04953390947064821,0.07616026317415155,0.1208505600920704,0.008972708307594756,-0.026817792366655078,-0.0944659222798383,0.036485753991059765,-0.09280710430361012,-0.0601575752043831,0.06270783542845394,-0.05242697003099103,-0.03446775952110665,0.13816989160015308,0.0022076674556199137,0.030570162801232467,-0.06395853628600681,-0.004411103345349488,-0.012675502583805901,-0.07072963304422479,-0.09552278203118743,-0.0347546977718376,-0.09545254519485083,-0.03299453009822408,-0.053419806455519595,-0.12346514012996428,0.07885990365999135,0.13733373253494235,0.024690871577221586,0.09226322019207557,-0.10389558852461026,-0.030483839138801157,-0.056833102276320935,0.12086524646539612,0.016172268006037886,-0.04094828508488327,-0.016910663377151598,-0.11192384920012524,0.06310759420142105,0.13453842798923743,-0.05390418098944013,-0.022961893812542877,-0.025157267288705383,-0.05358628039048866,0.08952302329941007,-0.06408026728690357,-0.0395888897484413,0.1385213719842446,-0.08439223815766454,-0.14385999256602955,0.04544767937349988,-0.09688915079101952,0.09256289535100984,-0.0006218520228689127,-0.03694908411031784,-0.012697200242506496,0.24260413011684961,-0.025182834674483928,-0.16026420016338075,0.03540922509759747,-0.06399620540528743,0.027546555500657134,-0.01442425247198415,0.0143816660486608,0.10494457919342716,0.02053592117041143,-0.042533148377883676,0.035997204331569777,-0.09450954803201078,0.06974039320104308,-0.01389636782587185,0.009583989612521162,-0.029168449967245904,-0.014887354770174083,0.025744401847286,0.13962237399799615,0.05424839261082776,-0.09215843278887081,-0.09553497216021327,-0.08400932411943403,-0.1571042563285255,-0.07734757400664118,-0.02753380801747772,0.015427698598310677,-0.03906229984108655,-0.16795176341618998,-0.032442658357721116,0.15377722062925406,-0.04028238152831929,-0.005601183287736446,0.1956981592321911,-0.028659220008698357,0.11424478091298651,-0.021265291234840576,0.06749810490504335,0.10810382081651683,-0.03848253431645769,-0.1308831412254562,-0.10219113368005268,-0.10030188899012425,0.02387614836370808,-0.07650469715497518,-0.042879463456809624,0.14420617841792643,-0.06132435227355423,0.19339431464116272,0.0035318996520860477,0.07468683213836674,-0.07634588502490297,-0.10781787906080788,0.04159530856762794,0.15712809721739188,0.09029627606780483,0.14148708887478023,-0.03402718878967545,-0.08752197693455223,-0.01044717985791567,0.005341928420182785,-0.004020635558954974,0.1467907690199612,0.026169572376907865,-0.03914061342362863,-0.09390466502705082,0.038249314972782736,-0.010210799506240851,-0.018073175894361703,0.05645373449577244,-0.11977770564681918,-0.09077603168326338,-0.07789429760524816,0.023420405367733856,-0.1118591187992224,-0.11714792222324205,0.07042205029323348,0.04799018798224889,0.04082047999117448,0.011347247238106921,0.019463219431449106,0.1601555690126503,0.014392609473757837,0.11199725503189933,-0.16224107534338317,0.012651050960801843,0.07024644687821584,0.07613994404301798,0.039927375090937085,-0.005420285692565028,0.12577227367898677,-0.07789526913303381,-0.024346757312804643,0.1924232713286863,0.03344397931497464,0.09049112074563957,0.048475237574886754,0.033507260593415536,0.019687222830628574,0.046409749537087513,-0.05518876690113699,-0.060280265442678234,-0.11519276469092966,-0.020842256020287938,0.09892705630508151,-0.009761464370866193,-0.03034006480879957,0.26523656961002157,-0.05164032166946736,0.04973281277628878,-0.1083478275638585,0.07334726838897555,0.020296071821849157,-0.0482763854801878,-0.013455122621819976,-0.046709468015502416,-0.15689808519624077,0.03787596068595088,-0.050781253353889645,-0.1799013773025738,-0.14786572622157504,0.047383834300697966,-0.0581977223206087,0.02320407926049796,0.0025845213408373095,0.03845341941776536,0.10350130655493685,0.11652047646160923,0.11892264645887499,0.0057140788088369115,0.016240309164876728,0.044810036113630144,0.019760075433179772,0.025872735987594687,0.06481162464740459,-0.019513932225406896,-0.1557240145003291,-0.13874030238863438,-0.1020930081510356,0.3077269626716091,-0.055311196975357184,0.019215706872946717,-0.010612100707513228,0.08685869025644925,-0.04837352416871727,0.08828524257408352,-0.0008322857356210146,0.0757074674910512,0.011571189927730943,0.004928646192650065,0.029170209460642384,0.06768658752306167,0.02919272621123878,-0.007769707371665192,-0.1257378992862041,-0.18065264448365637,-0.13501531334775482,-0.06818200965351995,-0.09213703150145267,0.07830800674629243,0.09193806690603945,0.09304230570799549,-0.03753307689459921,0.06535310508054139,-0.07512891482127661,0.12397795878327242,-0.14674303793590068,0.031381537137350535,0.08005478294899405,0.15197539855731954,0.19319577326529286,-0.0030248783433352374,-0.1528815889816308,-0.031979079459127854,0.04092728537280019,0.17940809247822698,-0.0587504729866813,-0.016363069710729643,0.09113419674359323,-0.015103706547256264,0.09140722508155674,-0.026146315535543162,-0.13662952287208877,-0.0389965110345221,-0.061532933451643804,0.07151194209158292,0.004445062421251421,-0.14512305085376032,0.08308390751308564,0.09069233137043307,-0.05495768621548166,0.031055117925530826,0.10475159371880366,0.008853399102792515,-0.02629273497924603,0.0011705971095211573,-0.08804855339630904,-0.1301257968431785,-0.007682237160936128,-0.23077245501294968,0.07680877950191155,0.13563583721070843,0.04886816673137247,0.04119723269102988,-0.08657481334557246,-0.1913598729606559,0.036824776483566676,0.11612216534488602,-0.09850773769216636,-0.004599920511532955,0.0652196359518932,-0.09291051178547614,-0.06661699586060055,-0.06474922912080305,0.010887827178453428,-0.12752926287514516,-0.06589801678804913,-0.009262170926174686,0.05112932506879267,-0.004931554449841338,-0.0028909403187959465,-0.07448209119467375,0.04850035818524549,0.025163181656727686,0.1152789423943162,-0.10518662344079206,0.13168269089227938,-0.053509512784842624,-0.0764672514387215,-0.11970821976590093,0.02297107267034524,0.17598226219582075,0.03227439893894939,0.08262751967278298,-0.012474674751183754,-0.02260431794680366,-0.044020656506519124,0.09301772474631163,0.1715633791857281,-0.16910441752293004,-0.0024745271798213963,0.045985397218522975,-0.0056027921600148335,0.0900329974902853,0.0944868293983283,0.05281993279406834,-0.10971999505172893,0.020408588276198656,-0.07632042764067379,-0.027317669119919598,-0.024964393269880245,-0.05971518956854124,0.04815202606422793,-0.024164178916468528,0.08439412234449903,0.048245581669864514,-0.008220600266424941,-0.02894515801334794,0.0013799216794956285,-0.05624402733573491,0.0824686277753444,-0.002983866890153021,-0.04187590866442609,0.1690090991333245,-0.07083368735270727,-0.11211483363810755,-0.08167361747236894,0.11179846427040743,0.04792903324341624,0.09575355856161155,-0.15838935909224666,0.008990243604455666,-0.2028735435632569,-0.18203091305724123,-0.08733727594948318,0.017115269060183055,-0.09173890011782042,-0.14977331261995858,-0.023969332982484434,-0.09800578513264868,0.1438085629291557,-0.0168245784061498,-0.027722088782909188,-0.01934155014916646,0.06557941260014412,0.13718189597714983,0.1039273088424019,0.006647722679714516,-0.00047267411671199274,0.02406397768648692,0.058418167743419035,-0.1460797990233209,-0.0340056367146784,-0.17765133376254016,0.19920188550197776,0.06370589512103779,0.06684328178441445,-0.15863510256862717,0.0040197881837788505,-0.07289121218108165,-0.11887670212306332,-0.04401132953448336,0.046872422870325336,0.04764084439344402,-0.0529052441346241,-0.11126318406453488,-0.0695410064285943,-0.06613703574856926,0.13613164015389786,-0.09353853557863451,0.11320288929108074,0.0038406470583769886,0.13730047161394382,-0.07676310495790373,0.18888775674841546,0.12190001074470767,0.01868991990325899,0.06376124881178025,0.12674261635766093,0.10006530439188675,0.0955585780257743,0.03567740791300971,0.021208903418210114,0.022509669101732882,0.132419461563547,-0.016242587141044214,0.09285873912668939,0.07972901617499567,0.0007617709777948314,-0.06944872761099971,-0.024926236426920788,-0.04582944198826143,0.101886725444141,-0.014282520275218131,-0.008582288368079755,0.10364274396271252,0.013272595209289842,0.05009980033671206,0.029886524515415014,-0.020678168060603987,0.07017008250800624,0.06967152337283326,-0.07978287333108404,0.128158368752402,0.0687974834109014,0.09493058022384719,0.04704925635196486,0.030845273774115826,-0.1208005249121859,-0.025126971823088647,0.006174610517556567,-0.12490296584292918,-0.06038036969558904,0.0759772018728549,-0.004818828782982822,0.10294529637100494,-0.025174155428445467,-0.01648004809529209,-0.027196393982094464,-0.046629040350828724,-0.18314100337746206,0.00939598218618764,-0.015802631206343527,0.15435700980765582,0.05139960842409316,0.08950782016933789,-0.0933776053292566,0.06416775062898303,-0.1688567428596606,0.1468876217453302,-0.015525323569251081,-0.009951975035959005,0.06762778867457334,0.03704635307263584,-0.1162489286531317,-0.11750269437980748,-0.01848214106347549,-0.12419855111338556,-0.1020782336627256,-0.16498576383765529,-0.13281962677128234,-0.04550457021200259,-0.12201580298922594,-0.11585025329261235,-0.023474445728635232,-0.19157143126906204,0.10314197009839092,-0.07493980005616072,-0.12677066304302037,-0.04043758560302126,-0.013228366742001202,0.14127175688674729,-0.02982434464927969,-0.03521931682740477,0.09746593002613628,-0.023623480199447214,-0.030449563725187912,-0.07261364229772653,0.1782134931241707,0.1036073839104201,0.08328057216001454,0.009730712729955203,0.12451999808399392,-0.0474708442645159,0.0015700755416686067,-0.08472530507838245,-0.004495927823440457,-0.028723150349033902,0.062418915525371745,0.0581890222986904,-0.14089038603467147,0.091423591064959,-0.11046453751658956,0.11686846804172389,-0.003151209619946209,0.05977426126016632,0.019349502101292815,-0.10743080034498811,0.07376107807676462,-0.019932185668243865,-0.13732828239885092,0.07676902750220031,0.04055725363012862,-0.07268625924406114,0.038219314079543744,-0.0006699734982055221,-0.026270402364038395,0.165456723123651,-0.04572315604568298,-0.17201838365925168,0.12913826281860186,0.00485188348992325,0.11715758236025048,0.07836790816631749,-0.0618044699574456,0.03248719302670529,-0.16365780212384365,-0.040167072924662865,0.17539151349492174,-0.24278558361658575,-0.07121564824232302,-0.1541938837288174,0.03002800688575901,0.024852674522421882,0.2381241133010354,-0.01099100289943848,0.03784649723814203,-0.06752817525817674,-0.006544980977386643,-0.0390618897835292,-0.04327558774290594,0.02671749327326213,-0.03099059856983632,-0.15601328617613902,-0.0777181372018537,0.14571383863839116,-0.04911812744758416,0.0811232341296896,-0.07079054503950849,-0.12603899530823195,0.04239101044860591,-0.027121246162492202,-0.0004344187505497338,0.06953381987450079,-0.06718012428093402,-0.05957825475022592,-0.12259321795736197,-0.0895668473661693,0.1170514912493437,0.05221654300674849,-0.00822064732232199,-0.05411720634501956,-0.13758169624230682,0.02261765906542466,0.07012503393700435,0.16170553505568078,0.16071158689538695,-0.07435349460022934,0.0362487015541922,-0.08399462611514537,0.10104800470322758,0.038400505466348336,-0.0026633197360862856,-0.08014788969667637,0.028362850270195753,-0.1164577797102536,0.006071110720973864,0.020594719416354497,-0.07031514238376076,-0.09035515284951857,-0.0476670036080094,0.002125580330787536,0.06327143123544494,-0.1755657325631536,0.07323326917734901,0.13715614825137956,0.12018997931822023,0.09211938088040589,-0.028833373956894916,-0.11869169962327587,-0.015089764998191743,-0.02500024720927268,0.04453760523471921,0.05320861348414957,-0.16502517527520083,-0.24566853088582039,0.05333518101370098,-0.18231128209443428,0.06746674999965607,-0.13377381328528665,0.04153654758494524,0.06060042758839046,0.2068616979058663,-0.13800915106161774,-0.034786700288989676,-0.02141747955949366,-0.02044915044364991,5.7306872812078413e-05,-0.06631828787415714,-0.08991849294133768,0.11233345559135581,0.01773843925168715,-0.08508179575437164,0.06505109476408928,-0.009917639837020605,-0.0019592761772642157,0.06917341736218058,-0.03326620512182843,-0.04304779256317747,-0.004222837370262414,-0.15387161025459278,0.12355596145088085,0.03939384647767582,0.06795211158638595,-0.01388295674882707,-0.01104435309822102,0.0956730436294571,-0.12675024590011824,-0.041332286081418285,-0.11664518959641629,0.10271683608383418,-0.11701512207003045,-0.03828100988948379,0.06590011412156707,-0.022448074130690505,-0.0019831529697150376,0.17596967724047322,-0.09627656505159607,0.03433636810379483,0.0360288482386587,-0.10936942606713687,0.10291833523952736,-0.04092681576084157,0.023949777498884835,0.0654621143800881,0.14072467732733202,-0.053134974849932355,-0.017254323214758827,-0.03852253577257348,0.21156656553018868,0.034788444235984456,0.037957023572698964,-0.2659880088955299,0.070075393272986,0.04568078225239904,-0.04794732394064821,0.12084619412719418,-0.01141709818574709,0.15373929794470859,0.08652860264847392,0.10199165459833553,-0.02569564926151878,0.14788238707348886,-0.06806935444648832,0.07074505495100858,0.03177881944462905,0.04642520888617958,-0.02939816361714971,0.04401391560532735,0.024635797760375243,-0.0590451665082503,-0.037415342425763366,0.10750968770295288,0.13313556615617475,-0.1266138723322322,-0.04406521461060031,-0.0031941503489360695,-0.09897364083686587,-0.1068311502512775,-0.0170046331428637,0.11209129906333913,-0.01089645902276762,-0.06677328302812867,-0.07201827739677764,-0.016488841488575982,0.0039018359896557412,-0.2741182241020313,0.014771277292092785,0.1927775104929662,-0.1646641580200264,-0.07123185395052305,-0.1302678526235963,0.01780872582059101,0.028164633188523937,0.04085231042075674,0.023994146698784503,0.03670602335693704,0.08276426074400309,-0.10359628498911636,0.0583217574323752,0.01500850901311413,-0.0816989441647651,0.023914703219663595,-0.007644801432120833,0.08339838001433966,-0.028054208331103156,-0.010335256474733661,-0.026414774147285044,-0.005917409488373413,-0.14543112683052947,-0.10736414879982727,0.05407911705958184,-0.1451453448121602,0.04248127542043697,0.07676538152022262,-0.0550019630491708,-0.016830814481226763,0.02768560542652083,-0.012374120201302267,-0.0655823670615618,0.1263887581229343,0.026989670545535457,-0.07891369894258378,0.10445333506229029,-0.10391894373348237,-0.012649327809337049,-0.01162030034730459,-0.051236336490115726,0.11567506305977161,-0.09791112153401989,0.09544332920399382,0.09849258677661528,0.033379440213393695,-0.02819094175076166,-0.12405398976523688,0.05744917968851159,-0.039622541389609724,0.10528245543317977,0.09486751599045079,0.023478646262106835,0.04754999644322677,0.02282657600600617,-0.20988025104165386,-0.08849972263630888,-0.08125078762059484,-0.03577269634508559,0.0321475058666017,0.10895673078007698,-0.08877116450365319,-0.0916629981296424,0.009281621840266785,-0.012426968008486227,0.03448183504403029,0.010461313316448935,0.12270359330759324,-0.07740179323353105,-0.07283728417912978,-0.022409139428322216,-0.006033693671289699,0.0055426274528417845,-0.02813119201550457,-0.07568524328656136,0.02332586644023686,-0.006180997745573345,-0.08417673973969536,-0.08788921124154413,0.07752777757853242,-0.036558941001258206,-0.01133662502316392,0.16379358790604226,0.09338696720749891,0.03378355978915521,0.10384483805930496,-0.09158122868275423,0.09839677696679494,0.10484011106230959,-0.11483983609188299,-0.0404957438661256,-0.021800811112138455,-0.04372212054619511,-0.07861466795233357,-0.204997680393257,-0.013973840989897663,0.012876797731004726,-0.0703233469110068,0.0020264000344514758,0.08268962020606276,-0.05667491330907122,-0.07063802324395814,-0.0982736062466062,-0.13897676737388806,0.22305593171420066,0.1881012617473486,0.049460827184178636,-0.07940580200417949,-0.05525879484567314,-0.08430853400067925,0.16620889895065766,-0.12253052343770383,-0.06849477994133295,-0.03128200409233328,0.2706696156836568,-0.012346734886936555,-0.1658127121811611,0.0007543258247500595,-0.08397601709553362,-0.02880467965993292,0.0746477055226414,-0.10944788954284786,0.07189484690968462,-0.03510133629408237,-0.0908771112564403,0.155909682082548,0.09246647802100977,-0.22334650337518153,-0.10506086435636774,-0.01817167665383132,0.03498575256256004,-0.2177090342799026,0.12556569366843987,0.12098963599104319,-0.029743482055436626,-0.05569213154190479,-0.1556366617266888,-0.14971741391668703,-0.11253030626666612,-0.044035849682136446,-0.07358169312099787,-0.03908518731429658,0.05436165882433594,-0.035715310256242756,-0.05010561137385073,-0.02784274093221646,0.04553134306394031,0.0464935096809196,-0.04459946056046173,0.1510941163400058,0.048755066150225256,0.08412594828405326,-0.08485265708795493,-0.02771263314255857,-0.11297786505504025,-0.01739264487782216,0.00528225147742325,0.14779888611315042,-0.18108118341727028,0.06053078097966368,0.026570877644226085,0.08198371191726476,0.00831469712254876,-0.06581733713988219,-0.05483735036491888,0.0035983156044624787,0.06726634055008111,0.034684408127707005,-0.04607618744227303,0.1622317388868716,0.030186071700793723,-0.010290511122666816,0.09545181820820721,0.05288872847015758,0.014940226950192426,-0.10104842746233397,0.11085681696004143,-0.07072545263586606,-0.05929862129590769,-0.06586688432323158,0.11634379291116279,-0.1937081997549651,-0.0603907765644811,0.09735313839350258,0.1187957345924248,0.06320869871581145,-0.0011518238777273946,-0.05407724805309091,0.010287678450743725,-0.04114478154931421,0.003809753404166089,-0.12241650112416765,-0.014803914531934293,-0.009626577111833644,0.08023018052263964,-0.0684477107241059,0.12596668826279167,0.23722085755160746,-0.07500223346587104,-0.06981013448555012,0.09645844429765828,-0.035489435924562995,-0.18469204109198537,-0.13547673388074913,0.019756404208562756,0.07216067377620275,-0.11179009734501959,-0.004634619649859045,-0.002898419996961794,-0.029741115974072446,-0.10788460205753828,-0.055826326167574866,0.03514531079459389,-0.017332836836630276,0.14581008838973783,-0.1224470124764327,-0.03821600327345021,-0.10664749638926595,-0.045831381843444596,0.109874914262602,0.0626912789533166,0.08382500524580414,-0.0033142699220650904,0.10460193962575026,-0.05252640329278383,-0.008984131623389706,-0.04936684234747711,-0.04039508918024879,0.20044595178069954,-0.00010891463610116552,0.039615582931731834,0.05563848445843612,-0.040450240687744374,0.10303339521337201,-0.007538521377064253,-0.013733345400117277,-0.11627008192806376,0.0388627488033705,0.041748187493320675,-0.1627460361210422,0.08991774293827845,0.024155641775243982,0.13469432566751172,0.0377269505564311,0.10423136813441795,0.012261495657932532,-0.11765637136318098,-0.08523890287792316,-0.19794304833707305,-0.044753698637575466,0.09336101379475568,-0.05366654006492537,-0.15554727287142017,0.005296529394223721,-0.14984245158168738,-0.03845752416688485,-0.08444898317903896,0.006511637773324148,0.12971533922714518,0.034022585622192646,-0.00738333360604579,-0.051400446902443,0.01095039711151339,0.07496587847654218,-0.08727237917896186,-0.08969046644573148,0.011474020634693567,-0.025422474494097375,-0.08691722225014556,0.01466817572068221,-0.0032727306877510334,0.04128021154617949,0.18224309101483346,0.009949281625857577,0.02254473892825203,0.07450822842038926,-0.05574135360256351,-0.05867464730203305,7.900663122492532e-05,-0.09956477196960353,-0.05613312501573329,-0.14384501919640763,0.039085176751131816,0.02176050815550652,0.05420106242848997,-0.0282419757434332,-0.029120292887780945,0.08209648407235004,0.06617772161094321,-0.06222942062891795,0.08490785167465277,-0.004221128215808106,-0.014383644248908683,0.08380134546431234,-0.0919669103113015,-0.00952739631518181,-0.15781749138150647,0.08896500548181098,-0.05264219484388821,-0.1545771414712722,-0.15586419969316231,-0.11872144561760942,-0.007308899018047694,0.11641965993266559,0.06517382635997944,0.015386299663640458,0.10654923951589333,-0.1577046908599939,-0.06534152648518123,0.02626741495168018,0.053219368189958524,0.028401329547105354,-0.045740090060201924,-0.03798962720196282,0.15473072490750106,-0.11245474339378643,-0.022215790608508965,0.12118312339682559,0.03430378368647752,0.05501993869947607,0.08373939079861759,-0.0037035384632029345,-0.10168704040194386,0.13971103100339943,-0.028797338313096464,0.06156264937110781,0.009937159708337077,0.06939379802046462,-0.13575601935785356,-0.15924044853888691,-0.15863906059207253,0.12864710205700736,-0.08348693439520212,-0.13890433218826473,0.10692574776735646,0.0425258970485588,-0.06817172149659217,-0.11077367508075088,0.05517155117107248,-0.052137871487721706,-0.10107786348784864,0.11759957910041915,-0.04103410108698477,0.02794793202659128,-0.08462181465698483,-0.14908312398288961,0.08797146468437843,0.10097568319706975,0.14571978425446816,-0.008222128940393394,0.0763864954282912,-0.041751409472065695,0.006550974326479675,0.018771155429461103,-0.043391067604120655,0.10434811807036688,0.12217753986071621,-0.14582959360412495,-0.07602217318515526,-0.09532016558011884,-0.034444500289712035,-0.08691788488768487,-0.14997606517168985,0.13293664066530936,-0.2505172967843498,-0.10641404764998091,-0.0014112381482064252,-0.058783792544914455,0.19170599705413813,0.10059071860668556,0.07846494821959053,0.048863424042869676,0.12328915823245132,0.14557804132573937,0.044855540378448605,-0.18147583414053547,-0.06954922603962327,-0.007305487788504451,-0.0017813487968675267,-0.09442670710354145,0.053938119411762256,-0.08195763695117952,-0.09929490510416654,-0.03215694019538093,-0.039499953499614354,-0.0799318623097622,0.11415377163239812,-0.03889093591726403,-0.11272433496183618,0.052820426171101026,-0.09282036373529343,-0.03577933338507116,-0.11701406331585165,0.01455070683607115,0.009185032997433168,0.04007231844043312,0.05008887867552428,-0.01120493766009128,-0.0890141197450856,0.003958990609537601,-0.11131284810270564,-0.03440245542848169,0.006256330443280805,-0.08069663979716812,0.06694240319963649,-0.11939723023915702,-0.03588939639920506,0.04664351220519666,-0.13599727369578166,0.021714329088586348,0.08182248609525478,0.022367966376828054,0.048220603036269634,-0.09009395691817321,-0.12981665740359707,-0.0020887760744883817,-0.017697114580214852,0.019721767235279915,0.04322235878479866,-0.026473163969825582,0.10186803721181241,-0.11806707804944994,-0.00900383529739328,-0.1674661837695038,0.03250976333620859,0.03605560100274533,0.05923670069615269,0.23344858046227218,-0.02010300742169367,0.062275645465974826,-0.014098545142057089,0.015199442358787417,-0.005757790978548719,0.04775624047222324,0.011700003022440016,-0.0794059582922439,0.09054975542239718,0.018435297327234448,-0.2554508104029494,0.07922160857558355,-0.04086924538456839,-0.04042354638794748,-0.007353472774505032,0.09447210785816515,0.09258833564301841,0.09522034736999763,0.0898968799443988,-0.04203767951613325,0.07532001608056281,0.006428911791698539,-0.04416024246401702,0.046338869865166984,0.08465565489184579,0.1981732600182774,-0.07230627175513701,0.17213284263542025,-0.013781290311694921,0.0007910128290864535,0.07049782450072861,-0.023398451456675365,-0.11026546539014542,-0.09779957681890362,0.11559699841733061,-0.07378625494327365,0.16527926748166102,0.0431137303475629,-0.06661444191346812,0.08958962262074849,0.055297137273725226,-0.2584042971221465,-0.08821976555674658,0.0012227776697942194,0.030645834769598517,0.0107968144896175,-0.020054746429983634,-0.034145558598907215,-0.07485456080438595,-0.0665071283018374,0.06478798399982448,0.1944907294553532,0.00848903862524792,0.06710021340066437,-0.1951580667061652,-0.026998430041887185,0.06958061257506427,0.11589137309139795,-0.09886019631575134,-0.09416856519901808,-0.11077140761423465,0.03539487849948252,-0.134351110541172,-0.08430842219328825,0.17700276565874334,0.02063963147220713,-0.056446264800297234,-0.02001455179029716,-0.06164788604933485,-0.11733360603640054,0.1386678949023774,0.017372516942599135,0.0801907384662862,0.07565226997673775,-0.028231890093990825,-0.16801419326454164,0.015517244638170164,-0.10207827071152921,0.05879823416538128,-0.11477277165256734,-0.16365623199445373,0.008392233545363385,-0.027732244810231257,0.027677418704490565,-0.11604133821426718,0.1145468301195395,-0.019022135798762607,-0.12038465898301756,-0.09147274241797036,0.12682006147503588,0.06835745023169047,0.11048898835464208,-0.023136991275492194,0.08391354138886042,0.03499707908221998,-0.11986104253635073,-0.047744710696851766,0.020351061168968412,0.16041087056106884,0.012375821249353644,0.025611745293067697,0.033498734746964604,-0.08465718045330549,-0.08325818118599641,-0.07231493385326765,-0.03996042539054572,-0.1074863028349977,-0.06750003827854598,-0.05227003042053038,-0.11346665947854544,-0.04531633080984963,0.017056647511937438,0.14323170059582613,-0.090702394448401,-0.19680828515385315,0.05134732261528265,-0.0659239714006217,-0.11971816983140116,-0.09920136813408154,0.16634630789133376,0.03097388350790906,0.040079375858473806,-0.1716167336493378,-0.08996000069627264,-0.18587134797466154,0.16181939959634134,-0.04761820809718227,-0.00334284093534783,-0.06028850610898132,0.0393765137748884,0.13987419022790248,-0.026742021083260306,0.036564807065108874,0.04194636229667501,-0.04328930439495356,0.007472804753583416,-0.015084591696391552,-0.07480021650930395,-0.18716048187569803,0.050615934412761604,0.16641660253170149,-0.13373779415226528,0.08661626522025377,-0.0012698182897128642,-0.12243655559186402,0.06102769844867211,0.012117315692559551,-0.15895310212151173,-0.08391074434373612,0.04830765461454728,-0.0890247194954297,0.09667496295239202,-0.011674657144980014,0.12843303367308004,-0.3152186665891172,-0.019557913001451172,0.17952241526558244,0.1523955447431592,0.08113044595528997,0.002692474822991229,0.09453373734340345,-0.01864170993327671,-0.03200053348312856,-0.03378735259132354,0.04383293704335668,-0.09303405823521253,-0.03677475050957788,0.07285459221734954,-0.024239597702452206,0.02502543027882816,0.07191332746037735,0.06996424910650313,0.1542927481278121,0.11724762252354953,-0.08444553291350555,-0.042614466766467685,-0.03593144203666742,0.11157752920510387,0.2478134740523362,-0.1541754101877665,-0.0793500629768791,0.04024008692841837,0.13878169238999763,-0.056447577309798616,0.05850687064053854,0.15663932766812305,0.09854495912290938,-0.08998830722585055,-0.0012568099449241088,-0.04094731105558176,-0.04669756375552933,-0.05260034594315279,0.0029447271424925237,0.020845818359956827,-0.07528299108920511,-0.10738056872910885,-0.19268021674790065,-0.1006797204741564,-0.021781218194945436,-0.0072082582659285495,0.0997553661698865,0.13354899834521325,0.05423755362120745,0.13890540733284412,-0.06144376296580346,-0.02861282529776248,0.047576898038609386,0.061171399058365994,0.07278856628449501,0.04576363040857093,0.09397068582709978,0.08524661091547683,0.06404341319401942,0.04849225423286426,-0.00013113663789629542,-0.1418541173330069,0.10039134874542573,0.0911575971662649,-0.14480354714859736,0.0015534875030266588,0.020725027319404735,-0.11919809847395635,0.04845161579615686,0.012733425731913526,-0.055602282142317154,0.007820332703080201,-0.03170477847535878,-0.03313012376226364,0.14214079553978623,0.08766983987104499,-0.15055751199557868,-0.09102152932493478,0.04460255714423512,-0.14757529397435867,0.07104364161290777,0.03074666507068177,0.06389197052820259,0.09601189965556743,0.06523560097466628,-0.05759325807129798,-0.060914470569218185,-0.031107604845676533,0.10875556077668258,-0.004225812121066519,0.041202732954943,0.022352738494282345,-0.09699600163982826,0.09215533021048991,-0.17722751544822662,0.024059161301804483,-0.02717098015106608,-0.037371991313358846,0.024477057372120702,-0.03014472105766232,0.04850458867918649,-0.003455654494393402,0.042220999912266445,0.08543410448870103,-0.12477170608198729,-0.08965456447493442,-0.032438580580367235,-0.07230086055338525,0.010680331041759895,0.08107897433512022,-0.15986179049510665,0.010117707367838832,-0.07211063756309337,-0.023790666957623472,-0.05327135840841419,-0.2124927896299455,-0.022278431917419975,-0.004773425448574621,0.07787219013264508,0.1432322559988873,-0.008927559702818857,-0.047966477377605767,0.10080319493445804,-0.07335383388167972,0.030123558586379016,0.09541337233014524,0.011793980629384781,-0.0516222011758642,-0.011790667573271022,-0.01501994334314759,-0.015932468044857498,0.11859813474350685,-0.07784115419363465,-0.011243817653532868,0.07628016301373329,0.004957481106950457,0.06674437099048977,0.04451848536951355,0.05341056981448092,-0.006583666921961988,0.1019060141854539,-0.09067329169621552,0.04501219937125181,0.017473781388676658,-0.010049437187129246,-0.020095849646735914,-0.14727642724396023,-0.06854062627662603,0.07113572519685091,-0.05495176712325021,0.13591662166157711,-0.04142304588573802,0.09700412783686871,0.07855405537922647,0.0013479399593938582,0.11287051589694766,-0.13400221405248314,-0.025659568912731662,-0.047989218937167635,0.027942147894374124,0.17444842722717468,0.11259700361136897,-0.0004601078237918335,0.1229160796809845,-0.11379825740101254,0.049342045730540136,0.09115762740178524,-0.16525839696209163,0.01890077993108825,-0.10563119211298228,0.03846916252888025,0.03147443649454983,-0.1739189066613668,-0.04376447181428406,-0.16221410974646505,-0.12164191363665743,0.13945764049827059,0.05888899420571447,0.0012193986396088245,0.04765257121082162,-0.04672051239195203,0.07191570111102512,-0.07338700528266459,-0.0761564188488076,0.07690029041922991,-0.16643585209023945,0.09344573051024473,-0.11414106219901744,0.11310572568748917,-0.062447425433450034,-0.0931176660530148,0.05417795930864294,-0.01890143060559162,-0.06636535764602129,-0.01128474864428783,-0.039185299537238566,0.0014242038016623426,0.044319106704492454,0.005535072276324539,0.02862073554283053,-0.0386334371158254,-0.03825822808047587,0.12215826191312806,0.004023616294274024,-0.03128263058802876,-0.019600741404218008,0.03035485431712008,0.048480795494479104,-0.094541336013025,0.02730282758369693,0.1183713600456392,0.04533226036510248,-0.11761467028364864,-0.022156510796382808,-0.04805005564922644,-0.002599108837550583,0.07416380816712899,-0.055345859721144086,-0.10474464764229802,-0.016911476184393558,-0.13760996562817523,0.004284478601010608,0.007766618590102065,-0.11456472173284739,0.05007751834192526,-0.03925582151505967,0.06861861827080823,0.044314430016056824,-0.03331138401209998,-0.014058004853736166,-0.04545936257650705,-0.029896032097187247,0.08308164890460977,-0.0017392101057507276,-0.12340816370781556,0.018974845860240175,0.04438073717695159,-0.11191521444394546,-0.005755325373952431,-0.16414582195026858,-0.20704786816878815,-0.021796454624644215,-0.19555733543612852,-0.04572284198079625,-0.02344414548945811,0.07402496902948985,-0.09538772283099196,-0.13168223057871292,0.09517974054704934,-0.185422831037275,0.09720071754704425,-0.0793856550691282,0.03010000546318029,0.06298008872377124,-0.057053285634417444,0.034186229132073746,-0.023384554689043636,0.10221751827868354,-0.18108635054137823,0.10247187170422799,-0.02100482675545558,-0.09786241974655781,0.10447519732719938,0.03868974951904668,-0.10845715324068236,0.010430661526138996,0.004352437205808986,0.07701472489268381,0.08413330499842286,-0.012781362020668527,-0.07697406421879416,-0.16261225497284457,-0.012474536914004982,0.009242546791888412,-0.24004708714017267,-0.028821905901786675,-0.09622406003489285,-0.0838301622224067,-0.05364127123266507,0.13160148776053432,-0.20239904187453112,-0.13384915795887925,-0.03834217657334844,-0.14714825102653448,-0.1043094176860449,-0.011436232166727973,0.0795712599551407,0.053003170803995525,-0.008050693200559527,0.1568738897146826,0.16055713119900053,0.08590906156721301,0.056019056562637816,-0.07483312516707866,0.1743621401677629,-0.13563926547327218,0.13566621945595025,-0.015288772503584071,0.009063677206022852,0.020762276566482284,-0.07056796389353494,0.035075129932645194,0.07216855653033281,-0.20458203641585224,-0.08222158419884514,0.06920763403106876,0.018483597355037434,2.18929183698987e-05,0.07172735967802456,0.1561140538236733,0.04370203454993853,-0.0692129477476186,0.061895288262166684,-0.02176741665606685,0.03208673792998465,-0.06736756627519327,0.011314359754117383,-0.20034182507002588,0.10097975098550814,0.12084706177890987,0.015407916578827232,0.03125909554028451,-0.11983285217957869,0.004463951631327388,0.0956875716388088,-0.03829730809009901,0.08013896264889912,-0.022036363385418912,-0.0799535585334813,-0.12015350658004639,-0.03857749732014079,-0.052807337145139244,0.06526144960768389,0.007655954317709174,0.06960831135132055,-0.08050641958637739,-0.02266071327194811,0.0572668272719477,-0.028055648254244267,0.10495729791433103,0.024833516404151355,0.10347148221985321,-0.10786711554138932,0.22218486541189866,-0.14468117902024621,-0.0003949416997560426,-0.07041886258290442,0.024597826221234763,0.1016496842396174,0.06027218399591339,0.019951429016373506,-0.17451629399607954,-0.01306475803723506,-0.08149800949990832,-0.11693822371217104,0.24657463708776825,-0.13382235529565933,0.13880749929608993,0.09177388849299387,0.1599419004900785,0.04536515216651849,-0.006525570455931535,0.02184308721829456,-0.00046944728871284953,0.018708929684468616,0.10500496712113574,0.1037420225497153,0.0217798269839919,-0.12623109402624907,0.18790328652548427,0.047892847668511464,0.03434502646862064,-0.10028412232373596,0.16387458664480126,0.0655141760839254,-0.212344054011604,0.028733680790380772,0.18565864784144795,0.062350045901765724,-0.13189926348750589,-0.15218308637245068,0.030065316500977025,0.014365031608500008,-0.13397394511217425,-0.0884280866713104,-0.0386573123931528,-0.04191352108077537,-0.026370727684849722,-0.18174051890805348,0.1003883535905534,0.16460668089302044,0.06453327495821301,0.05675275976845312,0.14378866741473667,0.08876565002066614,-0.08066421312935973,-0.08113311581437081,0.06156565716958419,0.06046125370328664,0.03311880412509128,-0.06573147752722117,-0.026337862947182687,-0.05521640102799331,-0.07374406559676998,0.132397907991734,0.013002177658627623,0.045351447722056196,-0.10562018309072611,0.12877584284462415,0.10212017144549487,-0.1070367539250239,0.09271139077823805,-0.0927939344058257,0.1880303554825658,-0.031017105491708087,0.011407343270946408,-0.03260252078361042,0.11502172797916994,-0.011464437718141575,-0.1026113212080442,0.03853802040828068,-0.03538236808740136,0.11709410196985226,-0.02697862788409778,-0.10815933713990032,0.11508571369999258,-0.07648271328501502,-0.05720266437646333,-0.020102284003132062,0.1852058724800151,0.04192097036892075,0.00043219240319568373,0.028948759248599867,0.0061734392950915365,-0.04789963768908938,-0.0456530076967593,0.025759212661752236,-0.19541825271315533,0.19246676529609877,-0.054338468141306134,0.0420405279041856,-0.13280074674104966,0.11475996925863004,-0.017328537233755856,-0.12671739453135317,-0.029947241521643415,-0.1386152439639768,0.020839230748779563,0.21496897554812452,0.04787933327104425,0.0524873013699505,-0.02124627567535482,-0.1710323031008326,-0.12534158343572147,0.0009746851309473256,0.07107114263011871,0.011912736316262374,-0.011490725311283931,-0.023141734734398064,0.05409704960512579,0.028729969510738217,0.032744300652728014,-0.0723949846848572,-0.026086174904435776,-0.14816031695820006,0.05701114520939829,-0.08183251817647494,0.1090124465752854,-0.11808190676673748,-0.055027414262764696,-0.06552842717114751,-0.01872572898371235,-0.032729305855155544,0.13900422733032436,0.015246557293474775,-0.00041413717653598935,-0.023658661423651875,-0.019619550267569598,-0.0772468161202277,-0.10361166287183994,-0.1879973234363928,0.03798889885813529,-0.027726039563483962,-0.0056462513368275465,0.11698597746301402,-0.1500984746406548,0.0429732817629336,-0.019348494845905426,0.07928779252685171,-0.07598670149176076,0.11070227593951612,-0.02376558959400131,-0.08094308186230975,0.026771974645652976,0.023604716452725247,-0.014734985144098225,-0.05926159107159868,-0.014945230790301873,-0.12466655653472655,-0.08630551241762893,-0.09271868515894886,0.0075051397904974775,0.040927981837177406,0.017658778442485024,0.13595993387800656,-0.113006933248559,0.11869917733454413,-0.04697790841113044,-0.08880483883377713,-0.034858199990019476,0.0907977744909243,-0.005649046229198831,0.06600597715625126,0.03923052453466883,0.023627725707047645,0.02166595660022056,0.14759811822488036,0.04094916548175215,0.045864526649802624,0.1258693039287828,-0.027854388183478157,-0.03029413921763515,-0.01728715774748835,-0.045599734305002096,0.03277690001930376,0.03518631640047381,-0.0016172291150815215,-0.07322946576007325,-0.030233039966769352,-0.07905316067718422,-0.1426169058606006,-0.10861825426028424,0.09495721388394586,0.09048339912659727,-0.014652245619841898,-0.07740590032444307,-0.1400562237871155,-0.0037643907835499643,-0.056627320371992355,-0.11419551420555694,0.028150707034701725,-0.061392992902441976,0.04704854081508931,-0.008757152173178321,-0.02804885421556957,-0.04759080614821797,0.04218152536262278,0.08423642712154657,0.10903208520598796,-0.03705653527991584,-0.16560888774052532,0.12861378703033888,0.03712757902676504,0.007886843122906773,-0.02297059871814003,0.015545499572726629,0.07423926599410939,0.05588002245953834,-0.12075029612272407,-0.1458521236039687,-0.1488635001409017,-0.13121914865479584,0.05603234066816162,-0.044031401993370634,0.03174336894458279,-0.02243025662582119,0.01887253980168144,-0.026661344762521296,0.07555978801324724,0.06964644067324262,-0.002376229164908443,-0.08347825577478613,-0.06872424579724484,0.014811348136036219,-0.02926816718661619,0.04102215322861473,0.07619440997909399,-0.02861620186872506,0.09782694558745138,-0.02723263438867211,0.029808129080227747,-0.14097783807335523,0.10009178897596248,0.19325117152055432,0.05156805168672738,-0.0845823738207769,0.04920395815458491,0.04360876403443042,0.05515191308520473,0.0442296764351464,0.14887905866887152,-0.16818942935990092,0.06823293333505658,-0.04702796913929567,0.13584474004910094,-0.042173265490472345,0.13575737739332983,0.03512138054735399,-0.021607073997752795,0.02808443630955523,-0.16414221565563755,-0.11918267667449328,-0.053189016182169306,-0.15241773632106154,-0.09982121148606626,0.05849492159919218,0.03580687957899836,0.04349313532970754,0.0026347407528695276,0.17238782246653706,-0.011804693205292796,0.10560831943818597,-0.14640634893653753,0.03457871753752956,0.03543416338228074,0.00865902232405599,-0.1024733370771234,0.03662272005333257,-0.015126109216988834,0.05051306161504855,-0.04838284749541611,0.049220008230274545,-0.10345990395753867,0.04067633119138168,0.07365432448233532,0.07196696149011451,0.042239356078351824,-0.04355474825891555,-0.09713048268980096,0.026040993781374824,0.0014843044957038327,0.0406428449913208,-0.014273544111177695,-0.017414468442772217,0.05116336468971084,0.09049714093300232,-0.18321009827574347,0.05906066691241246,0.10688658332610376,-0.08261845572413558,0.08065510070469531,-0.04393148101834586,0.18111853890388455,-0.19414895621713915,0.09429754453548153,-0.2058835646933919,-0.12315630516300456,-0.05150928910797137,0.16617078044578965,0.027429072916391874,-0.07048227202061834,0.0029191348146264933,0.10471934081901393,-0.00472433702730839,-0.02947077456206182,-0.1248291161599241,-0.0772890455775164,-0.04032533239092701,0.24245241624905906,0.07852780512073508,0.05360001504984802,-0.27343378074974517,0.04235110127684194,-0.0198254552535637,0.1275602001750997,0.04124679693383999,-0.0012479750707323097,0.08759702250728417,0.034206783187338496,0.056375679859021734,0.006163431295394213,-0.009353780539228107,0.009668878838605198,0.03703370715840966,0.0225341654875866,-0.09984340401547871,-0.1094526239830101,-0.042302991909968085,0.039956907924372516,-0.035003177486135094,0.2662160763099263,0.01911895707137163,0.037324328726629344,-0.1216755286032921,0.02469609812740278,-0.07153455474612568,0.04033065967730092,0.054095892611793636,0.08590312691837117,0.15810843778656872,-0.12595524008833703,-0.11949739937875131,0.06206340182008923,0.07907624259604283,0.028952267795346848,0.10393177835041328,0.001633201224987084,0.08823023828279446,0.07076746833696582,0.026473727165921276,-0.18294647166583924,0.02110482673863552,0.006967393551109001,-0.014924110491989597,0.07745224673894932,0.169240444099962,-0.0028378552646612476,0.014761013529813714,0.0954023783211807,0.00332361143578107,-0.07193270792507307,-0.13059163227776888,-0.1805258762777249,-0.18936052799961586,-0.047841923610671945,-0.0692757729409792,-0.05965963081410123,-0.0017858430407663663,-0.028554900944065254,-0.15958990135551604,-0.13359888573926493,0.007296321649744573,0.1590220482472397,-0.027924333311725686,0.0358311144653845,-0.008713684009638204,-0.21666830862627806,0.14037754407847053,-0.07557552216450264,0.007944315709382276,0.025503666517304582,0.0645399776492829,0.07664938005180247,-0.13321830105321342,-0.023258506611386648,-0.23355852527812387,-0.03627351725399553,0.11790819022911206,-0.0730793131656564,-0.14351699279637817,-0.12199391985773599,0.09654708288931546,-0.0445214001098851,0.0025259612110958307,0.06962184404550747,0.1282502414701138,0.0867670488325452,-0.08378890082179066,-0.009479880181671741,-0.0689740138802971,0.1941765934473037,0.009932499386169188,-0.26904287197277665,0.11946886488470074,0.1583763267794295,-0.06527008243737331,0.07739267500911387,-0.059650582993119386,0.027097861768450766,0.0506739061181983,-0.01646506693804705,0.1633153621403903,-0.07250741701194814,0.03409646040587006,-0.09233952654056203,0.009980662783378384,-0.0739947400569585,0.11035916112710348,0.10850952956491816,0.06819490441366476,-0.07708558119434053,0.12784352665768428,-0.06177877462287876,0.004369881200500205,0.10803260199065401,0.069821545094772,-0.015464905533713361,-0.09051210789223199,-0.02278917643691348,0.03456579031463977,0.14106946669962483,-0.07097109564573498,0.13882600453129895,-0.05888887596790704,0.06334801866848554,0.09796394225335611,-0.06743983016239435,-0.12023933445319925,-0.03583967487008056,-0.03439606182262942,-0.054159178121705495,-0.03120336724731503,-0.0017848810887628563,0.09780560654829214,-0.16550961072089684,-0.15306141480030527,0.09662808624091024,-0.2012863138408321,0.08045788841855572,0.0006528092223139732,0.1789999653389942,0.1767308056475996,-0.06515827321577813,0.045040500018190224,0.021360019181330993,0.09986192345573684,0.05706063188101341,-0.06241573900630058,-0.022134679106732714,-0.02611266043881491,0.06149676352825016,-0.02629189843360083,-0.08923370301586903,0.06845273453569058,0.13509950480274155,-0.013072392291011809,0.004812677117169196,0.028552478120318893,0.06330784323276449,0.05383587334381557,0.06150234388711455,-0.0640255210623796,0.03505020003429019,-0.11631511078009939,0.049950285955620795,0.05747069860843227,0.25168310313895736,-0.03766205374675556,-0.11931456459962751,0.12058283379263976,-0.013612157553301505,-0.07199444772980958,0.046956193430442064,0.03799866497772703,0.008776749792220524,-0.016118238093640668,0.07492929323164715,0.03955060704057717,-0.006430938833728638,0.17321810134236332,0.003899275902693013,-0.003755414182398669,-0.007332436327835857,0.05663940429618166,-0.015446698379949804,0.01332862123222511,-0.0665231942979409,0.11037026094777141,-0.0779451847771719,2.9738341375871163e-05,0.09028589249535623,0.007704864703983914,-0.052254254053122944,0.0429492210667579,-0.1404659451616977,-0.09923535894937596,0.12156675302315251,0.08239351242319365,0.005719073529298722,-0.03053565452426565,-0.1062216054634529,0.07429443389539418,0.16807908503837854,-0.0017315934722148478,-0.08234328766307208,0.07529181162350655,0.03680507399248463,-0.006085180898574836,0.09935131803712853,-0.12672042827014574,-0.12620022616179527,-0.05398029080707124,-0.1087890077963589,0.009814685733932814,0.11086815465145146,0.05725548197071689,-0.09917022849698984,-0.14899421919313485,0.051099952017060184,0.1778737279475145,0.025299738953677306,0.06632858530094543,-0.009580758704991296,-0.028748532468871994,0.14633257614111808,-0.1356419460565734,0.08433085103879628,-0.14774504817638015,-0.04465731419042177,-0.10632561567437963,0.05136011246515282,0.07009960900366212,0.07794683373456354,-0.1195705314477797,-0.26624633676423837,0.08027630099414139,-0.13650313106476947,0.13472714721839726,-0.07850494826785047,-0.10647197271157616,-0.11855075792602203,-0.1819453401991365,-0.027688146669406177,0.03136168928461359,0.04558009664584901,-0.09901650877452502,0.12805644472490882,-0.11489308379748042,0.06294579591831809,-0.03001752615952322,-0.019285422180783968,0.030365904943616233,0.03772329312372878,-0.029630096924197807,-0.04378477898075324,-0.06422505030861238,0.028637980683086997,-0.058188290161820116,-0.15424700151784138,-0.0013754444575716123,-0.07872576072442722,0.03743680487370574,0.008631555092403468,0.01978656398072562,-0.09300066828870178,-0.08698009937437942,-0.16604294176301468,0.05569373955191825,-0.10961799282491969,0.022982332394896804,-0.06589754556028672,0.1993959615913159,0.085644807341765,-0.0004685203323885502,0.05450509549419335,-0.0401127965773019,-0.102528552723857,0.06451194818163897,0.07633342583011066,-0.0680583609479984,0.031869273890152185,0.15831676306739065,0.05403842213759607,0.022340788559775573,0.08158524120458716,0.17702884050888562,-0.09786789305343456,-0.09274813127320672,0.05456341084633317,0.05690776341887635,-0.13512215765164234,-0.03094308783896444,-0.002157615731303362,-0.0865825150232873,-0.052793593832847485,-0.11071254804613216,-0.04826620610801445,0.002493725702214084,0.05848592155398731,-0.13205157965556977,0.005615351019814648,0.04628393569489085,-0.01803127652025298,-0.1320113707288246,-0.04437415328482652,0.011893971594706955,0.013965599465108804,-0.00312739565191693,-0.062178107212028766,0.05205044086209172,0.0782761815976766,0.06018514207129604,0.02711350847746443,0.1867466435637678,0.07864853872718951,0.09115672680273386,0.12658703986462255,-0.1393153114961811,-0.07295303626470034,-0.11686421921643389,0.08299567780168376,0.16128096233340264,0.00026767084681609903,-0.0544114694621241,-0.0304916512836172,-0.08328636817719226,-0.04022857414110916,-0.08987883155083082,0.026700511346595304,0.07260622334008458,-0.06819919600143941,-0.08832353231850569,0.04137465148376913,-0.03875420160321236,-0.06919272253174508,0.09258300702660689,-0.042336942366971074,-0.10870495153298847,0.010911906535955555,-0.14104119765529463,0.005702190876894154,-0.006573649315941418,-0.040162676500245034,0.02200578511503974,0.09965649292344135,-0.00937568671302267,-0.011532945315884478,-0.0818838593484671,0.03635550389943622,0.09107643641943979,0.02510065323295482,-0.07493621433927959,-0.13709133949935717,0.14863153046378969,-0.02738048807601513,0.07632947246316031,-0.12606258573992946,-0.0419374544150079,-0.1300632914147316,0.12902306890210724,0.030692641939866528,-0.07424505024538706,-0.14944510064426914,0.0330182583144439,-0.07479224036456668,-0.007947755216881002,0.03841603945949679,0.07230523532898711,-0.11129817810687856,0.07337435560188904,-0.10387569029344526,0.10285482339501414,0.07695214235479304,0.11905534757905065,0.16998575786776615,-0.05148209627938701,-0.20919171183998916,0.10083605683800168,0.06069269106231369,-0.006816213377010767,-0.02617785946512922,-0.17762889058546358,-0.042010897814032964,0.044646806624569824,-0.05383874294585014,-0.032169447047248084,0.08316998725012405,-0.06687261953984965,-0.07247431761596117,-0.030027413816214234,-0.03572013089447823,0.06590337844500714,-0.0019988069923019187,0.10529870659792444,-0.022611130059428098,0.14421890312616428,0.06223161821096477,0.11465454175443762,-0.0207447314677916,0.09313369874655901,-0.011276203517361931,-0.042841025745439416,-0.1910842715530694,-0.025433487355212534,0.044169333903267244,0.048578517350660454,-0.17640224692925968,-0.033528794624036136,0.06370548266175834,-0.09525703719468828,-0.008808698666294825,0.0800426000206794,-0.08972704197453554,0.1603347056114679,-0.03156616345541187,-0.04988639001795778,0.05093643101183922,0.00830240974794007,0.022627162626244316,0.1006053937587522,0.03178266592331807,0.16380293706639926,0.011580051093561035,-0.03856998148965685,0.1406403205138561,-0.025761232958836068,0.1270088034637052,-0.19759304924949356,-0.09226141587979411,0.11334617346931757,0.05412067211201981,-0.0048940520691610695,0.00815372211780909,-0.11849139544776145,-0.010768616008006902,-0.019642513332580037,-0.05700482602759682,-0.13371297412561714,0.23285829418017884,0.010757647436561922,-0.02823563799047536,-0.014125204674828928,-0.047911899392543505,-0.09737164035275991,0.052392479227369386,-0.07744756831560284,-0.013752568250353146,0.08868545180323723,-0.20143418645404973,-0.07360387090596958,-0.1193141023862009,-0.1114357147648533,-0.0418450245711859,-0.09185151983915185,0.12318297478466868,0.04078591179681334,0.04337716236064329,-0.11362739010807983,-0.020862172074599922,-0.014001026200187281,-0.02697381472261749,0.1583989113950007,-0.023632997516102577,-0.031227772597426345,-0.013132801725006641,0.06133687096693071,-0.038655104608024925,-0.13327435184145628,-0.06312091661682526,-0.09573325369821593,0.10572955408027598,-0.06720207644940011,0.15813862347278623,-0.024101708603325014,0.0460694294121038,0.11154092107392993,0.05194987690296488,0.06066553534523334,0.09504008765248605,0.05698308699183573,-0.005345642669131918,-0.130316224443866,-0.1748562984802516,0.13282547333192093,0.10926903246020232,-0.05395710765400025,-0.0759324074024811,0.003739853461594441,0.15872151143146085,0.03282957127544167,-0.16276801164127164,-0.053796589530912986,-0.005818334753068225,0.024696041722987797,0.07751396860416149,0.008586680381686904,-0.10045978124415729,-0.10587407228383366,-0.002060693325396523,-0.04701877547931157,0.12602734432986964,0.02430529116048876,0.00729958069693778,0.058268911573519495,-0.019690453221180314,-0.025528743200762666,0.0174356588293041,-0.016994458752353055,0.029106944288766465,-0.025999615500187225,0.030539853553644566,0.17630192883113727,-0.0723325885163089,0.12808868512877647,0.04335567952275594,0.09746801315018079,-0.026275857213209266,0.017981929604457884,0.014372670208462427,-0.06189951475724164,0.10481260088983502,-0.10616394508893752,0.0022315295384768546,0.08637331214540538,-0.09202361898237141,0.0355101931667759,0.049934814244346634,0.07165899063364954,-0.08265757642447705,-0.04314523991844853,-0.1057131375679867,-0.03355513200319761,-0.16098478094361346,0.11563819699988347,0.007882409598756177,0.019436103557992284,0.04810730304290304,-0.22099838851568152,0.07222617812926634,-0.06700067553419045,0.017749495074504785,-0.04983406139543824,-0.10809403523500011,-0.09208443896815854,0.030376586718028006,0.11104319020390961,-0.05582336939970701,0.07229808162908757,-0.07562953356914655,0.11262462271730163,0.10217743873442266,0.04613069428776087,0.12965695933961185,-0.05659725560177023,0.12243123602964592,0.07710905550626802,-0.1468893334979472,0.019029259736960655,0.042159729960578096,0.046956310348714794,-0.22073687999395816,0.018006989411034676,-0.03160312389636608,-0.030591167149095794,0.13370652483714263,0.03718987856960727,-0.13101312051880099,-0.04393859352199472,0.020164645825205583,-0.19210340060125664,-0.049017312747158245,-0.07465225295244347,0.10079289365295069,-0.011647428831354232,-0.08544685748903065,0.003111686774943808,-0.027478657552390633,-0.019201850937942872,-0.08192367414874206,0.06974150326991312,0.04514744123998015,0.06148995100161419,0.11565371948716499,0.029745644145121777,-0.0030158939904951273,0.05145836561737056,-0.18680225290313893,-0.06118662733223829,-0.00271585219127028,0.058382575212850854,-0.029098321009312467,0.03382983031078226,-0.09185774636967972,0.09855868502879177,0.03517425703259106,0.020022460237213317,0.010172821273415636,0.06844759511249794,-0.15304500523461406,-0.05481881803252687,-0.07512709517389474,-0.0221038470275201,-0.17261951885570592,0.21707362295961888,0.06061040856808169,0.10173956292935124,-0.03775269486348795,-0.16285245420916558,0.010554046868684976,-0.24589167603712556,0.12646613978094995,-0.05455986807711969,-0.0831974930950344,-0.10194082125116594,-0.0050602113994396535,-0.16771081985078248,0.0993391371079749,-0.0983634651269389,0.09064421558944624,0.041654251650192306,0.002737907101995542,0.12198993059512214,-0.01967740374422999,-0.03785122315402856,-0.061253574555658906,0.13863937575630925,0.013804691231968428,-0.018412088551601872,-0.015523927912291003,-0.10640146092754202,0.03018633794584473,-0.0400324489367763,0.04842959419841315,0.08703184880724706,0.13698029234457654,0.031022586416109874,0.059457707582768415,-0.1371575305573,-0.010238935785973468,-0.13141662425604464,-0.17483964843453303,-0.13209052698342139,0.039055061035666395,0.03173788524454776,0.05619303657021515,-0.05587245120217051,-0.1566514973439909,0.07675121586899654,0.022327057382085177,-0.08287350516936894,0.0018351052581611863,0.040756631021725075,0.01780483430920574,0.062299064550928984,-0.07316706394176307,0.135829577713427,0.003709064788272566,0.0891811097786428,0.06188660746110323,-0.08848677624019902,-0.03489659857441472,0.03332141590723123,0.18018326598029125,0.11472515967920184,0.08743291076140113,-8.087410628323377e-05,0.04400919140528626,-0.1575002149267911,-0.09769597317844611,0.043724777137436215,-0.06844665565104148,-0.024566009351816572,0.09438218134308728,0.27386958553477575,0.051963333944037425,0.031299006611578445,-0.02774633103007214,-0.16223382143074233,-0.0016590080268271662,-0.1804779628996173,-0.06573510591961966,0.08382158930830645,-0.01123990981782266,-0.16982574071198167,-0.18156491388263027,0.08715915365370806,-0.018545655019139903,-0.024509720140604103,-0.10932131015686733,-0.005179312233058278,0.18486045110107407,0.054591914796771085,0.03451024390002098,-0.00042940557834942667,-0.06184727397140793,0.02907267303079078,0.12689760861067778,0.13567477769488234,-0.04391352730264315,-0.04847134371097513,0.13591055417072667,0.09485906079030883,-0.06847639488660355,0.04684658693589214,0.05731416330163414,-0.17998654095820849,0.18884752982192377,0.07156164675004198,0.17941665285167993,-0.09940372677198427,0.06990335683055826,0.0025398990908057726,-0.20783977169790607,0.06526593846714843,0.0785668700386288,0.004564138466807016,-0.16975871136626985,-0.04919328157063036,-0.11150885953971999,0.03465105047703322,0.08215182506675575,-0.032368921048063506,0.016716895126359144,-0.01898818803395063,0.00715588535298755,-0.0483914328732042,0.09915442340678177,0.06561640389908768,-0.022410642608670425,-0.021597893324954626,-0.13500383658354947,0.055358697053034124,0.03365219064520716,-0.06894303344914607,0.035497791596883266,0.08091645548259166,-0.08312655287779094,0.11217264281051166,-0.09018246404755255,-0.10862385173516792,-0.06315447522128832,-0.027711055462137306,-0.038051879536516606,0.07804067103115896,-0.06702006010295218,-0.1269780904161669,0.03040966479112544,0.11672406405014403,-0.03977872381979885,-0.10903257727502468,0.06284351393961173,0.028145879741210442,-0.0711407788142472,-0.010725278678206713,-0.09197999971225615,-0.06331040837156328,-0.04250416092006109,0.1273932290223078,-0.00509357515707107,-0.06128220602738619,-0.15212342176817537,-0.05859513237222679,0.1953077258718632,0.0023286932892650288,-0.06503530145114438,0.018125822422863085,-0.04464193185879789,-0.05478282286376612,0.05862975056812928,0.09727414723398885,-0.04446195264113421,-0.034606268655564244,-0.1654592692308627,-0.12807965663240092,-0.03836129749020832,-0.04529416076627347,-0.09178791532427805,-0.022659800700839117,-0.17768588677267683,-0.07586949030192534,-0.013571863571671387,0.13666437916823945,-0.273390310982549,-0.14045088436590497,-0.08063753477490979,0.08930169967280335,-0.058782720109605446,0.027264843977968165,-0.06592766963528557,0.05639462390956229,0.12477150453525349,0.13594768237296811,-0.10960180932822013,-0.06549922342374108,-0.035644972560801166,0.15286833208222084,0.010137156958099093,-0.009695049019368069,0.005642809544546293,0.0006835315878934464,-0.04499362468655461,-0.09213006995686798,0.028098361325605975,0.0069772301244025855,0.006643404697218381,-0.022732249122525427,0.0019627133179206495,-0.056720540271703326,-0.1255392230858439,-0.05357078893218152,0.08818168554749599,-0.09677173825514043,-0.06967921192117367,-0.16087137614093108,0.017977892233803968,-0.14200942445665043,-0.06711162472040971,0.028265289624892154,0.04669245424374207,-0.14028807452501113,0.09590525085790592,-0.06701262553448283,0.22436870549471533,0.09506451946218637,-0.31465370819646094,-0.07102794122077895,-0.0026336786245362066,-0.17231204259414734,0.09380247409978999,0.11497687838564856,-0.021461989095060096,-0.010460830323813262,0.06833680754384897,-0.0160432051391502,0.042763883380549345,-0.0054038020844705235,-0.03692937375331434,0.00904774427596955,0.23889095414609263,-0.11939540801068128,-0.09503895066937999,0.02856722807800122,-0.07972484417218327,-0.0559876048150392,-0.038219307371145136,0.002248952122230492,-0.11295322898437535,-0.03078329450352666,-0.12069805962367926,-0.12331440912614991,0.04334075141316383,-0.030798227781374875,0.13915712341444017,0.030169147195747023,-0.014792873693994908,0.11382380652521783,-0.055783566967720716,-0.027092262585731504,-0.0209246037206327,-0.0042781994908077615,-0.2157673427654867,-0.13058449123591725,-0.1665990373778804,-0.09554708971399238,0.01795878303297706,0.017822184044311348,0.020446571812249615,-0.11513291664658233,0.024695088715655004,0.03706378301624921,-0.07182887895114316,0.001831560566942508,-0.16028824019819207,0.056444489658635875,-0.14003162232330493,-0.06669110280529046,0.1363807110602945,0.10218357494986396,0.019588420513017183,0.09858451885425225,-0.10950245444071736,-0.11192341321435066,-0.05025345572092746,-0.14414126011130124,0.18674761562637926,-0.09712679146970304,0.02484421251326089,0.04498193396717707,